digraph Tree {
node [shape=box, style="filled, rounded", color="black", fontname="helvetica"] ;
edge [fontname="helvetica"] ;
0 [label="19_C <= 0.5\nentropy = 1.0\nsamples = 38179\nvalue = [30238, 30107]\nclass = Animal", fillcolor="#fffefe"] ;
1 [label="20_C <= 0.5\nentropy = 0.985\nsamples = 25842\nvalue = [23479, 17540]\nclass = Animal", fillcolor="#f8dfcd"] ;
0 -> 1 [labeldistance=2.5, labelangle=45, headlabel="True"] ;
2 [label="21_U <= 0.5\nentropy = 0.959\nsamples = 19069\nvalue = [18727, 11529]\nclass = Animal", fillcolor="#f5cfb3"] ;
1 -> 2 ;
3 [label="18_U <= 0.5\nentropy = 0.979\nsamples = 14434\nvalue = [13394, 9524]\nclass = Animal", fillcolor="#f7dbc6"] ;
2 -> 3 ;
4 [label="(...)", fillcolor="#C0C0C0"] ;
3 -> 4 ;
5879 [label="(...)", fillcolor="#C0C0C0"] ;
3 -> 5879 ;
7954 [label="22_U <= 0.5\nentropy = 0.846\nsamples = 4635\nvalue = [5333, 2005]\nclass = Animal", fillcolor="#efb083"] ;
2 -> 7954 ;
7955 [label="(...)", fillcolor="#C0C0C0"] ;
7954 -> 7955 ;
9554 [label="(...)", fillcolor="#C0C0C0"] ;
7954 -> 9554 ;
9833 [label="13_G <= 0.5\nentropy = 0.99\nsamples = 6773\nvalue = [4752, 6011]\nclass = Plant", fillcolor="#d6eafa"] ;
1 -> 9833 ;
9834 [label="22_U <= 0.5\nentropy = 1.0\nsamples = 4240\nvalue = [3479, 3308]\nclass = Animal", fillcolor="#fef9f5"] ;
9833 -> 9834 ;
9835 [label="(...)", fillcolor="#C0C0C0"] ;
9834 -> 9835 ;
11764 [label="(...)", fillcolor="#C0C0C0"] ;
9834 -> 11764 ;
12057 [label="11_G <= 0.5\nentropy = 0.905\nsamples = 2533\nvalue = [1273, 2703]\nclass = Plant", fillcolor="#96cbf1"] ;
9833 -> 12057 ;
12058 [label="(...)", fillcolor="#C0C0C0"] ;
12057 -> 12058 ;
12673 [label="(...)", fillcolor="#C0C0C0"] ;
12057 -> 12673 ;
12882 [label="9_U <= 0.5\nentropy = 0.934\nsamples = 12337\nvalue = [6759, 12567]\nclass = Plant", fillcolor="#a3d2f3"] ;
0 -> 12882 [labeldistance=2.5, labelangle=-45, headlabel="False"] ;
12883 [label="23_G <= 0.5\nentropy = 0.883\nsamples = 9454\nvalue = [4455, 10328]\nclass = Plant", fillcolor="#8ec7f0"] ;
12882 -> 12883 ;
12884 [label="9_G <= 0.5\nentropy = 0.866\nsamples = 9191\nvalue = [4136, 10216]\nclass = Plant", fillcolor="#89c5f0"] ;
12883 -> 12884 ;
12885 [label="(...)", fillcolor="#C0C0C0"] ;
12884 -> 12885 ;
14808 [label="(...)", fillcolor="#C0C0C0"] ;
12884 -> 14808 ;
15839 [label="22_C <= 0.5\nentropy = 0.827\nsamples = 263\nvalue = [319, 112]\nclass = Animal", fillcolor="#eead7f"] ;
12883 -> 15839 ;
15840 [label="(...)", fillcolor="#C0C0C0"] ;
15839 -> 15840 ;
15927 [label="(...)", fillcolor="#C0C0C0"] ;
15839 -> 15927 ;
15950 [label="20_C <= 0.5\nentropy = 1.0\nsamples = 2883\nvalue = [2304, 2239]\nclass = Animal", fillcolor="#fefbf9"] ;
12882 -> 15950 ;
15951 [label="15_G <= 0.5\nentropy = 0.981\nsamples = 2037\nvalue = [1878, 1351]\nclass = Animal", fillcolor="#f8dcc7"] ;
15950 -> 15951 ;
15952 [label="(...)", fillcolor="#C0C0C0"] ;
15951 -> 15952 ;
16673 [label="(...)", fillcolor="#C0C0C0"] ;
15951 -> 16673 ;
16934 [label="10_C <= 0.5\nentropy = 0.909\nsamples = 846\nvalue = [426, 888]\nclass = Plant", fillcolor="#98ccf1"] ;
15950 -> 16934 ;
16935 [label="(...)", fillcolor="#C0C0C0"] ;
16934 -> 16935 ;
17114 [label="(...)", fillcolor="#C0C0C0"] ;
16934 -> 17114 ;
}