digraph Tree {
node [shape=box, style="filled, rounded", color="black", fontname="helvetica"] ;
edge [fontname="helvetica"] ;
0 [label="22_G <= 0.5\nentropy = 1.0\nsamples = 38154\nvalue = [30192, 30153]\nclass = Animal", fillcolor="#ffffff"] ;
1 [label="19_C <= 0.5\nentropy = 0.995\nsamples = 33149\nvalue = [23915, 28386]\nclass = Plant", fillcolor="#e0f0fb"] ;
0 -> 1 [labeldistance=2.5, labelangle=45, headlabel="True"] ;
2 [label="18_U <= 0.5\nentropy = 0.998\nsamples = 21838\nvalue = [18163, 16245]\nclass = Animal", fillcolor="#fcf2ea"] ;
1 -> 2 ;
3 [label="22_A <= 0.5\nentropy = 1.0\nsamples = 15318\nvalue = [12216, 11940]\nclass = Animal", fillcolor="#fefcfb"] ;
2 -> 3 ;
4 [label="(...)", fillcolor="#C0C0C0"] ;
3 -> 4 ;
6955 [label="(...)", fillcolor="#C0C0C0"] ;
3 -> 6955 ;
8006 [label="21_G <= 0.5\nentropy = 0.981\nsamples = 6520\nvalue = [5947, 4305]\nclass = Animal", fillcolor="#f8dcc8"] ;
2 -> 8006 ;
8007 [label="(...)", fillcolor="#C0C0C0"] ;
8006 -> 8007 ;
10434 [label="(...)", fillcolor="#C0C0C0"] ;
8006 -> 10434 ;
11051 [label="23_U <= 0.5\nentropy = 0.906\nsamples = 11311\nvalue = [5752, 12141]\nclass = Plant", fillcolor="#97cbf1"] ;
1 -> 11051 ;
11052 [label="1_U <= 0.5\nentropy = 0.891\nsamples = 11048\nvalue = [5386, 12073]\nclass = Plant", fillcolor="#91c9f1"] ;
11051 -> 11052 ;
11053 [label="(...)", fillcolor="#C0C0C0"] ;
11052 -> 11053 ;
12968 [label="(...)", fillcolor="#C0C0C0"] ;
11052 -> 12968 ;
14547 [label="11_A <= 0.5\nentropy = 0.626\nsamples = 263\nvalue = [366, 68]\nclass = Animal", fillcolor="#ea985e"] ;
11051 -> 14547 ;
14548 [label="(...)", fillcolor="#C0C0C0"] ;
14547 -> 14548 ;
14637 [label="(...)", fillcolor="#C0C0C0"] ;
14547 -> 14637 ;
14658 [label="24_G <= 0.5\nentropy = 0.76\nsamples = 5005\nvalue = [6277, 1767]\nclass = Animal", fillcolor="#eca471"] ;
0 -> 14658 [labeldistance=2.5, labelangle=-45, headlabel="False"] ;
14659 [label="10_C <= 0.5\nentropy = 0.733\nsamples = 4782\nvalue = [6132, 1589]\nclass = Animal", fillcolor="#eca26c"] ;
14658 -> 14659 ;
14660 [label="3_G <= 0.5\nentropy = 0.764\nsamples = 3604\nvalue = [4513, 1287]\nclass = Animal", fillcolor="#eca571"] ;
14659 -> 14660 ;
14661 [label="(...)", fillcolor="#C0C0C0"] ;
14660 -> 14661 ;
15676 [label="(...)", fillcolor="#C0C0C0"] ;
14660 -> 15676 ;
16061 [label="8_A <= 0.5\nentropy = 0.628\nsamples = 1178\nvalue = [1619, 302]\nclass = Animal", fillcolor="#ea995e"] ;
14659 -> 16061 ;
16062 [label="(...)", fillcolor="#C0C0C0"] ;
16061 -> 16062 ;
16379 [label="(...)", fillcolor="#C0C0C0"] ;
16061 -> 16379 ;
16458 [label="17_G <= 0.5\nentropy = 0.992\nsamples = 223\nvalue = [145, 178]\nclass = Plant", fillcolor="#daedfa"] ;
14658 -> 16458 ;
16459 [label="23_U <= 0.5\nentropy = 0.996\nsamples = 142\nvalue = [110, 95]\nclass = Animal", fillcolor="#fbeee4"] ;
16458 -> 16459 ;
16460 [label="(...)", fillcolor="#C0C0C0"] ;
16459 -> 16460 ;
16513 [label="(...)", fillcolor="#C0C0C0"] ;
16459 -> 16513 ;
16534 [label="4_U <= 0.5\nentropy = 0.877\nsamples = 81\nvalue = [35, 83]\nclass = Plant", fillcolor="#8cc6f0"] ;
16458 -> 16534 ;
16535 [label="(...)", fillcolor="#C0C0C0"] ;
16534 -> 16535 ;
16562 [label="(...)", fillcolor="#C0C0C0"] ;
16534 -> 16562 ;
}