digraph Tree {
node [shape=box, style="filled, rounded", color="black", fontname="helvetica"] ;
edge [fontname="helvetica"] ;
0 [label="8_G <= 0.5\nentropy = 1.0\nsamples = 38121\nvalue = [30152, 30193]\nclass = Plant", fillcolor="#ffffff"] ;
1 [label="1_U <= 0.5\nentropy = 0.992\nsamples = 26321\nvalue = [22932, 18678]\nclass = Animal", fillcolor="#fae8da"] ;
0 -> 1 [labeldistance=2.5, labelangle=45, headlabel="True"] ;
2 [label="2_G <= 0.5\nentropy = 0.959\nsamples = 12884\nvalue = [12589, 7767]\nclass = Animal", fillcolor="#f5cfb3"] ;
1 -> 2 ;
3 [label="9_U <= 0.5\nentropy = 0.936\nsamples = 9540\nvalue = [9743, 5295]\nclass = Animal", fillcolor="#f3c5a5"] ;
2 -> 3 ;
4 [label="(...)", fillcolor="#C0C0C0"] ;
3 -> 4 ;
3841 [label="(...)", fillcolor="#C0C0C0"] ;
3 -> 3841 ;
5302 [label="10_A <= 0.5\nentropy = 0.996\nsamples = 3344\nvalue = [2846, 2472]\nclass = Animal", fillcolor="#fceee5"] ;
2 -> 5302 ;
5303 [label="(...)", fillcolor="#C0C0C0"] ;
5302 -> 5303 ;
6760 [label="(...)", fillcolor="#C0C0C0"] ;
5302 -> 6760 ;
7183 [label="11_G <= 0.5\nentropy = 0.999\nsamples = 13437\nvalue = [10343, 10911]\nclass = Plant", fillcolor="#f5fafe"] ;
1 -> 7183 ;
7184 [label="9_U <= 0.5\nentropy = 1.0\nsamples = 9832\nvalue = [7853, 7666]\nclass = Animal", fillcolor="#fefcfa"] ;
7183 -> 7184 ;
7185 [label="(...)", fillcolor="#C0C0C0"] ;
7184 -> 7185 ;
10062 [label="(...)", fillcolor="#C0C0C0"] ;
7184 -> 10062 ;
11313 [label="13_G <= 0.5\nentropy = 0.987\nsamples = 3605\nvalue = [2490, 3245]\nclass = Plant", fillcolor="#d1e8f9"] ;
7183 -> 11313 ;
11314 [label="(...)", fillcolor="#C0C0C0"] ;
11313 -> 11314 ;
12383 [label="(...)", fillcolor="#C0C0C0"] ;
11313 -> 12383 ;
12750 [label="18_C <= 0.5\nentropy = 0.962\nsamples = 11800\nvalue = [7220, 11515]\nclass = Plant", fillcolor="#b5daf5"] ;
0 -> 12750 [labeldistance=2.5, labelangle=-45, headlabel="False"] ;
12751 [label="22_A <= 0.5\nentropy = 0.985\nsamples = 8331\nvalue = [5638, 7505]\nclass = Plant", fillcolor="#cee7f9"] ;
12750 -> 12751 ;
12752 [label="21_U <= 0.5\nentropy = 0.974\nsamples = 7452\nvalue = [4745, 6964]\nclass = Plant", fillcolor="#c0e0f7"] ;
12751 -> 12752 ;
12753 [label="(...)", fillcolor="#C0C0C0"] ;
12752 -> 12753 ;
15172 [label="(...)", fillcolor="#C0C0C0"] ;
12752 -> 15172 ;
15895 [label="7_A <= 0.5\nentropy = 0.956\nsamples = 879\nvalue = [893, 541]\nclass = Animal", fillcolor="#f5cdb1"] ;
12751 -> 15895 ;
15896 [label="(...)", fillcolor="#C0C0C0"] ;
15895 -> 15896 ;
16199 [label="(...)", fillcolor="#C0C0C0"] ;
15895 -> 16199 ;
16306 [label="10_A <= 0.5\nentropy = 0.859\nsamples = 3469\nvalue = [1582, 4010]\nclass = Plant", fillcolor="#87c4ef"] ;
12750 -> 16306 ;
16307 [label="7_C <= 0.5\nentropy = 1.0\nsamples = 1474\nvalue = [1193, 1153]\nclass = Animal", fillcolor="#fefbf8"] ;
16306 -> 16307 ;
16308 [label="(...)", fillcolor="#C0C0C0"] ;
16307 -> 16308 ;
16921 [label="(...)", fillcolor="#C0C0C0"] ;
16307 -> 16921 ;
17052 [label="6_A <= 0.5\nentropy = 0.529\nsamples = 1995\nvalue = [389, 2857]\nclass = Plant", fillcolor="#54aae9"] ;
16306 -> 17052 ;
17053 [label="(...)", fillcolor="#C0C0C0"] ;
17052 -> 17053 ;
17240 [label="(...)", fillcolor="#C0C0C0"] ;
17052 -> 17240 ;
}