digraph Tree {
node [shape=box, style="filled, rounded", color="black", fontname="helvetica"] ;
edge [fontname="helvetica"] ;
0 [label="20_C <= 0.5\nentropy = 1.0\nsamples = 38236\nvalue = [30180, 30165]\nclass = Animal", fillcolor="#ffffff"] ;
1 [label="6_A <= 0.5\nentropy = 0.995\nsamples = 28151\nvalue = [24201, 20340]\nclass = Animal", fillcolor="#fbebdf"] ;
0 -> 1 [labeldistance=2.5, labelangle=45, headlabel="True"] ;
2 [label="9_U <= 0.5\nentropy = 0.981\nsamples = 20969\nvalue = [19249, 13931]\nclass = Animal", fillcolor="#f8dcc8"] ;
1 -> 2 ;
3 [label="20_A <= 0.5\nentropy = 0.996\nsamples = 14322\nvalue = [12144, 10497]\nclass = Animal", fillcolor="#fbeee4"] ;
2 -> 3 ;
4 [label="(...)", fillcolor="#C0C0C0"] ;
3 -> 4 ;
4857 [label="(...)", fillcolor="#C0C0C0"] ;
3 -> 4857 ;
6944 [label="17_A <= 0.5\nentropy = 0.911\nsamples = 6647\nvalue = [7105, 3434]\nclass = Animal", fillcolor="#f2be99"] ;
2 -> 6944 ;
6945 [label="(...)", fillcolor="#C0C0C0"] ;
6944 -> 6945 ;
9174 [label="(...)", fillcolor="#C0C0C0"] ;
6944 -> 9174 ;
9839 [label="22_U <= 0.5\nentropy = 0.988\nsamples = 7182\nvalue = [4952, 6409]\nclass = Plant", fillcolor="#d2e9f9"] ;
1 -> 9839 ;
9840 [label="19_C <= 0.5\nentropy = 0.961\nsamples = 6277\nvalue = [3817, 6106]\nclass = Plant", fillcolor="#b5daf5"] ;
9839 -> 9840 ;
9841 [label="(...)", fillcolor="#C0C0C0"] ;
9840 -> 9841 ;
11856 [label="(...)", fillcolor="#C0C0C0"] ;
9840 -> 11856 ;
12565 [label="9_U <= 0.5\nentropy = 0.743\nsamples = 905\nvalue = [1135, 303]\nclass = Animal", fillcolor="#eca36e"] ;
9839 -> 12565 ;
12566 [label="(...)", fillcolor="#C0C0C0"] ;
12565 -> 12566 ;
12847 [label="(...)", fillcolor="#C0C0C0"] ;
12565 -> 12847 ;
12926 [label="16_A <= 0.5\nentropy = 0.957\nsamples = 10085\nvalue = [5979, 9825]\nclass = Plant", fillcolor="#b1d9f5"] ;
0 -> 12926 [labeldistance=2.5, labelangle=-45, headlabel="False"] ;
12927 [label="23_C <= 0.5\nentropy = 0.973\nsamples = 6644\nvalue = [4218, 6217]\nclass = Plant", fillcolor="#bfdff7"] ;
12926 -> 12927 ;
12928 [label="8_A <= 0.5\nentropy = 0.964\nsamples = 6382\nvalue = [3896, 6115]\nclass = Plant", fillcolor="#b7dbf6"] ;
12927 -> 12928 ;
12929 [label="(...)", fillcolor="#C0C0C0"] ;
12928 -> 12929 ;
15168 [label="(...)", fillcolor="#C0C0C0"] ;
12928 -> 15168 ;
15903 [label="2_G <= 0.5\nentropy = 0.796\nsamples = 262\nvalue = [322, 102]\nclass = Animal", fillcolor="#eda978"] ;
12927 -> 15903 ;
15904 [label="(...)", fillcolor="#C0C0C0"] ;
15903 -> 15904 ;
16001 [label="(...)", fillcolor="#C0C0C0"] ;
15903 -> 16001 ;
16036 [label="9_G <= 0.5\nentropy = 0.913\nsamples = 3441\nvalue = [1761, 3608]\nclass = Plant", fillcolor="#9acdf2"] ;
12926 -> 16036 ;
16037 [label="12_C <= 0.5\nentropy = 0.972\nsamples = 2165\nvalue = [1355, 2010]\nclass = Plant", fillcolor="#bedff7"] ;
16036 -> 16037 ;
16038 [label="(...)", fillcolor="#C0C0C0"] ;
16037 -> 16038 ;
16583 [label="(...)", fillcolor="#C0C0C0"] ;
16037 -> 16583 ;
16752 [label="8_C <= 0.5\nentropy = 0.727\nsamples = 1276\nvalue = [406, 1598]\nclass = Plant", fillcolor="#6bb6ec"] ;
16036 -> 16752 ;
16753 [label="(...)", fillcolor="#C0C0C0"] ;
16752 -> 16753 ;
16952 [label="(...)", fillcolor="#C0C0C0"] ;
16752 -> 16952 ;
}