digraph Tree {
node [shape=box, style="filled, rounded", color="black", fontname="helvetica"] ;
edge [fontname="helvetica"] ;
0 [label="9_G <= 0.5\nentropy = 1.0\nsamples = 38160\nvalue = [30334, 30011]\nclass = Animal", fillcolor="#fffefd"] ;
1 [label="7_C <= 0.5\nentropy = 0.996\nsamples = 27576\nvalue = [23534, 20121]\nclass = Animal", fillcolor="#fbede2"] ;
0 -> 1 [labeldistance=2.5, labelangle=45, headlabel="True"] ;
2 [label="1_A <= 0.5\nentropy = 0.999\nsamples = 22165\nvalue = [18301, 16802]\nclass = Animal", fillcolor="#fdf5ef"] ;
1 -> 2 ;
3 [label="16_U <= 0.5\nentropy = 1.0\nsamples = 17767\nvalue = [13677, 14390]\nclass = Plant", fillcolor="#f5fafe"] ;
2 -> 3 ;
4 [label="(...)", fillcolor="#C0C0C0"] ;
3 -> 4 ;
5477 [label="(...)", fillcolor="#C0C0C0"] ;
3 -> 5477 ;
7596 [label="23_A <= 0.5\nentropy = 0.927\nsamples = 4398\nvalue = [4624, 2412]\nclass = Animal", fillcolor="#f3c3a0"] ;
2 -> 7596 ;
7597 [label="(...)", fillcolor="#C0C0C0"] ;
7596 -> 7597 ;
9860 [label="(...)", fillcolor="#C0C0C0"] ;
7596 -> 9860 ;
9999 [label="22_A <= 0.5\nentropy = 0.964\nsamples = 5411\nvalue = [5233, 3319]\nclass = Animal", fillcolor="#f5d1b7"] ;
1 -> 9999 ;
10000 [label="4_G <= 0.5\nentropy = 0.977\nsamples = 4765\nvalue = [4446, 3096]\nclass = Animal", fillcolor="#f7d9c3"] ;
9999 -> 10000 ;
10001 [label="(...)", fillcolor="#C0C0C0"] ;
10000 -> 10001 ;
11528 [label="(...)", fillcolor="#C0C0C0"] ;
10000 -> 11528 ;
12227 [label="6_G <= 0.5\nentropy = 0.762\nsamples = 646\nvalue = [787, 223]\nclass = Animal", fillcolor="#eca571"] ;
9999 -> 12227 ;
12228 [label="(...)", fillcolor="#C0C0C0"] ;
12227 -> 12228 ;
12471 [label="(...)", fillcolor="#C0C0C0"] ;
12227 -> 12471 ;
12536 [label="19_U <= 0.5\nentropy = 0.975\nsamples = 10584\nvalue = [6800, 9890]\nclass = Plant", fillcolor="#c1e0f7"] ;
0 -> 12536 [labeldistance=2.5, labelangle=-45, headlabel="False"] ;
12537 [label="22_U <= 0.5\nentropy = 0.936\nsamples = 8621\nvalue = [4805, 8819]\nclass = Plant", fillcolor="#a5d2f3"] ;
12536 -> 12537 ;
12538 [label="5_A <= 0.5\nentropy = 0.892\nsamples = 7730\nvalue = [3777, 8442]\nclass = Plant", fillcolor="#92c9f1"] ;
12537 -> 12538 ;
12539 [label="(...)", fillcolor="#C0C0C0"] ;
12538 -> 12539 ;
14702 [label="(...)", fillcolor="#C0C0C0"] ;
12538 -> 14702 ;
15387 [label="8_U <= 0.5\nentropy = 0.839\nsamples = 891\nvalue = [1028, 377]\nclass = Animal", fillcolor="#efaf82"] ;
12537 -> 15387 ;
15388 [label="(...)", fillcolor="#C0C0C0"] ;
15387 -> 15388 ;
15663 [label="(...)", fillcolor="#C0C0C0"] ;
15387 -> 15663 ;
15778 [label="5_A <= 0.5\nentropy = 0.933\nsamples = 1963\nvalue = [1995, 1071]\nclass = Animal", fillcolor="#f3c5a3"] ;
12536 -> 15778 ;
15779 [label="14_C <= 0.5\nentropy = 0.896\nsamples = 1447\nvalue = [1574, 716]\nclass = Animal", fillcolor="#f1ba93"] ;
15778 -> 15779 ;
15780 [label="(...)", fillcolor="#C0C0C0"] ;
15779 -> 15780 ;
16437 [label="(...)", fillcolor="#C0C0C0"] ;
15779 -> 16437 ;
16608 [label="13_C <= 0.5\nentropy = 0.995\nsamples = 516\nvalue = [421, 355]\nclass = Animal", fillcolor="#fbebe0"] ;
15778 -> 16608 ;
16609 [label="(...)", fillcolor="#C0C0C0"] ;
16608 -> 16609 ;
16846 [label="(...)", fillcolor="#C0C0C0"] ;
16608 -> 16846 ;
}