digraph Tree {
node [shape=box, style="filled, rounded", color="black", fontname="helvetica"] ;
edge [fontname="helvetica"] ;
0 [label="23_A <= 0.5\nentropy = 1.0\nsamples = 37957\nvalue = [30193, 30152]\nclass = Animal", fillcolor="#ffffff"] ;
1 [label="19_C <= 0.5\nentropy = 1.0\nsamples = 36459\nvalue = [28428, 29569]\nclass = Plant", fillcolor="#f7fbfe"] ;
0 -> 1 [labeldistance=2.5, labelangle=45, headlabel="True"] ;
2 [label="21_C <= 0.5\nentropy = 0.99\nsamples = 24538\nvalue = [21829, 17144]\nclass = Animal", fillcolor="#f9e4d5"] ;
1 -> 2 ;
3 [label="20_C <= 0.5\nentropy = 0.98\nsamples = 18974\nvalue = [17539, 12522]\nclass = Animal", fillcolor="#f8dbc6"] ;
2 -> 3 ;
4 [label="(...)", fillcolor="#C0C0C0"] ;
3 -> 4 ;
7371 [label="(...)", fillcolor="#C0C0C0"] ;
3 -> 7371 ;
9650 [label="10_A <= 0.5\nentropy = 0.999\nsamples = 5564\nvalue = [4290, 4622]\nclass = Plant", fillcolor="#f1f8fd"] ;
2 -> 9650 ;
9651 [label="(...)", fillcolor="#C0C0C0"] ;
9650 -> 9651 ;
11616 [label="(...)", fillcolor="#C0C0C0"] ;
9650 -> 11616 ;
12197 [label="5_A <= 0.5\nentropy = 0.931\nsamples = 11921\nvalue = [6599, 12425]\nclass = Plant", fillcolor="#a2d1f3"] ;
1 -> 12197 ;
12198 [label="8_C <= 0.5\nentropy = 0.965\nsamples = 8362\nvalue = [5202, 8152]\nclass = Plant", fillcolor="#b7dcf6"] ;
12197 -> 12198 ;
12199 [label="(...)", fillcolor="#C0C0C0"] ;
12198 -> 12199 ;
14464 [label="(...)", fillcolor="#C0C0C0"] ;
12198 -> 14464 ;
15173 [label="10_C <= 0.5\nentropy = 0.805\nsamples = 3559\nvalue = [1397, 4273]\nclass = Plant", fillcolor="#7abdee"] ;
12197 -> 15173 ;
15174 [label="(...)", fillcolor="#C0C0C0"] ;
15173 -> 15174 ;
15937 [label="(...)", fillcolor="#C0C0C0"] ;
15173 -> 15937 ;
16132 [label="11_A <= 0.5\nentropy = 0.809\nsamples = 1498\nvalue = [1765, 583]\nclass = Animal", fillcolor="#eeab7a"] ;
0 -> 16132 [labeldistance=2.5, labelangle=-45, headlabel="False"] ;
16133 [label="5_A <= 0.5\nentropy = 0.749\nsamples = 1161\nvalue = [1439, 392]\nclass = Animal", fillcolor="#eca36f"] ;
16132 -> 16133 ;
16134 [label="7_G <= 0.5\nentropy = 0.783\nsamples = 886\nvalue = [1080, 328]\nclass = Animal", fillcolor="#eda775"] ;
16133 -> 16134 ;
16135 [label="(...)", fillcolor="#C0C0C0"] ;
16134 -> 16135 ;
16458 [label="(...)", fillcolor="#C0C0C0"] ;
16134 -> 16458 ;
16579 [label="24_C <= 0.5\nentropy = 0.613\nsamples = 275\nvalue = [359, 64]\nclass = Animal", fillcolor="#ea975c"] ;
16133 -> 16579 ;
16580 [label="(...)", fillcolor="#C0C0C0"] ;
16579 -> 16580 ;
16671 [label="(...)", fillcolor="#C0C0C0"] ;
16579 -> 16671 ;
16682 [label="15_C <= 0.5\nentropy = 0.95\nsamples = 337\nvalue = [326, 191]\nclass = Animal", fillcolor="#f4cbad"] ;
16132 -> 16682 ;
16683 [label="5_A <= 0.5\nentropy = 0.873\nsamples = 247\nvalue = [265, 110]\nclass = Animal", fillcolor="#f0b58b"] ;
16682 -> 16683 ;
16684 [label="(...)", fillcolor="#C0C0C0"] ;
16683 -> 16684 ;
16769 [label="(...)", fillcolor="#C0C0C0"] ;
16683 -> 16769 ;
16794 [label="26_G <= 0.5\nentropy = 0.986\nsamples = 90\nvalue = [61, 81]\nclass = Plant", fillcolor="#cee7f9"] ;
16682 -> 16794 ;
16795 [label="(...)", fillcolor="#C0C0C0"] ;
16794 -> 16795 ;
16834 [label="(...)", fillcolor="#C0C0C0"] ;
16794 -> 16834 ;
}