digraph Tree {
node [shape=box, style="filled, rounded", color="black", fontname="helvetica"] ;
edge [fontname="helvetica"] ;
0 [label="21_U <= 0.5\nentropy = 1.0\nsamples = 38099\nvalue = [30195, 30150]\nclass = Animal", fillcolor="#ffffff"] ;
1 [label="22_U <= 0.5\nentropy = 0.997\nsamples = 29467\nvalue = [21982, 24801]\nclass = Plant", fillcolor="#e8f4fc"] ;
0 -> 1 [labeldistance=2.5, labelangle=45, headlabel="True"] ;
2 [label="23_U <= 0.5\nentropy = 0.982\nsamples = 25721\nvalue = [17232, 23614]\nclass = Plant", fillcolor="#c9e5f8"] ;
1 -> 2 ;
3 [label="20_C <= 0.5\nentropy = 0.974\nsamples = 24671\nvalue = [15882, 23291]\nclass = Plant", fillcolor="#c0e0f7"] ;
2 -> 3 ;
4 [label="(...)", fillcolor="#C0C0C0"] ;
3 -> 4 ;
9121 [label="(...)", fillcolor="#C0C0C0"] ;
3 -> 9121 ;
11732 [label="9_A <= 0.5\nentropy = 0.708\nsamples = 1050\nvalue = [1350, 323]\nclass = Animal", fillcolor="#eb9f68"] ;
2 -> 11732 ;
11733 [label="(...)", fillcolor="#C0C0C0"] ;
11732 -> 11733 ;
12060 [label="(...)", fillcolor="#C0C0C0"] ;
11732 -> 12060 ;
12187 [label="9_U <= 0.5\nentropy = 0.722\nsamples = 3746\nvalue = [4750, 1187]\nclass = Animal", fillcolor="#eba06a"] ;
1 -> 12187 ;
12188 [label="20_U <= 0.5\nentropy = 0.782\nsamples = 2550\nvalue = [3126, 946]\nclass = Animal", fillcolor="#eda775"] ;
12187 -> 12188 ;
12189 [label="(...)", fillcolor="#C0C0C0"] ;
12188 -> 12189 ;
13030 [label="(...)", fillcolor="#C0C0C0"] ;
12188 -> 13030 ;
13273 [label="2_U <= 0.5\nentropy = 0.555\nsamples = 1196\nvalue = [1624, 241]\nclass = Animal", fillcolor="#e99456"] ;
12187 -> 13273 ;
13274 [label="(...)", fillcolor="#C0C0C0"] ;
13273 -> 13274 ;
13599 [label="(...)", fillcolor="#C0C0C0"] ;
13273 -> 13599 ;
13708 [label="22_U <= 0.5\nentropy = 0.968\nsamples = 8632\nvalue = [8213, 5349]\nclass = Animal", fillcolor="#f6d3ba"] ;
0 -> 13708 [labeldistance=2.5, labelangle=-45, headlabel="False"] ;
13709 [label="19_C <= 0.5\nentropy = 0.99\nsamples = 7253\nvalue = [6342, 5035]\nclass = Animal", fillcolor="#fae5d6"] ;
13708 -> 13709 ;
13710 [label="2_A <= 0.5\nentropy = 0.932\nsamples = 5199\nvalue = [5341, 2843]\nclass = Animal", fillcolor="#f3c4a2"] ;
13709 -> 13710 ;
13711 [label="(...)", fillcolor="#C0C0C0"] ;
13710 -> 13711 ;
15574 [label="(...)", fillcolor="#C0C0C0"] ;
13710 -> 15574 ;
16201 [label="14_U <= 0.5\nentropy = 0.897\nsamples = 2054\nvalue = [1001, 2192]\nclass = Plant", fillcolor="#93caf1"] ;
13709 -> 16201 ;
16202 [label="(...)", fillcolor="#C0C0C0"] ;
16201 -> 16202 ;
16713 [label="(...)", fillcolor="#C0C0C0"] ;
16201 -> 16713 ;
16956 [label="20_C <= 0.5\nentropy = 0.594\nsamples = 1379\nvalue = [1871, 314]\nclass = Animal", fillcolor="#e9965a"] ;
13708 -> 16956 ;
16957 [label="15_C <= 0.5\nentropy = 0.528\nsamples = 1103\nvalue = [1547, 210]\nclass = Animal", fillcolor="#e99254"] ;
16956 -> 16957 ;
16958 [label="(...)", fillcolor="#C0C0C0"] ;
16957 -> 16958 ;
17273 [label="(...)", fillcolor="#C0C0C0"] ;
16957 -> 17273 ;
17360 [label="15_U <= 0.5\nentropy = 0.8\nsamples = 276\nvalue = [324, 104]\nclass = Animal", fillcolor="#eda979"] ;
16956 -> 17360 ;
17361 [label="(...)", fillcolor="#C0C0C0"] ;
17360 -> 17361 ;
17434 [label="(...)", fillcolor="#C0C0C0"] ;
17360 -> 17434 ;
}