digraph Tree {
node [shape=box, style="filled, rounded", color="black", fontname="helvetica"] ;
edge [fontname="helvetica"] ;
0 [label="8_G <= 0.5\nentropy = 1.0\nsamples = 38125\nvalue = [30261, 30084]\nclass = Animal", fillcolor="#fffefe"] ;
1 [label="21_U <= 0.5\nentropy = 0.992\nsamples = 26366\nvalue = [23049, 18663]\nclass = Animal", fillcolor="#fae7d9"] ;
0 -> 1 [labeldistance=2.5, labelangle=45, headlabel="True"] ;
2 [label="20_C <= 0.5\nentropy = 0.998\nsamples = 20348\nvalue = [16914, 15240]\nclass = Animal", fillcolor="#fcf3eb"] ;
1 -> 2 ;
3 [label="1_A <= 0.5\nentropy = 0.973\nsamples = 14597\nvalue = [13775, 9302]\nclass = Animal", fillcolor="#f7d6bf"] ;
2 -> 3 ;
4 [label="(...)", fillcolor="#C0C0C0"] ;
3 -> 4 ;
5895 [label="(...)", fillcolor="#C0C0C0"] ;
3 -> 5895 ;
7770 [label="2_A <= 0.5\nentropy = 0.93\nsamples = 5751\nvalue = [3139, 5938]\nclass = Plant", fillcolor="#a2d1f3"] ;
2 -> 7770 ;
7771 [label="(...)", fillcolor="#C0C0C0"] ;
7770 -> 7771 ;
9560 [label="(...)", fillcolor="#C0C0C0"] ;
7770 -> 9560 ;
10091 [label="20_A <= 0.5\nentropy = 0.941\nsamples = 6018\nvalue = [6135, 3423]\nclass = Animal", fillcolor="#f4c7a7"] ;
1 -> 10091 ;
10092 [label="22_U <= 0.5\nentropy = 0.91\nsamples = 4724\nvalue = [5041, 2434]\nclass = Animal", fillcolor="#f2be99"] ;
10091 -> 10092 ;
10093 [label="(...)", fillcolor="#C0C0C0"] ;
10092 -> 10093 ;
11968 [label="(...)", fillcolor="#C0C0C0"] ;
10092 -> 11968 ;
12293 [label="19_U <= 0.5\nentropy = 0.998\nsamples = 1294\nvalue = [1094, 989]\nclass = Animal", fillcolor="#fdf3ec"] ;
10091 -> 12293 ;
12294 [label="(...)", fillcolor="#C0C0C0"] ;
12293 -> 12294 ;
12771 [label="(...)", fillcolor="#C0C0C0"] ;
12293 -> 12771 ;
12892 [label="20_G <= 0.5\nentropy = 0.963\nsamples = 11759\nvalue = [7212, 11421]\nclass = Plant", fillcolor="#b6dbf5"] ;
0 -> 12892 [labeldistance=2.5, labelangle=-45, headlabel="False"] ;
12893 [label="23_U <= 0.5\nentropy = 0.932\nsamples = 9041\nvalue = [4992, 9372]\nclass = Plant", fillcolor="#a2d1f3"] ;
12892 -> 12893 ;
12894 [label="22_A <= 0.5\nentropy = 0.917\nsamples = 8729\nvalue = [4606, 9286]\nclass = Plant", fillcolor="#9bcef2"] ;
12893 -> 12894 ;
12895 [label="(...)", fillcolor="#C0C0C0"] ;
12894 -> 12895 ;
15826 [label="(...)", fillcolor="#C0C0C0"] ;
12894 -> 15826 ;
16205 [label="6_G <= 0.5\nentropy = 0.685\nsamples = 312\nvalue = [386, 86]\nclass = Animal", fillcolor="#eb9d65"] ;
12893 -> 16205 ;
16206 [label="(...)", fillcolor="#C0C0C0"] ;
16205 -> 16206 ;
16295 [label="(...)", fillcolor="#C0C0C0"] ;
16205 -> 16295 ;
16334 [label="19_C <= 0.5\nentropy = 0.999\nsamples = 2718\nvalue = [2220, 2049]\nclass = Animal", fillcolor="#fdf5f0"] ;
12892 -> 16334 ;
16335 [label="21_U <= 0.5\nentropy = 0.935\nsamples = 2005\nvalue = [2045, 1104]\nclass = Animal", fillcolor="#f3c5a4"] ;
16334 -> 16335 ;
16336 [label="(...)", fillcolor="#C0C0C0"] ;
16335 -> 16336 ;
17137 [label="(...)", fillcolor="#C0C0C0"] ;
16335 -> 17137 ;
17352 [label="14_U <= 0.5\nentropy = 0.625\nsamples = 713\nvalue = [175, 945]\nclass = Plant", fillcolor="#5eafea"] ;
16334 -> 17352 ;
17353 [label="(...)", fillcolor="#C0C0C0"] ;
17352 -> 17353 ;
17470 [label="(...)", fillcolor="#C0C0C0"] ;
17352 -> 17470 ;
}