digraph Tree {
node [shape=box, style="filled, rounded", color="black", fontname="helvetica"] ;
edge [fontname="helvetica"] ;
0 [label="3_U <= 0.5\nentropy = 1.0\nsamples = 38027\nvalue = [30162, 30183]\nclass = Plant", fillcolor="#ffffff"] ;
1 [label="19_C <= 0.5\nentropy = 0.999\nsamples = 29941\nvalue = [22916, 24521]\nclass = Plant", fillcolor="#f2f9fd"] ;
0 -> 1 [labeldistance=2.5, labelangle=45, headlabel="True"] ;
2 [label="2_A <= 0.5\nentropy = 0.988\nsamples = 20025\nvalue = [17951, 13872]\nclass = Animal", fillcolor="#f9e2d2"] ;
1 -> 2 ;
3 [label="16_A <= 0.5\nentropy = 0.998\nsamples = 14858\nvalue = [12297, 11190]\nclass = Animal", fillcolor="#fdf4ed"] ;
2 -> 3 ;
4 [label="(...)", fillcolor="#C0C0C0"] ;
3 -> 4 ;
5559 [label="(...)", fillcolor="#C0C0C0"] ;
3 -> 5559 ;
7370 [label="20_C <= 0.5\nentropy = 0.906\nsamples = 5167\nvalue = [5654, 2682]\nclass = Animal", fillcolor="#f1bd97"] ;
2 -> 7370 ;
7371 [label="(...)", fillcolor="#C0C0C0"] ;
7370 -> 7371 ;
9294 [label="(...)", fillcolor="#C0C0C0"] ;
7370 -> 9294 ;
9775 [label="22_U <= 0.5\nentropy = 0.902\nsamples = 9916\nvalue = [4965, 10649]\nclass = Plant", fillcolor="#95cbf1"] ;
1 -> 9775 ;
9776 [label="4_U <= 0.5\nentropy = 0.841\nsamples = 8987\nvalue = [3813, 10340]\nclass = Plant", fillcolor="#82c1ef"] ;
9775 -> 9776 ;
9777 [label="(...)", fillcolor="#C0C0C0"] ;
9776 -> 9777 ;
11948 [label="(...)", fillcolor="#C0C0C0"] ;
9776 -> 11948 ;
12481 [label="8_A <= 0.5\nentropy = 0.744\nsamples = 929\nvalue = [1152, 309]\nclass = Animal", fillcolor="#eca36e"] ;
9775 -> 12481 ;
12482 [label="(...)", fillcolor="#C0C0C0"] ;
12481 -> 12482 ;
12751 [label="(...)", fillcolor="#C0C0C0"] ;
12481 -> 12751 ;
12850 [label="22_U <= 0.5\nentropy = 0.989\nsamples = 8086\nvalue = [7246, 5662]\nclass = Animal", fillcolor="#f9e3d4"] ;
0 -> 12850 [labeldistance=2.5, labelangle=-45, headlabel="False"] ;
12851 [label="22_G <= 0.5\nentropy = 0.998\nsamples = 6995\nvalue = [5852, 5308]\nclass = Animal", fillcolor="#fdf3ed"] ;
12850 -> 12851 ;
12852 [label="6_C <= 0.5\nentropy = 0.996\nsamples = 5724\nvalue = [4209, 4928]\nclass = Plant", fillcolor="#e2f1fb"] ;
12851 -> 12852 ;
12853 [label="(...)", fillcolor="#C0C0C0"] ;
12852 -> 12853 ;
15318 [label="(...)", fillcolor="#C0C0C0"] ;
12852 -> 15318 ;
16023 [label="25_G <= 0.5\nentropy = 0.697\nsamples = 1271\nvalue = [1643, 380]\nclass = Animal", fillcolor="#eb9e67"] ;
12851 -> 16023 ;
16024 [label="(...)", fillcolor="#C0C0C0"] ;
16023 -> 16024 ;
16451 [label="(...)", fillcolor="#C0C0C0"] ;
16023 -> 16451 ;
16464 [label="20_U <= 0.5\nentropy = 0.727\nsamples = 1091\nvalue = [1394, 354]\nclass = Animal", fillcolor="#eca16b"] ;
12850 -> 16464 ;
16465 [label="5_G <= 0.5\nentropy = 0.827\nsamples = 728\nvalue = [868, 305]\nclass = Animal", fillcolor="#eead7f"] ;
16464 -> 16465 ;
16466 [label="(...)", fillcolor="#C0C0C0"] ;
16465 -> 16466 ;
16699 [label="(...)", fillcolor="#C0C0C0"] ;
16465 -> 16699 ;
16830 [label="24_A <= 0.5\nentropy = 0.42\nsamples = 363\nvalue = [526, 49]\nclass = Animal", fillcolor="#e78d4b"] ;
16464 -> 16830 ;
16831 [label="(...)", fillcolor="#C0C0C0"] ;
16830 -> 16831 ;
16926 [label="(...)", fillcolor="#C0C0C0"] ;
16830 -> 16926 ;
}