digraph Tree {
node [shape=box, style="filled, rounded", color="black", fontname="helvetica"] ;
edge [fontname="helvetica"] ;
0 [label="22_A <= 0.5\nentropy = 1.0\nsamples = 38091\nvalue = [30104, 30241]\nclass = Plant", fillcolor="#feffff"] ;
1 [label="23_A <= 0.5\nentropy = 0.998\nsamples = 33949\nvalue = [25340, 28312]\nclass = Plant", fillcolor="#eaf5fc"] ;
0 -> 1 [labeldistance=2.5, labelangle=45, headlabel="True"] ;
2 [label="8_U <= 0.5\nentropy = 0.996\nsamples = 32630\nvalue = [23780, 27844]\nclass = Plant", fillcolor="#e2f1fb"] ;
1 -> 2 ;
3 [label="19_U <= 0.5\nentropy = 0.988\nsamples = 24673\nvalue = [17038, 22004]\nclass = Plant", fillcolor="#d2e9f9"] ;
2 -> 3 ;
4 [label="(...)", fillcolor="#C0C0C0"] ;
3 -> 4 ;
7597 [label="(...)", fillcolor="#C0C0C0"] ;
3 -> 7597 ;
10242 [label="19_C <= 0.5\nentropy = 0.996\nsamples = 7957\nvalue = [6742, 5840]\nclass = Animal", fillcolor="#fceee5"] ;
2 -> 10242 ;
10243 [label="(...)", fillcolor="#C0C0C0"] ;
10242 -> 10243 ;
13080 [label="(...)", fillcolor="#C0C0C0"] ;
10242 -> 13080 ;
14085 [label="21_G <= 0.5\nentropy = 0.779\nsamples = 1319\nvalue = [1560, 468]\nclass = Animal", fillcolor="#eda774"] ;
1 -> 14085 ;
14086 [label="6_C <= 0.5\nentropy = 0.727\nsamples = 1018\nvalue = [1247, 317]\nclass = Animal", fillcolor="#eca16b"] ;
14085 -> 14086 ;
14087 [label="(...)", fillcolor="#C0C0C0"] ;
14086 -> 14087 ;
14412 [label="(...)", fillcolor="#C0C0C0"] ;
14086 -> 14412 ;
14497 [label="20_U <= 0.5\nentropy = 0.91\nsamples = 301\nvalue = [313, 151]\nclass = Animal", fillcolor="#f2be99"] ;
14085 -> 14497 ;
14498 [label="(...)", fillcolor="#C0C0C0"] ;
14497 -> 14498 ;
14631 [label="(...)", fillcolor="#C0C0C0"] ;
14497 -> 14631 ;
14680 [label="23_G <= 0.5\nentropy = 0.866\nsamples = 4142\nvalue = [4764, 1929]\nclass = Animal", fillcolor="#f0b489"] ;
0 -> 14680 [labeldistance=2.5, labelangle=-45, headlabel="False"] ;
14681 [label="20_C <= 0.5\nentropy = 0.888\nsamples = 3630\nvalue = [4073, 1795]\nclass = Animal", fillcolor="#f0b990"] ;
14680 -> 14681 ;
14682 [label="11_A <= 0.5\nentropy = 0.834\nsamples = 2909\nvalue = [3466, 1248]\nclass = Animal", fillcolor="#eeae80"] ;
14681 -> 14682 ;
14683 [label="(...)", fillcolor="#C0C0C0"] ;
14682 -> 14683 ;
15668 [label="(...)", fillcolor="#C0C0C0"] ;
14682 -> 15668 ;
15989 [label="19_C <= 0.5\nentropy = 0.998\nsamples = 721\nvalue = [607, 547]\nclass = Animal", fillcolor="#fcf3eb"] ;
14681 -> 15989 ;
15990 [label="(...)", fillcolor="#C0C0C0"] ;
15989 -> 15990 ;
16241 [label="(...)", fillcolor="#C0C0C0"] ;
15989 -> 16241 ;
16356 [label="21_U <= 0.5\nentropy = 0.64\nsamples = 512\nvalue = [691, 134]\nclass = Animal", fillcolor="#ea995f"] ;
14680 -> 16356 ;
16357 [label="12_G <= 0.5\nentropy = 0.752\nsamples = 333\nvalue = [426, 117]\nclass = Animal", fillcolor="#eca46f"] ;
16356 -> 16357 ;
16358 [label="(...)", fillcolor="#C0C0C0"] ;
16357 -> 16358 ;
16463 [label="(...)", fillcolor="#C0C0C0"] ;
16357 -> 16463 ;
16504 [label="18_C <= 0.5\nentropy = 0.329\nsamples = 179\nvalue = [265, 17]\nclass = Animal", fillcolor="#e78946"] ;
16356 -> 16504 ;
16505 [label="(...)", fillcolor="#C0C0C0"] ;
16504 -> 16505 ;
16536 [label="(...)", fillcolor="#C0C0C0"] ;
16504 -> 16536 ;
}