digraph Tree {
node [shape=box, style="filled, rounded", color="black", fontname="helvetica"] ;
edge [fontname="helvetica"] ;
0 [label="1_U <= 0.5\nentropy = 1.0\nsamples = 38181\nvalue = [30170, 30175]\nclass = Plant", fillcolor="#ffffff"] ;
1 [label="1_A <= 0.5\nentropy = 0.981\nsamples = 17820\nvalue = [16379, 11785]\nclass = Animal", fillcolor="#f8dcc7"] ;
0 -> 1 [labeldistance=2.5, labelangle=45, headlabel="True"] ;
2 [label="1_G <= 0.5\nentropy = 0.992\nsamples = 9868\nvalue = [8610, 6941]\nclass = Animal", fillcolor="#fae7d9"] ;
1 -> 2 ;
3 [label="17_A <= 0.5\nentropy = 0.987\nsamples = 6087\nvalue = [5413, 4129]\nclass = Animal", fillcolor="#f9e1d0"] ;
2 -> 3 ;
4 [label="(...)", fillcolor="#C0C0C0"] ;
3 -> 4 ;
2481 [label="(...)", fillcolor="#C0C0C0"] ;
3 -> 2481 ;
3180 [label="22_C <= 0.5\nentropy = 0.997\nsamples = 3781\nvalue = [3197, 2812]\nclass = Animal", fillcolor="#fcf0e7"] ;
2 -> 3180 ;
3181 [label="(...)", fillcolor="#C0C0C0"] ;
3180 -> 3181 ;
5324 [label="(...)", fillcolor="#C0C0C0"] ;
3180 -> 5324 ;
5553 [label="3_C <= 0.5\nentropy = 0.961\nsamples = 7952\nvalue = [7769, 4844]\nclass = Animal", fillcolor="#f5d0b4"] ;
1 -> 5553 ;
5554 [label="22_C <= 0.5\nentropy = 0.979\nsamples = 6125\nvalue = [5698, 4057]\nclass = Animal", fillcolor="#f8dbc6"] ;
5553 -> 5554 ;
5555 [label="(...)", fillcolor="#C0C0C0"] ;
5554 -> 5555 ;
8436 [label="(...)", fillcolor="#C0C0C0"] ;
5554 -> 8436 ;
8713 [label="4_A <= 0.5\nentropy = 0.849\nsamples = 1827\nvalue = [2071, 787]\nclass = Animal", fillcolor="#efb184"] ;
5553 -> 8713 ;
8714 [label="(...)", fillcolor="#C0C0C0"] ;
8713 -> 8714 ;
9287 [label="(...)", fillcolor="#C0C0C0"] ;
8713 -> 9287 ;
9534 [label="22_G <= 0.5\nentropy = 0.985\nsamples = 20361\nvalue = [13791, 18390]\nclass = Plant", fillcolor="#cde6f8"] ;
0 -> 9534 [labeldistance=2.5, labelangle=-45, headlabel="False"] ;
9535 [label="2_A <= 0.5\nentropy = 0.957\nsamples = 17915\nvalue = [10728, 17590]\nclass = Plant", fillcolor="#b2d9f5"] ;
9534 -> 9535 ;
9536 [label="6_U <= 0.5\nentropy = 0.917\nsamples = 14821\nvalue = [7771, 15631]\nclass = Plant", fillcolor="#9bcef2"] ;
9535 -> 9536 ;
9537 [label="(...)", fillcolor="#C0C0C0"] ;
9536 -> 9537 ;
13370 [label="(...)", fillcolor="#C0C0C0"] ;
9536 -> 13370 ;
14815 [label="16_A <= 0.5\nentropy = 0.97\nsamples = 3094\nvalue = [2957, 1959]\nclass = Animal", fillcolor="#f6d4bc"] ;
9535 -> 14815 ;
14816 [label="(...)", fillcolor="#C0C0C0"] ;
14815 -> 14816 ;
15729 [label="(...)", fillcolor="#C0C0C0"] ;
14815 -> 15729 ;
16064 [label="3_U <= 0.5\nentropy = 0.736\nsamples = 2446\nvalue = [3063, 800]\nclass = Animal", fillcolor="#eca26d"] ;
9534 -> 16064 ;
16065 [label="24_A <= 0.5\nentropy = 0.801\nsamples = 1727\nvalue = [2058, 662]\nclass = Animal", fillcolor="#edaa79"] ;
16064 -> 16065 ;
16066 [label="(...)", fillcolor="#C0C0C0"] ;
16065 -> 16066 ;
16645 [label="(...)", fillcolor="#C0C0C0"] ;
16065 -> 16645 ;
16686 [label="24_G <= 0.5\nentropy = 0.531\nsamples = 719\nvalue = [1005, 138]\nclass = Animal", fillcolor="#e99254"] ;
16064 -> 16686 ;
16687 [label="(...)", fillcolor="#C0C0C0"] ;
16686 -> 16687 ;
16852 [label="(...)", fillcolor="#C0C0C0"] ;
16686 -> 16852 ;
}