digraph Tree {
node [shape=box, style="filled, rounded", color="black", fontname="helvetica"] ;
edge [fontname="helvetica"] ;
0 [label="22_U <= 0.5\nentropy = 1.0\nsamples = 38137\nvalue = [30309, 30036]\nclass = Animal", fillcolor="#fffefd"] ;
1 [label="23_U <= 0.5\nentropy = 0.994\nsamples = 33029\nvalue = [23717, 28582]\nclass = Plant", fillcolor="#ddeefb"] ;
0 -> 1 [labeldistance=2.5, labelangle=45, headlabel="True"] ;
2 [label="19_C <= 0.5\nentropy = 0.988\nsamples = 31487\nvalue = [21696, 28156]\nclass = Plant", fillcolor="#d2e9f9"] ;
1 -> 2 ;
3 [label="21_U <= 0.5\nentropy = 1.0\nsamples = 20716\nvalue = [16806, 15991]\nclass = Animal", fillcolor="#fef9f5"] ;
2 -> 3 ;
4 [label="(...)", fillcolor="#C0C0C0"] ;
3 -> 4 ;
8481 [label="(...)", fillcolor="#C0C0C0"] ;
3 -> 8481 ;
10686 [label="22_G <= 0.5\nentropy = 0.864\nsamples = 10771\nvalue = [4890, 12165]\nclass = Plant", fillcolor="#89c4ef"] ;
2 -> 10686 ;
10687 [label="(...)", fillcolor="#C0C0C0"] ;
10686 -> 10687 ;
13814 [label="(...)", fillcolor="#C0C0C0"] ;
10686 -> 13814 ;
14233 [label="14_U <= 0.5\nentropy = 0.667\nsamples = 1542\nvalue = [2021, 426]\nclass = Animal", fillcolor="#ea9c63"] ;
1 -> 14233 ;
14234 [label="2_G <= 0.5\nentropy = 0.724\nsamples = 1096\nvalue = [1405, 353]\nclass = Animal", fillcolor="#eca16b"] ;
14233 -> 14234 ;
14235 [label="(...)", fillcolor="#C0C0C0"] ;
14234 -> 14235 ;
14554 [label="(...)", fillcolor="#C0C0C0"] ;
14234 -> 14554 ;
14691 [label="8_U <= 0.5\nentropy = 0.488\nsamples = 446\nvalue = [616, 73]\nclass = Animal", fillcolor="#e89050"] ;
14233 -> 14691 ;
14692 [label="(...)", fillcolor="#C0C0C0"] ;
14691 -> 14692 ;
14775 [label="(...)", fillcolor="#C0C0C0"] ;
14691 -> 14775 ;
14822 [label="9_U <= 0.5\nentropy = 0.682\nsamples = 5108\nvalue = [6592, 1454]\nclass = Animal", fillcolor="#eb9d65"] ;
0 -> 14822 [labeldistance=2.5, labelangle=-45, headlabel="False"] ;
14823 [label="27_U <= 0.5\nentropy = 0.745\nsamples = 3360\nvalue = [4162, 1117]\nclass = Animal", fillcolor="#eca36e"] ;
14822 -> 14823 ;
14824 [label="18_C <= 0.5\nentropy = 0.742\nsamples = 3353\nvalue = [4159, 1107]\nclass = Animal", fillcolor="#eca36e"] ;
14823 -> 14824 ;
14825 [label="(...)", fillcolor="#C0C0C0"] ;
14824 -> 14825 ;
15918 [label="(...)", fillcolor="#C0C0C0"] ;
14824 -> 15918 ;
16249 [label="24_U <= 0.5\nentropy = 0.779\nsamples = 7\nvalue = [3, 10]\nclass = Plant", fillcolor="#74baed"] ;
14823 -> 16249 ;
16250 [label="(...)", fillcolor="#C0C0C0"] ;
16249 -> 16250 ;
16253 [label="(...)", fillcolor="#C0C0C0"] ;
16249 -> 16253 ;
16254 [label="2_A <= 0.5\nentropy = 0.534\nsamples = 1748\nvalue = [2430, 337]\nclass = Animal", fillcolor="#e99254"] ;
14822 -> 16254 ;
16255 [label="5_C <= 0.5\nentropy = 0.604\nsamples = 1218\nvalue = [1639, 284]\nclass = Animal", fillcolor="#ea975b"] ;
16254 -> 16255 ;
16256 [label="(...)", fillcolor="#C0C0C0"] ;
16255 -> 16256 ;
16611 [label="(...)", fillcolor="#C0C0C0"] ;
16255 -> 16611 ;
16706 [label="6_U <= 0.5\nentropy = 0.338\nsamples = 530\nvalue = [791, 53]\nclass = Animal", fillcolor="#e78946"] ;
16254 -> 16706 ;
16707 [label="(...)", fillcolor="#C0C0C0"] ;
16706 -> 16707 ;
16794 [label="(...)", fillcolor="#C0C0C0"] ;
16706 -> 16794 ;
}