digraph Tree {
node [shape=box, style="filled, rounded", color="black", fontname="helvetica"] ;
edge [fontname="helvetica"] ;
0 [label="10_C <= 0.5\nentropy = 1.0\nsamples = 38210\nvalue = [30323, 30022]\nclass = Animal", fillcolor="#fffefd"] ;
1 [label="23_U <= 0.5\nentropy = 0.999\nsamples = 29793\nvalue = [22821, 24177]\nclass = Plant", fillcolor="#f4fafe"] ;
0 -> 1 [labeldistance=2.5, labelangle=45, headlabel="True"] ;
2 [label="8_G <= 0.5\nentropy = 0.997\nsamples = 28295\nvalue = [20864, 23836]\nclass = Plant", fillcolor="#e6f3fc"] ;
1 -> 2 ;
3 [label="19_C <= 0.5\nentropy = 0.999\nsamples = 19419\nvalue = [15899, 14719]\nclass = Animal", fillcolor="#fdf6f0"] ;
2 -> 3 ;
4 [label="(...)", fillcolor="#C0C0C0"] ;
3 -> 4 ;
7019 [label="(...)", fillcolor="#C0C0C0"] ;
3 -> 7019 ;
9216 [label="22_G <= 0.5\nentropy = 0.936\nsamples = 8876\nvalue = [4965, 9117]\nclass = Plant", fillcolor="#a5d2f3"] ;
2 -> 9216 ;
9217 [label="(...)", fillcolor="#C0C0C0"] ;
9216 -> 9217 ;
12152 [label="(...)", fillcolor="#C0C0C0"] ;
9216 -> 12152 ;
12581 [label="2_C <= 0.5\nentropy = 0.606\nsamples = 1498\nvalue = [1957, 341]\nclass = Animal", fillcolor="#ea975c"] ;
1 -> 12581 ;
12582 [label="3_G <= 0.5\nentropy = 0.553\nsamples = 1198\nvalue = [1611, 237]\nclass = Animal", fillcolor="#e99456"] ;
12581 -> 12582 ;
12583 [label="(...)", fillcolor="#C0C0C0"] ;
12582 -> 12583 ;
12894 [label="(...)", fillcolor="#C0C0C0"] ;
12582 -> 12894 ;
13003 [label="24_A <= 0.5\nentropy = 0.78\nsamples = 300\nvalue = [346, 104]\nclass = Animal", fillcolor="#eda775"] ;
12581 -> 13003 ;
13004 [label="(...)", fillcolor="#C0C0C0"] ;
13003 -> 13004 ;
13099 [label="(...)", fillcolor="#C0C0C0"] ;
13003 -> 13099 ;
13114 [label="1_U <= 0.5\nentropy = 0.989\nsamples = 8417\nvalue = [7502, 5845]\nclass = Animal", fillcolor="#f9e3d3"] ;
0 -> 13114 [labeldistance=2.5, labelangle=-45, headlabel="False"] ;
13115 [label="22_U <= 0.5\nentropy = 0.91\nsamples = 3836\nvalue = [4098, 1973]\nclass = Animal", fillcolor="#f2be98"] ;
13114 -> 13115 ;
13116 [label="5_C <= 0.5\nentropy = 0.931\nsamples = 3170\nvalue = [3277, 1736]\nclass = Animal", fillcolor="#f3c4a2"] ;
13115 -> 13116 ;
13117 [label="(...)", fillcolor="#C0C0C0"] ;
13116 -> 13117 ;
14496 [label="(...)", fillcolor="#C0C0C0"] ;
13116 -> 14496 ;
14919 [label="16_A <= 0.5\nentropy = 0.767\nsamples = 666\nvalue = [821, 237]\nclass = Animal", fillcolor="#eda572"] ;
13115 -> 14919 ;
14920 [label="(...)", fillcolor="#C0C0C0"] ;
14919 -> 14920 ;
15115 [label="(...)", fillcolor="#C0C0C0"] ;
14919 -> 15115 ;
15170 [label="22_U <= 0.5\nentropy = 0.997\nsamples = 4581\nvalue = [3404, 3872]\nclass = Plant", fillcolor="#e7f3fc"] ;
13114 -> 15170 ;
15171 [label="8_G <= 0.5\nentropy = 0.982\nsamples = 4081\nvalue = [2721, 3740]\nclass = Plant", fillcolor="#c9e4f8"] ;
15170 -> 15171 ;
15172 [label="(...)", fillcolor="#C0C0C0"] ;
15171 -> 15172 ;
16129 [label="(...)", fillcolor="#C0C0C0"] ;
15171 -> 16129 ;
16518 [label="13_A <= 0.5\nentropy = 0.639\nsamples = 500\nvalue = [683, 132]\nclass = Animal", fillcolor="#ea995f"] ;
15170 -> 16518 ;
16519 [label="(...)", fillcolor="#C0C0C0"] ;
16518 -> 16519 ;
16672 [label="(...)", fillcolor="#C0C0C0"] ;
16518 -> 16672 ;
}