digraph Tree {
node [shape=box, style="filled, rounded", color="black", fontname="helvetica"] ;
edge [fontname="helvetica"] ;
0 [label="23_U <= 0.5\nentropy = 1.0\nsamples = 38144\nvalue = [30278, 30067]\nclass = Animal", fillcolor="#fffefe"] ;
1 [label="20_C <= 0.5\nentropy = 0.999\nsamples = 36216\nvalue = [27787, 29512]\nclass = Plant", fillcolor="#f3f9fd"] ;
0 -> 1 [labeldistance=2.5, labelangle=45, headlabel="True"] ;
2 [label="8_C <= 0.5\nentropy = 0.998\nsamples = 26615\nvalue = [22263, 19869]\nclass = Animal", fillcolor="#fcf1ea"] ;
1 -> 2 ;
3 [label="19_C <= 0.5\nentropy = 1.0\nsamples = 21673\nvalue = [17102, 17189]\nclass = Plant", fillcolor="#feffff"] ;
2 -> 3 ;
4 [label="(...)", fillcolor="#C0C0C0"] ;
3 -> 4 ;
7017 [label="(...)", fillcolor="#C0C0C0"] ;
3 -> 7017 ;
9410 [label="4_U <= 0.5\nentropy = 0.927\nsamples = 4942\nvalue = [5161, 2680]\nclass = Animal", fillcolor="#f3c2a0"] ;
2 -> 9410 ;
9411 [label="(...)", fillcolor="#C0C0C0"] ;
9410 -> 9411 ;
11356 [label="(...)", fillcolor="#C0C0C0"] ;
9410 -> 11356 ;
12013 [label="22_U <= 0.5\nentropy = 0.946\nsamples = 9601\nvalue = [5524, 9643]\nclass = Plant", fillcolor="#aad5f4"] ;
1 -> 12013 ;
12014 [label="7_A <= 0.5\nentropy = 0.909\nsamples = 8651\nvalue = [4425, 9231]\nclass = Plant", fillcolor="#98ccf1"] ;
12013 -> 12014 ;
12015 [label="(...)", fillcolor="#C0C0C0"] ;
12014 -> 12015 ;
14450 [label="(...)", fillcolor="#C0C0C0"] ;
12014 -> 14450 ;
15371 [label="4_U <= 0.5\nentropy = 0.845\nsamples = 950\nvalue = [1099, 412]\nclass = Animal", fillcolor="#efb083"] ;
12013 -> 15371 ;
15372 [label="(...)", fillcolor="#C0C0C0"] ;
15371 -> 15372 ;
15747 [label="(...)", fillcolor="#C0C0C0"] ;
15371 -> 15747 ;
15830 [label="17_U <= 0.5\nentropy = 0.685\nsamples = 1928\nvalue = [2491, 555]\nclass = Animal", fillcolor="#eb9d65"] ;
0 -> 15830 [labeldistance=2.5, labelangle=-45, headlabel="False"] ;
15831 [label="1_U <= 0.5\nentropy = 0.753\nsamples = 1307\nvalue = [1630, 450]\nclass = Animal", fillcolor="#eca470"] ;
15830 -> 15831 ;
15832 [label="1_C <= 0.5\nentropy = 0.82\nsamples = 754\nvalue = [895, 307]\nclass = Animal", fillcolor="#eeac7d"] ;
15831 -> 15832 ;
15833 [label="(...)", fillcolor="#C0C0C0"] ;
15832 -> 15833 ;
16096 [label="(...)", fillcolor="#C0C0C0"] ;
15832 -> 16096 ;
16177 [label="3_A <= 0.5\nentropy = 0.641\nsamples = 553\nvalue = [735, 143]\nclass = Animal", fillcolor="#ea9a60"] ;
15831 -> 16177 ;
16178 [label="(...)", fillcolor="#C0C0C0"] ;
16177 -> 16178 ;
16355 [label="(...)", fillcolor="#C0C0C0"] ;
16177 -> 16355 ;
16390 [label="1_C <= 0.5\nentropy = 0.496\nsamples = 621\nvalue = [861, 105]\nclass = Animal", fillcolor="#e89051"] ;
15830 -> 16390 ;
16391 [label="25_A <= 0.5\nentropy = 0.454\nsamples = 552\nvalue = [769, 81]\nclass = Animal", fillcolor="#e88e4e"] ;
16390 -> 16391 ;
16392 [label="(...)", fillcolor="#C0C0C0"] ;
16391 -> 16392 ;
16529 [label="(...)", fillcolor="#C0C0C0"] ;
16391 -> 16529 ;
16540 [label="16_A <= 0.5\nentropy = 0.736\nsamples = 69\nvalue = [92, 24]\nclass = Animal", fillcolor="#eca26d"] ;
16390 -> 16540 ;
16541 [label="(...)", fillcolor="#C0C0C0"] ;
16540 -> 16541 ;
16560 [label="(...)", fillcolor="#C0C0C0"] ;
16540 -> 16560 ;
}