digraph Tree {
node [shape=box, style="filled, rounded", color="black", fontname="helvetica"] ;
edge [fontname="helvetica"] ;
0 [label="9_G <= 0.5\nentropy = 1.0\nsamples = 38034\nvalue = [30180, 30165]\nclass = Animal", fillcolor="#ffffff"] ;
1 [label="1_U <= 0.5\nentropy = 0.996\nsamples = 27566\nvalue = [23439, 20365]\nclass = Animal", fillcolor="#fceee5"] ;
0 -> 1 [labeldistance=2.5, labelangle=45, headlabel="True"] ;
2 [label="19_U <= 0.5\nentropy = 0.964\nsamples = 13020\nvalue = [12587, 8026]\nclass = Animal", fillcolor="#f6d1b7"] ;
1 -> 2 ;
3 [label="14_G <= 0.5\nentropy = 0.984\nsamples = 9495\nvalue = [8592, 6354]\nclass = Animal", fillcolor="#f8decb"] ;
2 -> 3 ;
4 [label="(...)", fillcolor="#C0C0C0"] ;
3 -> 4 ;
3783 [label="(...)", fillcolor="#C0C0C0"] ;
3 -> 3783 ;
5258 [label="22_C <= 0.5\nentropy = 0.875\nsamples = 3525\nvalue = [3995, 1672]\nclass = Animal", fillcolor="#f0b68c"] ;
2 -> 5258 ;
5259 [label="(...)", fillcolor="#C0C0C0"] ;
5258 -> 5259 ;
6874 [label="(...)", fillcolor="#C0C0C0"] ;
5258 -> 6874 ;
7083 [label="16_U <= 0.5\nentropy = 0.997\nsamples = 14546\nvalue = [10852, 12339]\nclass = Plant", fillcolor="#e7f3fc"] ;
1 -> 7083 ;
7084 [label="9_U <= 0.5\nentropy = 0.983\nsamples = 11259\nvalue = [7656, 10382]\nclass = Plant", fillcolor="#cbe5f8"] ;
7083 -> 7084 ;
7085 [label="(...)", fillcolor="#C0C0C0"] ;
7084 -> 7085 ;
9396 [label="(...)", fillcolor="#C0C0C0"] ;
7084 -> 9396 ;
10903 [label="9_A <= 0.5\nentropy = 0.958\nsamples = 3287\nvalue = [3196, 1957]\nclass = Animal", fillcolor="#f5ceb2"] ;
7083 -> 10903 ;
10904 [label="(...)", fillcolor="#C0C0C0"] ;
10903 -> 10904 ;
11941 [label="(...)", fillcolor="#C0C0C0"] ;
10903 -> 11941 ;
12456 [label="18_C <= 0.5\nentropy = 0.975\nsamples = 10468\nvalue = [6741, 9800]\nclass = Plant", fillcolor="#c1e0f7"] ;
0 -> 12456 [labeldistance=2.5, labelangle=-45, headlabel="False"] ;
12457 [label="10_C <= 0.5\nentropy = 1.0\nsamples = 6674\nvalue = [5365, 5140]\nclass = Animal", fillcolor="#fefaf7"] ;
12456 -> 12457 ;
12458 [label="12_G <= 0.5\nentropy = 0.998\nsamples = 5391\nvalue = [4053, 4448]\nclass = Plant", fillcolor="#edf6fd"] ;
12457 -> 12458 ;
12459 [label="(...)", fillcolor="#C0C0C0"] ;
12458 -> 12459 ;
14412 [label="(...)", fillcolor="#C0C0C0"] ;
12458 -> 14412 ;
15177 [label="13_C <= 0.5\nentropy = 0.93\nsamples = 1283\nvalue = [1312, 692]\nclass = Animal", fillcolor="#f3c3a1"] ;
12457 -> 15177 ;
15178 [label="(...)", fillcolor="#C0C0C0"] ;
15177 -> 15178 ;
15679 [label="(...)", fillcolor="#C0C0C0"] ;
15177 -> 15679 ;
15860 [label="10_A <= 0.5\nentropy = 0.774\nsamples = 3794\nvalue = [1376, 4660]\nclass = Plant", fillcolor="#73baed"] ;
12456 -> 15860 ;
15861 [label="3_G <= 0.5\nentropy = 0.964\nsamples = 1729\nvalue = [1075, 1686]\nclass = Plant", fillcolor="#b7dbf6"] ;
15860 -> 15861 ;
15862 [label="(...)", fillcolor="#C0C0C0"] ;
15861 -> 15862 ;
16287 [label="(...)", fillcolor="#C0C0C0"] ;
15861 -> 16287 ;
16514 [label="2_C <= 0.5\nentropy = 0.443\nsamples = 2065\nvalue = [301, 2974]\nclass = Plant", fillcolor="#4da7e8"] ;
15860 -> 16514 ;
16515 [label="(...)", fillcolor="#C0C0C0"] ;
16514 -> 16515 ;
16708 [label="(...)", fillcolor="#C0C0C0"] ;
16514 -> 16708 ;
}