digraph Tree {
node [shape=box, style="filled, rounded", color="black", fontname="helvetica"] ;
edge [fontname="helvetica"] ;
0 [label="22_C <= 0.5\nentropy = 1.0\nsamples = 38234\nvalue = [30357, 29988]\nclass = Animal", fillcolor="#fffdfd"] ;
1 [label="20_C <= 0.5\nentropy = 0.999\nsamples = 34539\nvalue = [26320, 28272]\nclass = Plant", fillcolor="#f1f8fd"] ;
0 -> 1 [labeldistance=2.5, labelangle=45, headlabel="True"] ;
2 [label="16_G <= 0.5\nentropy = 0.998\nsamples = 25202\nvalue = [20991, 18796]\nclass = Animal", fillcolor="#fcf2ea"] ;
1 -> 2 ;
3 [label="22_U <= 0.5\nentropy = 0.987\nsamples = 17787\nvalue = [15910, 12145]\nclass = Animal", fillcolor="#f9e1d0"] ;
2 -> 3 ;
4 [label="(...)", fillcolor="#C0C0C0"] ;
3 -> 4 ;
7297 [label="(...)", fillcolor="#C0C0C0"] ;
3 -> 7297 ;
8546 [label="17_A <= 0.5\nentropy = 0.987\nsamples = 7415\nvalue = [5081, 6651]\nclass = Plant", fillcolor="#d0e8f9"] ;
2 -> 8546 ;
8547 [label="(...)", fillcolor="#C0C0C0"] ;
8546 -> 8547 ;
10870 [label="(...)", fillcolor="#C0C0C0"] ;
8546 -> 10870 ;
11627 [label="11_U <= 0.5\nentropy = 0.943\nsamples = 9337\nvalue = [5329, 9476]\nclass = Plant", fillcolor="#a8d4f4"] ;
1 -> 11627 ;
11628 [label="21_U <= 0.5\nentropy = 0.898\nsamples = 7486\nvalue = [3730, 8147]\nclass = Plant", fillcolor="#94caf1"] ;
11627 -> 11628 ;
11629 [label="(...)", fillcolor="#C0C0C0"] ;
11628 -> 11629 ;
13606 [label="(...)", fillcolor="#C0C0C0"] ;
11628 -> 13606 ;
14283 [label="13_C <= 0.5\nentropy = 0.994\nsamples = 1851\nvalue = [1599, 1329]\nclass = Animal", fillcolor="#fbeade"] ;
11627 -> 14283 ;
14284 [label="(...)", fillcolor="#C0C0C0"] ;
14283 -> 14284 ;
15089 [label="(...)", fillcolor="#C0C0C0"] ;
14283 -> 15089 ;
15302 [label="21_G <= 0.5\nentropy = 0.879\nsamples = 3695\nvalue = [4037, 1716]\nclass = Animal", fillcolor="#f0b78d"] ;
0 -> 15302 [labeldistance=2.5, labelangle=-45, headlabel="False"] ;
15303 [label="3_U <= 0.5\nentropy = 0.911\nsamples = 2570\nvalue = [2686, 1302]\nclass = Animal", fillcolor="#f2be99"] ;
15302 -> 15303 ;
15304 [label="9_G <= 0.5\nentropy = 0.882\nsamples = 1883\nvalue = [2046, 880]\nclass = Animal", fillcolor="#f0b78e"] ;
15303 -> 15304 ;
15305 [label="(...)", fillcolor="#C0C0C0"] ;
15304 -> 15305 ;
16048 [label="(...)", fillcolor="#C0C0C0"] ;
15304 -> 16048 ;
16313 [label="6_C <= 0.5\nentropy = 0.969\nsamples = 687\nvalue = [640, 422]\nclass = Animal", fillcolor="#f6d4bc"] ;
15303 -> 16313 ;
16314 [label="(...)", fillcolor="#C0C0C0"] ;
16313 -> 16314 ;
16549 [label="(...)", fillcolor="#C0C0C0"] ;
16313 -> 16549 ;
16646 [label="17_C <= 0.5\nentropy = 0.786\nsamples = 1125\nvalue = [1351, 414]\nclass = Animal", fillcolor="#eda876"] ;
15302 -> 16646 ;
16647 [label="11_G <= 0.5\nentropy = 0.833\nsamples = 877\nvalue = [1010, 363]\nclass = Animal", fillcolor="#eeae80"] ;
16646 -> 16647 ;
16648 [label="(...)", fillcolor="#C0C0C0"] ;
16647 -> 16648 ;
16985 [label="(...)", fillcolor="#C0C0C0"] ;
16647 -> 16985 ;
17140 [label="6_C <= 0.5\nentropy = 0.558\nsamples = 248\nvalue = [341, 51]\nclass = Animal", fillcolor="#e99457"] ;
16646 -> 17140 ;
17141 [label="(...)", fillcolor="#C0C0C0"] ;
17140 -> 17141 ;
17222 [label="(...)", fillcolor="#C0C0C0"] ;
17140 -> 17222 ;
}