digraph Tree {
node [shape=box, style="filled, rounded", color="black", fontname="helvetica"] ;
edge [fontname="helvetica"] ;
0 [label="22_G <= 0.5\nentropy = 1.0\nsamples = 38225\nvalue = [30329, 30016]\nclass = Animal", fillcolor="#fffefd"] ;
1 [label="22_U <= 0.5\nentropy = 0.996\nsamples = 33268\nvalue = [24288, 28271]\nclass = Plant", fillcolor="#e3f1fb"] ;
0 -> 1 [labeldistance=2.5, labelangle=45, headlabel="True"] ;
2 [label="23_U <= 0.5\nentropy = 0.969\nsamples = 28144\nvalue = [17652, 26818]\nclass = Plant", fillcolor="#bbdef6"] ;
1 -> 2 ;
3 [label="10_A <= 0.5\nentropy = 0.961\nsamples = 27289\nvalue = [16542, 26564]\nclass = Plant", fillcolor="#b4daf5"] ;
2 -> 3 ;
4 [label="(...)", fillcolor="#C0C0C0"] ;
3 -> 4 ;
9289 [label="(...)", fillcolor="#C0C0C0"] ;
3 -> 9289 ;
12202 [label="14_G <= 0.5\nentropy = 0.693\nsamples = 855\nvalue = [1110, 254]\nclass = Animal", fillcolor="#eb9e66"] ;
2 -> 12202 ;
12203 [label="(...)", fillcolor="#C0C0C0"] ;
12202 -> 12203 ;
12442 [label="(...)", fillcolor="#C0C0C0"] ;
12202 -> 12442 ;
12583 [label="2_U <= 0.5\nentropy = 0.679\nsamples = 5124\nvalue = [6636, 1453]\nclass = Animal", fillcolor="#eb9d64"] ;
1 -> 12583 ;
12584 [label="1_A <= 0.5\nentropy = 0.603\nsamples = 3989\nvalue = [5380, 928]\nclass = Animal", fillcolor="#e9975b"] ;
12583 -> 12584 ;
12585 [label="(...)", fillcolor="#C0C0C0"] ;
12584 -> 12585 ;
13684 [label="(...)", fillcolor="#C0C0C0"] ;
12584 -> 13684 ;
13959 [label="18_C <= 0.5\nentropy = 0.875\nsamples = 1135\nvalue = [1256, 525]\nclass = Animal", fillcolor="#f0b68c"] ;
12583 -> 13959 ;
13960 [label="(...)", fillcolor="#C0C0C0"] ;
13959 -> 13960 ;
14379 [label="(...)", fillcolor="#C0C0C0"] ;
13959 -> 14379 ;
14486 [label="1_G <= 0.5\nentropy = 0.768\nsamples = 4957\nvalue = [6041, 1745]\nclass = Animal", fillcolor="#eda572"] ;
0 -> 14486 [labeldistance=2.5, labelangle=-45, headlabel="False"] ;
14487 [label="8_G <= 0.5\nentropy = 0.74\nsamples = 4442\nvalue = [5500, 1454]\nclass = Animal", fillcolor="#eca26d"] ;
14486 -> 14487 ;
14488 [label="15_A <= 0.5\nentropy = 0.663\nsamples = 3325\nvalue = [4319, 898]\nclass = Animal", fillcolor="#ea9b62"] ;
14487 -> 14488 ;
14489 [label="(...)", fillcolor="#C0C0C0"] ;
14488 -> 14489 ;
15294 [label="(...)", fillcolor="#C0C0C0"] ;
14488 -> 15294 ;
15621 [label="18_C <= 0.5\nentropy = 0.904\nsamples = 1117\nvalue = [1181, 556]\nclass = Animal", fillcolor="#f1bc96"] ;
14487 -> 15621 ;
15622 [label="(...)", fillcolor="#C0C0C0"] ;
15621 -> 15622 ;
16013 [label="(...)", fillcolor="#C0C0C0"] ;
15621 -> 16013 ;
16138 [label="24_C <= 0.5\nentropy = 0.934\nsamples = 515\nvalue = [541, 291]\nclass = Animal", fillcolor="#f3c5a4"] ;
14486 -> 16138 ;
16139 [label="20_U <= 0.5\nentropy = 0.909\nsamples = 485\nvalue = [528, 253]\nclass = Animal", fillcolor="#f1bd98"] ;
16138 -> 16139 ;
16140 [label="(...)", fillcolor="#C0C0C0"] ;
16139 -> 16140 ;
16329 [label="(...)", fillcolor="#C0C0C0"] ;
16139 -> 16329 ;
16390 [label="20_U <= 0.5\nentropy = 0.819\nsamples = 30\nvalue = [13, 38]\nclass = Plant", fillcolor="#7dbfee"] ;
16138 -> 16390 ;
16391 [label="(...)", fillcolor="#C0C0C0"] ;
16390 -> 16391 ;
16398 [label="(...)", fillcolor="#C0C0C0"] ;
16390 -> 16398 ;
}