digraph Tree {
node [shape=box, style="filled, rounded", color="black", fontname="helvetica"] ;
edge [fontname="helvetica"] ;
0 [label="18_C <= 0.5\nentropy = 1.0\nsamples = 38272\nvalue = [30158, 30187]\nclass = Plant", fillcolor="#ffffff"] ;
1 [label="22_A <= 0.5\nentropy = 0.996\nsamples = 27908\nvalue = [23719, 20385]\nclass = Animal", fillcolor="#fbede3"] ;
0 -> 1 [labeldistance=2.5, labelangle=45, headlabel="True"] ;
2 [label="19_C <= 0.5\nentropy = 0.999\nsamples = 24608\nvalue = [20033, 18875]\nclass = Animal", fillcolor="#fdf8f4"] ;
1 -> 2 ;
3 [label="2_A <= 0.5\nentropy = 0.982\nsamples = 17309\nvalue = [15873, 11512]\nclass = Animal", fillcolor="#f8dcc9"] ;
2 -> 3 ;
4 [label="(...)", fillcolor="#C0C0C0"] ;
3 -> 4 ;
6599 [label="(...)", fillcolor="#C0C0C0"] ;
3 -> 6599 ;
8772 [label="21_G <= 0.5\nentropy = 0.944\nsamples = 7299\nvalue = [4160, 7363]\nclass = Plant", fillcolor="#a9d4f4"] ;
2 -> 8772 ;
8773 [label="(...)", fillcolor="#C0C0C0"] ;
8772 -> 8773 ;
10980 [label="(...)", fillcolor="#C0C0C0"] ;
8772 -> 10980 ;
11669 [label="5_C <= 0.5\nentropy = 0.87\nsamples = 3300\nvalue = [3686, 1510]\nclass = Animal", fillcolor="#f0b58a"] ;
1 -> 11669 ;
11670 [label="11_A <= 0.5\nentropy = 0.854\nsamples = 2606\nvalue = [2965, 1145]\nclass = Animal", fillcolor="#efb285"] ;
11669 -> 11670 ;
11671 [label="(...)", fillcolor="#C0C0C0"] ;
11670 -> 11671 ;
12620 [label="(...)", fillcolor="#C0C0C0"] ;
11670 -> 12620 ;
12961 [label="13_C <= 0.5\nentropy = 0.921\nsamples = 694\nvalue = [721, 365]\nclass = Animal", fillcolor="#f2c19d"] ;
11669 -> 12961 ;
12962 [label="(...)", fillcolor="#C0C0C0"] ;
12961 -> 12962 ;
13229 [label="(...)", fillcolor="#C0C0C0"] ;
12961 -> 13229 ;
13300 [label="22_G <= 0.5\nentropy = 0.969\nsamples = 10364\nvalue = [6439, 9802]\nclass = Plant", fillcolor="#bbddf6"] ;
0 -> 13300 [labeldistance=2.5, labelangle=-45, headlabel="False"] ;
13301 [label="9_G <= 0.5\nentropy = 0.941\nsamples = 9344\nvalue = [5251, 9408]\nclass = Plant", fillcolor="#a8d4f4"] ;
13300 -> 13301 ;
13302 [label="22_U <= 0.5\nentropy = 0.998\nsamples = 5703\nvalue = [4237, 4689]\nclass = Plant", fillcolor="#ecf6fc"] ;
13301 -> 13302 ;
13303 [label="(...)", fillcolor="#C0C0C0"] ;
13302 -> 13303 ;
15554 [label="(...)", fillcolor="#C0C0C0"] ;
13302 -> 15554 ;
15887 [label="3_G <= 0.5\nentropy = 0.673\nsamples = 3641\nvalue = [1014, 4719]\nclass = Plant", fillcolor="#64b2eb"] ;
13301 -> 15887 ;
15888 [label="(...)", fillcolor="#C0C0C0"] ;
15887 -> 15888 ;
16449 [label="(...)", fillcolor="#C0C0C0"] ;
15887 -> 16449 ;
16708 [label="19_G <= 0.5\nentropy = 0.81\nsamples = 1020\nvalue = [1188, 394]\nclass = Animal", fillcolor="#eeab7b"] ;
13300 -> 16708 ;
16709 [label="21_A <= 0.5\nentropy = 0.699\nsamples = 850\nvalue = [1070, 249]\nclass = Animal", fillcolor="#eb9e67"] ;
16708 -> 16709 ;
16710 [label="(...)", fillcolor="#C0C0C0"] ;
16709 -> 16710 ;
16935 [label="(...)", fillcolor="#C0C0C0"] ;
16709 -> 16935 ;
17004 [label="16_C <= 0.5\nentropy = 0.992\nsamples = 170\nvalue = [118, 145]\nclass = Plant", fillcolor="#daedfa"] ;
16708 -> 17004 ;
17005 [label="(...)", fillcolor="#C0C0C0"] ;
17004 -> 17005 ;
17072 [label="(...)", fillcolor="#C0C0C0"] ;
17004 -> 17072 ;
}