digraph Tree {
node [shape=box, style="filled, rounded", color="black", fontname="helvetica"] ;
edge [fontname="helvetica"] ;
0 [label="23_G <= 0.5\nentropy = 1.0\nsamples = 38232\nvalue = [30111, 30234]\nclass = Plant", fillcolor="#feffff"] ;
1 [label="19_G <= 0.5\nentropy = 0.999\nsamples = 36332\nvalue = [27850, 29518]\nclass = Plant", fillcolor="#f4f9fe"] ;
0 -> 1 [labeldistance=2.5, labelangle=45, headlabel="True"] ;
2 [label="21_U <= 0.5\nentropy = 0.996\nsamples = 28098\nvalue = [20550, 23836]\nclass = Plant", fillcolor="#e4f1fb"] ;
1 -> 2 ;
3 [label="6_U <= 0.5\nentropy = 0.988\nsamples = 22054\nvalue = [15184, 19671]\nclass = Plant", fillcolor="#d2e9f9"] ;
2 -> 3 ;
4 [label="(...)", fillcolor="#C0C0C0"] ;
3 -> 4 ;
7195 [label="(...)", fillcolor="#C0C0C0"] ;
3 -> 7195 ;
9776 [label="4_A <= 0.5\nentropy = 0.989\nsamples = 6044\nvalue = [5366, 4165]\nclass = Animal", fillcolor="#f9e3d3"] ;
2 -> 9776 ;
9777 [label="(...)", fillcolor="#C0C0C0"] ;
9776 -> 9777 ;
11660 [label="(...)", fillcolor="#C0C0C0"] ;
9776 -> 11660 ;
12319 [label="8_G <= 0.5\nentropy = 0.989\nsamples = 8234\nvalue = [7300, 5682]\nclass = Animal", fillcolor="#f9e3d3"] ;
1 -> 12319 ;
12320 [label="10_C <= 0.5\nentropy = 0.957\nsamples = 5541\nvalue = [5421, 3300]\nclass = Animal", fillcolor="#f5ceb2"] ;
12319 -> 12320 ;
12321 [label="(...)", fillcolor="#C0C0C0"] ;
12320 -> 12321 ;
14676 [label="(...)", fillcolor="#C0C0C0"] ;
12320 -> 14676 ;
15277 [label="4_G <= 0.5\nentropy = 0.99\nsamples = 2693\nvalue = [1879, 2382]\nclass = Plant", fillcolor="#d5eafa"] ;
12319 -> 15277 ;
15278 [label="(...)", fillcolor="#C0C0C0"] ;
15277 -> 15278 ;
15993 [label="(...)", fillcolor="#C0C0C0"] ;
15277 -> 15993 ;
16362 [label="4_C <= 0.5\nentropy = 0.796\nsamples = 1900\nvalue = [2261, 716]\nclass = Animal", fillcolor="#eda978"] ;
0 -> 16362 [labeldistance=2.5, labelangle=-45, headlabel="False"] ;
16363 [label="19_A <= 0.5\nentropy = 0.688\nsamples = 1368\nvalue = [1735, 390]\nclass = Animal", fillcolor="#eb9d66"] ;
16362 -> 16363 ;
16364 [label="18_A <= 0.5\nentropy = 0.602\nsamples = 1085\nvalue = [1442, 248]\nclass = Animal", fillcolor="#e9975b"] ;
16363 -> 16364 ;
16365 [label="(...)", fillcolor="#C0C0C0"] ;
16364 -> 16365 ;
16674 [label="(...)", fillcolor="#C0C0C0"] ;
16364 -> 16674 ;
16753 [label="4_U <= 0.5\nentropy = 0.911\nsamples = 283\nvalue = [293, 142]\nclass = Animal", fillcolor="#f2be99"] ;
16363 -> 16753 ;
16754 [label="(...)", fillcolor="#C0C0C0"] ;
16753 -> 16754 ;
16865 [label="(...)", fillcolor="#C0C0C0"] ;
16753 -> 16865 ;
16902 [label="22_U <= 0.5\nentropy = 0.96\nsamples = 532\nvalue = [526, 326]\nclass = Animal", fillcolor="#f5cfb4"] ;
16362 -> 16902 ;
16903 [label="5_G <= 0.5\nentropy = 0.994\nsamples = 329\nvalue = [295, 247]\nclass = Animal", fillcolor="#fbeadf"] ;
16902 -> 16903 ;
16904 [label="(...)", fillcolor="#C0C0C0"] ;
16903 -> 16904 ;
17019 [label="(...)", fillcolor="#C0C0C0"] ;
16903 -> 17019 ;
17060 [label="11_U <= 0.5\nentropy = 0.819\nsamples = 203\nvalue = [231, 79]\nclass = Animal", fillcolor="#eeac7d"] ;
16902 -> 17060 ;
17061 [label="(...)", fillcolor="#C0C0C0"] ;
17060 -> 17061 ;
17092 [label="(...)", fillcolor="#C0C0C0"] ;
17060 -> 17092 ;
}