digraph Tree {
node [shape=box, style="filled, rounded", color="black", fontname="helvetica"] ;
edge [fontname="helvetica"] ;
0 [label="19_U <= 0.5\nentropy = 1.0\nsamples = 38151\nvalue = [30118, 30227]\nclass = Plant", fillcolor="#feffff"] ;
1 [label="6_U <= 0.5\nentropy = 0.994\nsamples = 29134\nvalue = [20852, 25039]\nclass = Plant", fillcolor="#deeffb"] ;
0 -> 1 [labeldistance=2.5, labelangle=45, headlabel="True"] ;
2 [label="1_U <= 0.5\nentropy = 0.981\nsamples = 22912\nvalue = [15089, 20969]\nclass = Plant", fillcolor="#c7e4f8"] ;
1 -> 2 ;
3 [label="21_C <= 0.5\nentropy = 0.999\nsamples = 10163\nvalue = [8298, 7766]\nclass = Animal", fillcolor="#fdf7f2"] ;
2 -> 3 ;
4 [label="(...)", fillcolor="#C0C0C0"] ;
3 -> 4 ;
4289 [label="(...)", fillcolor="#C0C0C0"] ;
3 -> 4289 ;
5370 [label="2_A <= 0.5\nentropy = 0.924\nsamples = 12749\nvalue = [6791, 13203]\nclass = Plant", fillcolor="#9fcff2"] ;
2 -> 5370 ;
5371 [label="(...)", fillcolor="#C0C0C0"] ;
5370 -> 5371 ;
8570 [label="(...)", fillcolor="#C0C0C0"] ;
5370 -> 8570 ;
9317 [label="8_C <= 0.5\nentropy = 0.979\nsamples = 6222\nvalue = [5763, 4070]\nclass = Animal", fillcolor="#f7dac5"] ;
1 -> 9317 ;
9318 [label="2_A <= 0.5\nentropy = 0.991\nsamples = 4802\nvalue = [4199, 3370]\nclass = Animal", fillcolor="#fae6d8"] ;
9317 -> 9318 ;
9319 [label="(...)", fillcolor="#C0C0C0"] ;
9318 -> 9319 ;
11310 [label="(...)", fillcolor="#C0C0C0"] ;
9318 -> 11310 ;
11889 [label="5_G <= 0.5\nentropy = 0.892\nsamples = 1420\nvalue = [1564, 700]\nclass = Animal", fillcolor="#f1b992"] ;
9317 -> 11889 ;
11890 [label="(...)", fillcolor="#C0C0C0"] ;
11889 -> 11890 ;
12447 [label="(...)", fillcolor="#C0C0C0"] ;
11889 -> 12447 ;
12622 [label="20_G <= 0.5\nentropy = 0.942\nsamples = 9017\nvalue = [9266, 5188]\nclass = Animal", fillcolor="#f4c8a8"] ;
0 -> 12622 [labeldistance=2.5, labelangle=-45, headlabel="False"] ;
12623 [label="22_U <= 0.5\nentropy = 0.967\nsamples = 6165\nvalue = [5976, 3885]\nclass = Animal", fillcolor="#f6d3ba"] ;
12622 -> 12623 ;
12624 [label="5_U <= 0.5\nentropy = 0.992\nsamples = 5212\nvalue = [4618, 3716]\nclass = Animal", fillcolor="#fae6d8"] ;
12623 -> 12624 ;
12625 [label="(...)", fillcolor="#C0C0C0"] ;
12624 -> 12625 ;
14474 [label="(...)", fillcolor="#C0C0C0"] ;
12624 -> 14474 ;
15263 [label="4_G <= 0.5\nentropy = 0.502\nsamples = 953\nvalue = [1358, 169]\nclass = Animal", fillcolor="#e89152"] ;
12623 -> 15263 ;
15264 [label="(...)", fillcolor="#C0C0C0"] ;
15263 -> 15264 ;
15461 [label="(...)", fillcolor="#C0C0C0"] ;
15263 -> 15461 ;
15560 [label="23_A <= 0.5\nentropy = 0.86\nsamples = 2852\nvalue = [3290, 1303]\nclass = Animal", fillcolor="#efb387"] ;
12622 -> 15560 ;
15561 [label="18_U <= 0.5\nentropy = 0.872\nsamples = 2695\nvalue = [3066, 1267]\nclass = Animal", fillcolor="#f0b58b"] ;
15560 -> 15561 ;
15562 [label="(...)", fillcolor="#C0C0C0"] ;
15561 -> 15562 ;
16517 [label="(...)", fillcolor="#C0C0C0"] ;
15561 -> 16517 ;
16902 [label="18_C <= 0.5\nentropy = 0.58\nsamples = 157\nvalue = [224, 36]\nclass = Animal", fillcolor="#e99559"] ;
15560 -> 16902 ;
16903 [label="(...)", fillcolor="#C0C0C0"] ;
16902 -> 16903 ;
16940 [label="(...)", fillcolor="#C0C0C0"] ;
16902 -> 16940 ;
}