digraph Tree {
node [shape=box, style="filled, rounded", color="black", fontname="helvetica"] ;
edge [fontname="helvetica"] ;
0 [label="19_U <= 0.5\nentropy = 1.0\nsamples = 38149\nvalue = [30126, 30219]\nclass = Plant", fillcolor="#feffff"] ;
1 [label="6_U <= 0.5\nentropy = 0.994\nsamples = 29201\nvalue = [21137, 25192]\nclass = Plant", fillcolor="#dfeffb"] ;
0 -> 1 [labeldistance=2.5, labelangle=45, headlabel="True"] ;
2 [label="15_C <= 0.5\nentropy = 0.982\nsamples = 23052\nvalue = [15355, 21182]\nclass = Plant", fillcolor="#c9e4f8"] ;
1 -> 2 ;
3 [label="10_A <= 0.5\nentropy = 0.967\nsamples = 18804\nvalue = [11714, 18010]\nclass = Plant", fillcolor="#baddf6"] ;
2 -> 3 ;
4 [label="(...)", fillcolor="#C0C0C0"] ;
3 -> 4 ;
5535 [label="(...)", fillcolor="#C0C0C0"] ;
3 -> 5535 ;
7368 [label="22_C <= 0.5\nentropy = 0.997\nsamples = 4248\nvalue = [3641, 3172]\nclass = Animal", fillcolor="#fcefe5"] ;
2 -> 7368 ;
7369 [label="(...)", fillcolor="#C0C0C0"] ;
7368 -> 7369 ;
9098 [label="(...)", fillcolor="#C0C0C0"] ;
7368 -> 9098 ;
9343 [label="8_C <= 0.5\nentropy = 0.976\nsamples = 6149\nvalue = [5782, 4010]\nclass = Animal", fillcolor="#f7d8c2"] ;
1 -> 9343 ;
9344 [label="22_U <= 0.5\nentropy = 0.991\nsamples = 4713\nvalue = [4166, 3335]\nclass = Animal", fillcolor="#fae6d8"] ;
9343 -> 9344 ;
9345 [label="(...)", fillcolor="#C0C0C0"] ;
9344 -> 9345 ;
11538 [label="(...)", fillcolor="#C0C0C0"] ;
9344 -> 11538 ;
11811 [label="2_U <= 0.5\nentropy = 0.875\nsamples = 1436\nvalue = [1616, 675]\nclass = Animal", fillcolor="#f0b68c"] ;
9343 -> 11811 ;
11812 [label="(...)", fillcolor="#C0C0C0"] ;
11811 -> 11812 ;
12319 [label="(...)", fillcolor="#C0C0C0"] ;
11811 -> 12319 ;
12520 [label="20_G <= 0.5\nentropy = 0.942\nsamples = 8948\nvalue = [8989, 5027]\nclass = Animal", fillcolor="#f4c7a8"] ;
0 -> 12520 [labeldistance=2.5, labelangle=-45, headlabel="False"] ;
12521 [label="22_U <= 0.5\nentropy = 0.967\nsamples = 6124\nvalue = [5837, 3788]\nclass = Animal", fillcolor="#f6d3b9"] ;
12520 -> 12521 ;
12522 [label="17_A <= 0.5\nentropy = 0.992\nsamples = 5193\nvalue = [4513, 3652]\nclass = Animal", fillcolor="#fae7d9"] ;
12521 -> 12522 ;
12523 [label="(...)", fillcolor="#C0C0C0"] ;
12522 -> 12523 ;
14630 [label="(...)", fillcolor="#C0C0C0"] ;
12522 -> 14630 ;
15243 [label="12_G <= 0.5\nentropy = 0.447\nsamples = 931\nvalue = [1324, 136]\nclass = Animal", fillcolor="#e88e4d"] ;
12521 -> 15243 ;
15244 [label="(...)", fillcolor="#C0C0C0"] ;
15243 -> 15244 ;
15467 [label="(...)", fillcolor="#C0C0C0"] ;
15243 -> 15467 ;
15558 [label="23_C <= 0.5\nentropy = 0.858\nsamples = 2824\nvalue = [3152, 1239]\nclass = Animal", fillcolor="#efb387"] ;
12520 -> 15558 ;
15559 [label="21_U <= 0.5\nentropy = 0.868\nsamples = 2689\nvalue = [2977, 1213]\nclass = Animal", fillcolor="#f0b48a"] ;
15558 -> 15559 ;
15560 [label="(...)", fillcolor="#C0C0C0"] ;
15559 -> 15560 ;
16645 [label="(...)", fillcolor="#C0C0C0"] ;
15559 -> 16645 ;
16890 [label="16_U <= 0.5\nentropy = 0.556\nsamples = 135\nvalue = [175, 26]\nclass = Animal", fillcolor="#e99456"] ;
15558 -> 16890 ;
16891 [label="(...)", fillcolor="#C0C0C0"] ;
16890 -> 16891 ;
16928 [label="(...)", fillcolor="#C0C0C0"] ;
16890 -> 16928 ;
}