digraph Tree {
node [shape=box, style="filled, rounded", color="black", fontname="helvetica"] ;
edge [fontname="helvetica"] ;
0 [label="23_G <= 0.5\nentropy = 1.0\nsamples = 38211\nvalue = [30099, 30246]\nclass = Plant", fillcolor="#feffff"] ;
1 [label="22_G <= 0.5\nentropy = 0.999\nsamples = 36315\nvalue = [27837, 29520]\nclass = Plant", fillcolor="#f4f9fe"] ;
0 -> 1 [labeldistance=2.5, labelangle=45, headlabel="True"] ;
2 [label="2_A <= 0.5\nentropy = 0.99\nsamples = 31856\nvalue = [22226, 28101]\nclass = Plant", fillcolor="#d6ebfa"] ;
1 -> 2 ;
3 [label="20_G <= 0.5\nentropy = 0.973\nsamples = 24804\nvalue = [15844, 23369]\nclass = Plant", fillcolor="#bfdff7"] ;
2 -> 3 ;
4 [label="(...)", fillcolor="#C0C0C0"] ;
3 -> 4 ;
8317 [label="(...)", fillcolor="#C0C0C0"] ;
3 -> 8317 ;
11040 [label="4_A <= 0.5\nentropy = 0.984\nsamples = 7052\nvalue = [6382, 4732]\nclass = Animal", fillcolor="#f8decc"] ;
2 -> 11040 ;
11041 [label="(...)", fillcolor="#C0C0C0"] ;
11040 -> 11041 ;
13650 [label="(...)", fillcolor="#C0C0C0"] ;
11040 -> 13650 ;
14495 [label="1_G <= 0.5\nentropy = 0.726\nsamples = 4459\nvalue = [5611, 1419]\nclass = Animal", fillcolor="#eca16b"] ;
1 -> 14495 ;
14496 [label="21_G <= 0.5\nentropy = 0.689\nsamples = 3995\nvalue = [5160, 1164]\nclass = Animal", fillcolor="#eb9d66"] ;
14495 -> 14496 ;
14497 [label="(...)", fillcolor="#C0C0C0"] ;
14496 -> 14497 ;
15580 [label="(...)", fillcolor="#C0C0C0"] ;
14496 -> 15580 ;
16023 [label="24_G <= 0.5\nentropy = 0.944\nsamples = 464\nvalue = [451, 255]\nclass = Animal", fillcolor="#f4c8a9"] ;
14495 -> 16023 ;
16024 [label="(...)", fillcolor="#C0C0C0"] ;
16023 -> 16024 ;
16281 [label="(...)", fillcolor="#C0C0C0"] ;
16023 -> 16281 ;
16294 [label="9_U <= 0.5\nentropy = 0.8\nsamples = 1896\nvalue = [2262, 726]\nclass = Animal", fillcolor="#eda979"] ;
0 -> 16294 [labeldistance=2.5, labelangle=-45, headlabel="False"] ;
16295 [label="18_C <= 0.5\nentropy = 0.874\nsamples = 1269\nvalue = [1404, 584]\nclass = Animal", fillcolor="#f0b58b"] ;
16294 -> 16295 ;
16296 [label="13_C <= 0.5\nentropy = 0.797\nsamples = 940\nvalue = [1108, 352]\nclass = Animal", fillcolor="#eda978"] ;
16295 -> 16296 ;
16297 [label="(...)", fillcolor="#C0C0C0"] ;
16296 -> 16297 ;
16640 [label="(...)", fillcolor="#C0C0C0"] ;
16296 -> 16640 ;
16711 [label="3_A <= 0.5\nentropy = 0.989\nsamples = 329\nvalue = [296, 232]\nclass = Animal", fillcolor="#f9e4d4"] ;
16295 -> 16711 ;
16712 [label="(...)", fillcolor="#C0C0C0"] ;
16711 -> 16712 ;
16825 [label="(...)", fillcolor="#C0C0C0"] ;
16711 -> 16825 ;
16852 [label="5_C <= 0.5\nentropy = 0.589\nsamples = 627\nvalue = [858, 142]\nclass = Animal", fillcolor="#e9965a"] ;
16294 -> 16852 ;
16853 [label="8_C <= 0.5\nentropy = 0.449\nsamples = 527\nvalue = [753, 78]\nclass = Animal", fillcolor="#e88e4e"] ;
16852 -> 16853 ;
16854 [label="(...)", fillcolor="#C0C0C0"] ;
16853 -> 16854 ;
16977 [label="(...)", fillcolor="#C0C0C0"] ;
16853 -> 16977 ;
16998 [label="3_C <= 0.5\nentropy = 0.957\nsamples = 100\nvalue = [105, 64]\nclass = Animal", fillcolor="#f5ceb2"] ;
16852 -> 16998 ;
16999 [label="(...)", fillcolor="#C0C0C0"] ;
16998 -> 16999 ;
17048 [label="(...)", fillcolor="#C0C0C0"] ;
16998 -> 17048 ;
}