digraph Tree {
node [shape=box, style="filled, rounded", color="black", fontname="helvetica"] ;
edge [fontname="helvetica"] ;
0 [label="8_G <= 0.5\nentropy = 1.0\nsamples = 38124\nvalue = [30151, 30194]\nclass = Plant", fillcolor="#ffffff"] ;
1 [label="19_C <= 0.5\nentropy = 0.992\nsamples = 26249\nvalue = [22978, 18579]\nclass = Animal", fillcolor="#fae7d9"] ;
0 -> 1 [labeldistance=2.5, labelangle=45, headlabel="True"] ;
2 [label="22_A <= 0.5\nentropy = 0.964\nsamples = 18116\nvalue = [17550, 11187]\nclass = Animal", fillcolor="#f6d1b7"] ;
1 -> 2 ;
3 [label="1_A <= 0.5\nentropy = 0.977\nsamples = 15966\nvalue = [14871, 10382]\nclass = Animal", fillcolor="#f7d9c3"] ;
2 -> 3 ;
4 [label="(...)", fillcolor="#C0C0C0"] ;
3 -> 4 ;
6035 [label="(...)", fillcolor="#C0C0C0"] ;
3 -> 6035 ;
8078 [label="24_U <= 0.5\nentropy = 0.78\nsamples = 2150\nvalue = [2679, 805]\nclass = Animal", fillcolor="#eda774"] ;
2 -> 8078 ;
8079 [label="(...)", fillcolor="#C0C0C0"] ;
8078 -> 8079 ;
9038 [label="(...)", fillcolor="#C0C0C0"] ;
8078 -> 9038 ;
9089 [label="6_U <= 0.5\nentropy = 0.983\nsamples = 8133\nvalue = [5428, 7392]\nclass = Plant", fillcolor="#cae5f8"] ;
1 -> 9089 ;
9090 [label="22_G <= 0.5\nentropy = 0.965\nsamples = 6681\nvalue = [4120, 6421]\nclass = Plant", fillcolor="#b8dcf6"] ;
9089 -> 9090 ;
9091 [label="(...)", fillcolor="#C0C0C0"] ;
9090 -> 9091 ;
11190 [label="(...)", fillcolor="#C0C0C0"] ;
9090 -> 11190 ;
11457 [label="10_U <= 0.5\nentropy = 0.984\nsamples = 1452\nvalue = [1308, 971]\nclass = Animal", fillcolor="#f8dfcc"] ;
9089 -> 11457 ;
11458 [label="(...)", fillcolor="#C0C0C0"] ;
11457 -> 11458 ;
12129 [label="(...)", fillcolor="#C0C0C0"] ;
11457 -> 12129 ;
12316 [label="12_G <= 0.5\nentropy = 0.959\nsamples = 11875\nvalue = [7173, 11615]\nclass = Plant", fillcolor="#b3daf5"] ;
0 -> 12316 [labeldistance=2.5, labelangle=-45, headlabel="False"] ;
12317 [label="13_U <= 0.5\nentropy = 0.987\nsamples = 7518\nvalue = [5139, 6752]\nclass = Plant", fillcolor="#d0e8f9"] ;
12316 -> 12317 ;
12318 [label="19_C <= 0.5\nentropy = 0.965\nsamples = 5559\nvalue = [3420, 5348]\nclass = Plant", fillcolor="#b8dcf6"] ;
12317 -> 12318 ;
12319 [label="(...)", fillcolor="#C0C0C0"] ;
12318 -> 12319 ;
14110 [label="(...)", fillcolor="#C0C0C0"] ;
12318 -> 14110 ;
14707 [label="22_U <= 0.5\nentropy = 0.993\nsamples = 1959\nvalue = [1719, 1404]\nclass = Animal", fillcolor="#fae8db"] ;
12317 -> 14707 ;
14708 [label="(...)", fillcolor="#C0C0C0"] ;
14707 -> 14708 ;
15569 [label="(...)", fillcolor="#C0C0C0"] ;
14707 -> 15569 ;
15686 [label="15_U <= 0.5\nentropy = 0.875\nsamples = 4357\nvalue = [2034, 4863]\nclass = Plant", fillcolor="#8cc6f0"] ;
12316 -> 15686 ;
15687 [label="4_A <= 0.5\nentropy = 0.961\nsamples = 2608\nvalue = [1597, 2555]\nclass = Plant", fillcolor="#b5daf5"] ;
15686 -> 15687 ;
15688 [label="(...)", fillcolor="#C0C0C0"] ;
15687 -> 15688 ;
16399 [label="(...)", fillcolor="#C0C0C0"] ;
15687 -> 16399 ;
16606 [label="3_U <= 0.5\nentropy = 0.632\nsamples = 1749\nvalue = [437, 2308]\nclass = Plant", fillcolor="#5eb0ea"] ;
15686 -> 16606 ;
16607 [label="(...)", fillcolor="#C0C0C0"] ;
16606 -> 16607 ;
16802 [label="(...)", fillcolor="#C0C0C0"] ;
16606 -> 16802 ;
}