digraph Tree {
node [shape=box, style="filled, rounded", color="black", fontname="helvetica"] ;
edge [fontname="helvetica"] ;
0 [label="1_U <= 0.5\nentropy = 1.0\nsamples = 38153\nvalue = [30322, 30023]\nclass = Animal", fillcolor="#fffefd"] ;
1 [label="23_U <= 0.5\nentropy = 0.98\nsamples = 17986\nvalue = [16585, 11854]\nclass = Animal", fillcolor="#f8dbc7"] ;
0 -> 1 [labeldistance=2.5, labelangle=45, headlabel="True"] ;
2 [label="12_U <= 0.5\nentropy = 0.986\nsamples = 16949\nvalue = [15290, 11504]\nclass = Animal", fillcolor="#f9e0ce"] ;
1 -> 2 ;
3 [label="17_A <= 0.5\nentropy = 0.995\nsamples = 12419\nvalue = [10680, 8967]\nclass = Animal", fillcolor="#fbebdf"] ;
2 -> 3 ;
4 [label="(...)", fillcolor="#C0C0C0"] ;
3 -> 4 ;
5197 [label="(...)", fillcolor="#C0C0C0"] ;
3 -> 5197 ;
6714 [label="18_U <= 0.5\nentropy = 0.938\nsamples = 4530\nvalue = [4610, 2537]\nclass = Animal", fillcolor="#f3c6a6"] ;
2 -> 6714 ;
6715 [label="(...)", fillcolor="#C0C0C0"] ;
6714 -> 6715 ;
8582 [label="(...)", fillcolor="#C0C0C0"] ;
6714 -> 8582 ;
9285 [label="24_G <= 0.5\nentropy = 0.747\nsamples = 1037\nvalue = [1295, 350]\nclass = Animal", fillcolor="#eca36f"] ;
1 -> 9285 ;
9286 [label="24_U <= 0.5\nentropy = 0.701\nsamples = 932\nvalue = [1204, 282]\nclass = Animal", fillcolor="#eb9f67"] ;
9285 -> 9286 ;
9287 [label="(...)", fillcolor="#C0C0C0"] ;
9286 -> 9287 ;
9598 [label="(...)", fillcolor="#C0C0C0"] ;
9286 -> 9598 ;
9663 [label="7_C <= 0.5\nentropy = 0.985\nsamples = 105\nvalue = [91, 68]\nclass = Animal", fillcolor="#f8dfcd"] ;
9285 -> 9663 ;
9664 [label="(...)", fillcolor="#C0C0C0"] ;
9663 -> 9664 ;
9703 [label="(...)", fillcolor="#C0C0C0"] ;
9663 -> 9703 ;
9724 [label="23_G <= 0.5\nentropy = 0.986\nsamples = 20167\nvalue = [13737, 18169]\nclass = Plant", fillcolor="#cfe7f9"] ;
0 -> 9724 [labeldistance=2.5, labelangle=-45, headlabel="False"] ;
9725 [label="2_U <= 0.5\nentropy = 0.978\nsamples = 19257\nvalue = [12594, 17864]\nclass = Plant", fillcolor="#c5e2f7"] ;
9724 -> 9725 ;
9726 [label="9_G <= 0.5\nentropy = 0.993\nsamples = 14276\nvalue = [10155, 12427]\nclass = Plant", fillcolor="#dbedfa"] ;
9725 -> 9726 ;
9727 [label="(...)", fillcolor="#C0C0C0"] ;
9726 -> 9727 ;
13514 [label="(...)", fillcolor="#C0C0C0"] ;
9726 -> 13514 ;
14833 [label="19_U <= 0.5\nentropy = 0.893\nsamples = 4981\nvalue = [2439, 5437]\nclass = Plant", fillcolor="#92c9f1"] ;
9725 -> 14833 ;
14834 [label="(...)", fillcolor="#C0C0C0"] ;
14833 -> 14834 ;
16259 [label="(...)", fillcolor="#C0C0C0"] ;
14833 -> 16259 ;
16722 [label="4_G <= 0.5\nentropy = 0.743\nsamples = 910\nvalue = [1143, 305]\nclass = Animal", fillcolor="#eca36e"] ;
9724 -> 16722 ;
16723 [label="22_U <= 0.5\nentropy = 0.842\nsamples = 649\nvalue = [764, 283]\nclass = Animal", fillcolor="#efb082"] ;
16722 -> 16723 ;
16724 [label="(...)", fillcolor="#C0C0C0"] ;
16723 -> 16724 ;
16869 [label="(...)", fillcolor="#C0C0C0"] ;
16723 -> 16869 ;
16920 [label="17_A <= 0.5\nentropy = 0.307\nsamples = 261\nvalue = [379, 22]\nclass = Animal", fillcolor="#e78844"] ;
16722 -> 16920 ;
16921 [label="(...)", fillcolor="#C0C0C0"] ;
16920 -> 16921 ;
16940 [label="(...)", fillcolor="#C0C0C0"] ;
16920 -> 16940 ;
}