digraph Tree {
node [shape=box, style="filled, rounded", color="black", fontname="helvetica"] ;
edge [fontname="helvetica"] ;
0 [label="8_G <= 0.5\nentropy = 1.0\nsamples = 38248\nvalue = [30144, 30201]\nclass = Plant", fillcolor="#ffffff"] ;
1 [label="9_U <= 0.5\nentropy = 0.992\nsamples = 26354\nvalue = [22929, 18584]\nclass = Animal", fillcolor="#fae7d9"] ;
0 -> 1 [labeldistance=2.5, labelangle=45, headlabel="True"] ;
2 [label="22_G <= 0.5\nentropy = 1.0\nsamples = 18601\nvalue = [14848, 14394]\nclass = Animal", fillcolor="#fefbf9"] ;
1 -> 2 ;
3 [label="19_C <= 0.5\nentropy = 0.998\nsamples = 16316\nvalue = [12101, 13570]\nclass = Plant", fillcolor="#eaf4fc"] ;
2 -> 3 ;
4 [label="(...)", fillcolor="#C0C0C0"] ;
3 -> 4 ;
5843 [label="(...)", fillcolor="#C0C0C0"] ;
3 -> 5843 ;
7884 [label="21_A <= 0.5\nentropy = 0.779\nsamples = 2285\nvalue = [2747, 824]\nclass = Animal", fillcolor="#eda774"] ;
2 -> 7884 ;
7885 [label="(...)", fillcolor="#C0C0C0"] ;
7884 -> 7885 ;
8616 [label="(...)", fillcolor="#C0C0C0"] ;
7884 -> 8616 ;
8881 [label="20_C <= 0.5\nentropy = 0.926\nsamples = 7753\nvalue = [8081, 4190]\nclass = Animal", fillcolor="#f2c2a0"] ;
1 -> 8881 ;
8882 [label="11_A <= 0.5\nentropy = 0.857\nsamples = 5730\nvalue = [6523, 2551]\nclass = Animal", fillcolor="#efb286"] ;
8881 -> 8882 ;
8883 [label="(...)", fillcolor="#C0C0C0"] ;
8882 -> 8883 ;
11056 [label="(...)", fillcolor="#C0C0C0"] ;
8882 -> 11056 ;
11723 [label="16_A <= 0.5\nentropy = 1.0\nsamples = 2023\nvalue = [1558, 1639]\nclass = Plant", fillcolor="#f5fafe"] ;
8881 -> 11723 ;
11724 [label="(...)", fillcolor="#C0C0C0"] ;
11723 -> 11724 ;
12397 [label="(...)", fillcolor="#C0C0C0"] ;
11723 -> 12397 ;
12624 [label="22_G <= 0.5\nentropy = 0.96\nsamples = 11894\nvalue = [7215, 11617]\nclass = Plant", fillcolor="#b4daf5"] ;
0 -> 12624 [labeldistance=2.5, labelangle=-45, headlabel="False"] ;
12625 [label="20_U <= 0.5\nentropy = 0.931\nsamples = 10634\nvalue = [5827, 11010]\nclass = Plant", fillcolor="#a2d1f3"] ;
12624 -> 12625 ;
12626 [label="16_U <= 0.5\nentropy = 0.976\nsamples = 6617\nvalue = [4256, 6172]\nclass = Plant", fillcolor="#c2e1f7"] ;
12625 -> 12626 ;
12627 [label="(...)", fillcolor="#C0C0C0"] ;
12626 -> 12627 ;
14742 [label="(...)", fillcolor="#C0C0C0"] ;
12626 -> 14742 ;
15517 [label="9_A <= 0.5\nentropy = 0.803\nsamples = 4017\nvalue = [1571, 4838]\nclass = Plant", fillcolor="#79bded"] ;
12625 -> 15517 ;
15518 [label="(...)", fillcolor="#C0C0C0"] ;
15517 -> 15518 ;
16221 [label="(...)", fillcolor="#C0C0C0"] ;
15517 -> 16221 ;
16506 [label="9_U <= 0.5\nentropy = 0.886\nsamples = 1260\nvalue = [1388, 607]\nclass = Animal", fillcolor="#f0b890"] ;
12624 -> 16506 ;
16507 [label="5_A <= 0.5\nentropy = 0.935\nsamples = 860\nvalue = [882, 476]\nclass = Animal", fillcolor="#f3c5a4"] ;
16506 -> 16507 ;
16508 [label="(...)", fillcolor="#C0C0C0"] ;
16507 -> 16508 ;
16813 [label="(...)", fillcolor="#C0C0C0"] ;
16507 -> 16813 ;
16926 [label="6_C <= 0.5\nentropy = 0.733\nsamples = 400\nvalue = [506, 131]\nclass = Animal", fillcolor="#eca26c"] ;
16506 -> 16926 ;
16927 [label="(...)", fillcolor="#C0C0C0"] ;
16926 -> 16927 ;
17048 [label="(...)", fillcolor="#C0C0C0"] ;
16926 -> 17048 ;
}