digraph Tree {
node [shape=box, style="filled, rounded", color="black", fontname="helvetica"] ;
edge [fontname="helvetica"] ;
0 [label="24_U <= 0.5\nentropy = 1.0\nsamples = 38254\nvalue = [30308, 30037]\nclass = Animal", fillcolor="#fffefd"] ;
1 [label="22_A <= 0.5\nentropy = 1.0\nsamples = 37430\nvalue = [29408, 29635]\nclass = Plant", fillcolor="#fdfeff"] ;
0 -> 1 [labeldistance=2.5, labelangle=45, headlabel="True"] ;
2 [label="20_G <= 0.5\nentropy = 0.998\nsamples = 33373\nvalue = [24788, 27862]\nclass = Plant", fillcolor="#e9f4fc"] ;
1 -> 2 ;
3 [label="21_C <= 0.5\nentropy = 0.989\nsamples = 26129\nvalue = [18032, 23203]\nclass = Plant", fillcolor="#d3e9f9"] ;
2 -> 3 ;
4 [label="(...)", fillcolor="#C0C0C0"] ;
3 -> 4 ;
8871 [label="(...)", fillcolor="#C0C0C0"] ;
3 -> 8871 ;
11044 [label="5_C <= 0.5\nentropy = 0.976\nsamples = 7244\nvalue = [6756, 4659]\nclass = Animal", fillcolor="#f7d8c2"] ;
2 -> 11044 ;
11045 [label="(...)", fillcolor="#C0C0C0"] ;
11044 -> 11045 ;
13912 [label="(...)", fillcolor="#C0C0C0"] ;
11044 -> 13912 ;
14655 [label="17_C <= 0.5\nentropy = 0.852\nsamples = 4057\nvalue = [4620, 1773]\nclass = Animal", fillcolor="#efb185"] ;
1 -> 14655 ;
14656 [label="2_U <= 0.5\nentropy = 0.897\nsamples = 3076\nvalue = [3337, 1525]\nclass = Animal", fillcolor="#f1bb93"] ;
14655 -> 14656 ;
14657 [label="(...)", fillcolor="#C0C0C0"] ;
14656 -> 14657 ;
15730 [label="(...)", fillcolor="#C0C0C0"] ;
14656 -> 15730 ;
16061 [label="21_A <= 0.5\nentropy = 0.639\nsamples = 981\nvalue = [1283, 248]\nclass = Animal", fillcolor="#ea995f"] ;
14655 -> 16061 ;
16062 [label="(...)", fillcolor="#C0C0C0"] ;
16061 -> 16062 ;
16363 [label="(...)", fillcolor="#C0C0C0"] ;
16061 -> 16363 ;
16450 [label="4_A <= 0.5\nentropy = 0.892\nsamples = 824\nvalue = [900, 402]\nclass = Animal", fillcolor="#f1b991"] ;
0 -> 16450 [labeldistance=2.5, labelangle=-45, headlabel="False"] ;
16451 [label="9_U <= 0.5\nentropy = 0.945\nsamples = 598\nvalue = [598, 341]\nclass = Animal", fillcolor="#f4c9aa"] ;
16450 -> 16451 ;
16452 [label="15_C <= 0.5\nentropy = 0.97\nsamples = 435\nvalue = [411, 273]\nclass = Animal", fillcolor="#f6d5bd"] ;
16451 -> 16452 ;
16453 [label="(...)", fillcolor="#C0C0C0"] ;
16452 -> 16453 ;
16652 [label="(...)", fillcolor="#C0C0C0"] ;
16452 -> 16652 ;
16707 [label="8_C <= 0.5\nentropy = 0.837\nsamples = 163\nvalue = [187, 68]\nclass = Animal", fillcolor="#eeaf81"] ;
16451 -> 16707 ;
16708 [label="(...)", fillcolor="#C0C0C0"] ;
16707 -> 16708 ;
16779 [label="(...)", fillcolor="#C0C0C0"] ;
16707 -> 16779 ;
16794 [label="10_G <= 0.5\nentropy = 0.653\nsamples = 226\nvalue = [302, 61]\nclass = Animal", fillcolor="#ea9a61"] ;
16450 -> 16794 ;
16795 [label="5_C <= 0.5\nentropy = 0.493\nsamples = 179\nvalue = [265, 32]\nclass = Animal", fillcolor="#e89051"] ;
16794 -> 16795 ;
16796 [label="(...)", fillcolor="#C0C0C0"] ;
16795 -> 16796 ;
16843 [label="(...)", fillcolor="#C0C0C0"] ;
16795 -> 16843 ;
16850 [label="19_C <= 0.5\nentropy = 0.989\nsamples = 47\nvalue = [37, 29]\nclass = Animal", fillcolor="#f9e4d4"] ;
16794 -> 16850 ;
16851 [label="(...)", fillcolor="#C0C0C0"] ;
16850 -> 16851 ;
16878 [label="(...)", fillcolor="#C0C0C0"] ;
16850 -> 16878 ;
}