digraph Tree {
node [shape=box, style="filled, rounded", color="black", fontname="helvetica"] ;
edge [fontname="helvetica"] ;
0 [label="20_C <= 0.5\nentropy = 1.0\nsamples = 38116\nvalue = [30063, 30282]\nclass = Plant", fillcolor="#fefeff"] ;
1 [label="23_C <= 0.5\nentropy = 0.995\nsamples = 28127\nvalue = [24063, 20435]\nclass = Animal", fillcolor="#fbece1"] ;
0 -> 1 [labeldistance=2.5, labelangle=45, headlabel="True"] ;
2 [label="22_G <= 0.5\nentropy = 0.997\nsamples = 27064\nvalue = [22727, 20059]\nclass = Animal", fillcolor="#fcf0e8"] ;
1 -> 2 ;
3 [label="19_U <= 0.5\nentropy = 1.0\nsamples = 23846\nvalue = [18789, 18940]\nclass = Plant", fillcolor="#fdfeff"] ;
2 -> 3 ;
4 [label="(...)", fillcolor="#C0C0C0"] ;
3 -> 4 ;
8225 [label="(...)", fillcolor="#C0C0C0"] ;
3 -> 8225 ;
11042 [label="26_G <= 0.5\nentropy = 0.762\nsamples = 3218\nvalue = [3938, 1119]\nclass = Animal", fillcolor="#eca571"] ;
2 -> 11042 ;
11043 [label="(...)", fillcolor="#C0C0C0"] ;
11042 -> 11043 ;
12330 [label="(...)", fillcolor="#C0C0C0"] ;
11042 -> 12330 ;
12345 [label="19_C <= 0.5\nentropy = 0.759\nsamples = 1063\nvalue = [1336, 376]\nclass = Animal", fillcolor="#eca471"] ;
1 -> 12345 ;
12346 [label="1_G <= 0.5\nentropy = 0.701\nsamples = 789\nvalue = [1037, 243]\nclass = Animal", fillcolor="#eb9f67"] ;
12345 -> 12346 ;
12347 [label="(...)", fillcolor="#C0C0C0"] ;
12346 -> 12347 ;
12612 [label="(...)", fillcolor="#C0C0C0"] ;
12346 -> 12612 ;
12667 [label="18_C <= 0.5\nentropy = 0.891\nsamples = 274\nvalue = [299, 133]\nclass = Animal", fillcolor="#f1b991"] ;
12345 -> 12667 ;
12668 [label="(...)", fillcolor="#C0C0C0"] ;
12667 -> 12668 ;
12765 [label="(...)", fillcolor="#C0C0C0"] ;
12667 -> 12765 ;
12810 [label="23_A <= 0.5\nentropy = 0.957\nsamples = 9989\nvalue = [6000, 9847]\nclass = Plant", fillcolor="#b2d9f5"] ;
0 -> 12810 [labeldistance=2.5, labelangle=-45, headlabel="False"] ;
12811 [label="2_A <= 0.5\nentropy = 0.945\nsamples = 9592\nvalue = [5523, 9684]\nclass = Plant", fillcolor="#aad5f4"] ;
12810 -> 12811 ;
12812 [label="1_U <= 0.5\nentropy = 0.909\nsamples = 7966\nvalue = [4105, 8555]\nclass = Plant", fillcolor="#98ccf1"] ;
12811 -> 12812 ;
12813 [label="(...)", fillcolor="#C0C0C0"] ;
12812 -> 12813 ;
14276 [label="(...)", fillcolor="#C0C0C0"] ;
12812 -> 14276 ;
15699 [label="5_U <= 0.5\nentropy = 0.991\nsamples = 1626\nvalue = [1418, 1129]\nclass = Animal", fillcolor="#fae5d7"] ;
12811 -> 15699 ;
15700 [label="(...)", fillcolor="#C0C0C0"] ;
15699 -> 15700 ;
16323 [label="(...)", fillcolor="#C0C0C0"] ;
15699 -> 16323 ;
16528 [label="21_C <= 0.5\nentropy = 0.819\nsamples = 397\nvalue = [477, 163]\nclass = Animal", fillcolor="#eeac7d"] ;
12810 -> 16528 ;
16529 [label="17_C <= 0.5\nentropy = 0.747\nsamples = 334\nvalue = [429, 116]\nclass = Animal", fillcolor="#eca36f"] ;
16528 -> 16529 ;
16530 [label="(...)", fillcolor="#C0C0C0"] ;
16529 -> 16530 ;
16653 [label="(...)", fillcolor="#C0C0C0"] ;
16529 -> 16653 ;
16692 [label="5_C <= 0.5\nentropy = 1.0\nsamples = 63\nvalue = [48, 47]\nclass = Animal", fillcolor="#fefcfb"] ;
16528 -> 16692 ;
16693 [label="(...)", fillcolor="#C0C0C0"] ;
16692 -> 16693 ;
16722 [label="(...)", fillcolor="#C0C0C0"] ;
16692 -> 16722 ;
}