digraph Tree {
node [shape=box, style="filled, rounded", color="black", fontname="helvetica"] ;
edge [fontname="helvetica"] ;
0 [label="18_C <= 0.5\nentropy = 1.0\nsamples = 38066\nvalue = [30258, 30087]\nclass = Animal", fillcolor="#fffefe"] ;
1 [label="23_U <= 0.5\nentropy = 0.996\nsamples = 27813\nvalue = [23694, 20390]\nclass = Animal", fillcolor="#fbede3"] ;
0 -> 1 [labeldistance=2.5, labelangle=45, headlabel="True"] ;
2 [label="2_U <= 0.5\nentropy = 0.999\nsamples = 26194\nvalue = [21590, 19924]\nclass = Animal", fillcolor="#fdf5f0"] ;
1 -> 2 ;
3 [label="21_G <= 0.5\nentropy = 0.992\nsamples = 18921\nvalue = [16628, 13377]\nclass = Animal", fillcolor="#fae6d8"] ;
2 -> 3 ;
4 [label="(...)", fillcolor="#C0C0C0"] ;
3 -> 4 ;
7013 [label="(...)", fillcolor="#C0C0C0"] ;
3 -> 7013 ;
9066 [label="22_C <= 0.5\nentropy = 0.986\nsamples = 7273\nvalue = [4962, 6547]\nclass = Plant", fillcolor="#cfe7f9"] ;
2 -> 9066 ;
9067 [label="(...)", fillcolor="#C0C0C0"] ;
9066 -> 9067 ;
12052 [label="(...)", fillcolor="#C0C0C0"] ;
9066 -> 12052 ;
12377 [label="18_A <= 0.5\nentropy = 0.683\nsamples = 1619\nvalue = [2104, 466]\nclass = Animal", fillcolor="#eb9d65"] ;
1 -> 12377 ;
12378 [label="9_U <= 0.5\nentropy = 0.721\nsamples = 1178\nvalue = [1501, 374]\nclass = Animal", fillcolor="#eba06a"] ;
12377 -> 12378 ;
12379 [label="(...)", fillcolor="#C0C0C0"] ;
12378 -> 12379 ;
12678 [label="(...)", fillcolor="#C0C0C0"] ;
12378 -> 12678 ;
12789 [label="11_G <= 0.5\nentropy = 0.564\nsamples = 441\nvalue = [603, 92]\nclass = Animal", fillcolor="#e99457"] ;
12377 -> 12789 ;
12790 [label="(...)", fillcolor="#C0C0C0"] ;
12789 -> 12790 ;
12887 [label="(...)", fillcolor="#C0C0C0"] ;
12789 -> 12887 ;
12928 [label="10_A <= 0.5\nentropy = 0.973\nsamples = 10253\nvalue = [6564, 9697]\nclass = Plant", fillcolor="#bfdff7"] ;
0 -> 12928 [labeldistance=2.5, labelangle=-45, headlabel="False"] ;
12929 [label="22_U <= 0.5\nentropy = 1.0\nsamples = 6400\nvalue = [5130, 5062]\nclass = Animal", fillcolor="#fffdfc"] ;
12928 -> 12929 ;
12930 [label="2_C <= 0.5\nentropy = 0.995\nsamples = 5469\nvalue = [3985, 4742]\nclass = Plant", fillcolor="#dfeffb"] ;
12929 -> 12930 ;
12931 [label="(...)", fillcolor="#C0C0C0"] ;
12930 -> 12931 ;
14918 [label="(...)", fillcolor="#C0C0C0"] ;
12930 -> 14918 ;
15455 [label="17_C <= 0.5\nentropy = 0.757\nsamples = 931\nvalue = [1145, 320]\nclass = Animal", fillcolor="#eca470"] ;
12929 -> 15455 ;
15456 [label="(...)", fillcolor="#C0C0C0"] ;
15455 -> 15456 ;
15721 [label="(...)", fillcolor="#C0C0C0"] ;
15455 -> 15721 ;
15784 [label="9_G <= 0.5\nentropy = 0.789\nsamples = 3853\nvalue = [1434, 4635]\nclass = Plant", fillcolor="#76bbed"] ;
12928 -> 15784 ;
15785 [label="16_U <= 0.5\nentropy = 0.977\nsamples = 1738\nvalue = [1128, 1612]\nclass = Plant", fillcolor="#c4e2f7"] ;
15784 -> 15785 ;
15786 [label="(...)", fillcolor="#C0C0C0"] ;
15785 -> 15786 ;
16245 [label="(...)", fillcolor="#C0C0C0"] ;
15785 -> 16245 ;
16448 [label="6_A <= 0.5\nentropy = 0.443\nsamples = 2115\nvalue = [306, 3023]\nclass = Plant", fillcolor="#4da7e8"] ;
15784 -> 16448 ;
16449 [label="(...)", fillcolor="#C0C0C0"] ;
16448 -> 16449 ;
16666 [label="(...)", fillcolor="#C0C0C0"] ;
16448 -> 16666 ;
}