digraph Tree {
node [shape=box, style="filled, rounded", color="black", fontname="helvetica"] ;
edge [fontname="helvetica"] ;
0 [label="22_C <= 0.5\nentropy = 1.0\nsamples = 38142\nvalue = [30159, 30186]\nclass = Plant", fillcolor="#ffffff"] ;
1 [label="23_C <= 0.5\nentropy = 0.998\nsamples = 34345\nvalue = [25912, 28392]\nclass = Plant", fillcolor="#eef6fd"] ;
0 -> 1 [labeldistance=2.5, labelangle=45, headlabel="True"] ;
2 [label="2_U <= 0.5\nentropy = 0.997\nsamples = 33227\nvalue = [24505, 28040]\nclass = Plant", fillcolor="#e6f3fc"] ;
1 -> 2 ;
3 [label="1_U <= 0.5\nentropy = 1.0\nsamples = 24820\nvalue = [19345, 19833]\nclass = Plant", fillcolor="#fafdfe"] ;
2 -> 3 ;
4 [label="(...)", fillcolor="#C0C0C0"] ;
3 -> 4 ;
6257 [label="(...)", fillcolor="#C0C0C0"] ;
3 -> 6257 ;
10784 [label="8_G <= 0.5\nentropy = 0.962\nsamples = 8407\nvalue = [5160, 8207]\nclass = Plant", fillcolor="#b5dbf5"] ;
2 -> 10784 ;
10785 [label="(...)", fillcolor="#C0C0C0"] ;
10784 -> 10785 ;
13578 [label="(...)", fillcolor="#C0C0C0"] ;
10784 -> 13578 ;
14521 [label="24_G <= 0.5\nentropy = 0.722\nsamples = 1118\nvalue = [1407, 352]\nclass = Animal", fillcolor="#eca16b"] ;
1 -> 14521 ;
14522 [label="1_G <= 0.5\nentropy = 0.684\nsamples = 1059\nvalue = [1362, 303]\nclass = Animal", fillcolor="#eb9d65"] ;
14521 -> 14522 ;
14523 [label="(...)", fillcolor="#C0C0C0"] ;
14522 -> 14523 ;
14898 [label="(...)", fillcolor="#C0C0C0"] ;
14522 -> 14898 ;
14977 [label="11_G <= 0.5\nentropy = 0.999\nsamples = 59\nvalue = [45, 49]\nclass = Plant", fillcolor="#eff7fd"] ;
14521 -> 14977 ;
14978 [label="(...)", fillcolor="#C0C0C0"] ;
14977 -> 14978 ;
14997 [label="(...)", fillcolor="#C0C0C0"] ;
14977 -> 14997 ;
15012 [label="18_U <= 0.5\nentropy = 0.878\nsamples = 3797\nvalue = [4247, 1794]\nclass = Animal", fillcolor="#f0b68d"] ;
0 -> 15012 [labeldistance=2.5, labelangle=-45, headlabel="False"] ;
15013 [label="16_U <= 0.5\nentropy = 0.912\nsamples = 2731\nvalue = [2912, 1419]\nclass = Animal", fillcolor="#f2be99"] ;
15012 -> 15013 ;
15014 [label="1_A <= 0.5\nentropy = 0.884\nsamples = 1847\nvalue = [2036, 882]\nclass = Animal", fillcolor="#f0b88f"] ;
15013 -> 15014 ;
15015 [label="(...)", fillcolor="#C0C0C0"] ;
15014 -> 15015 ;
15778 [label="(...)", fillcolor="#C0C0C0"] ;
15014 -> 15778 ;
15975 [label="9_G <= 0.5\nentropy = 0.958\nsamples = 884\nvalue = [876, 537]\nclass = Animal", fillcolor="#f5ceb2"] ;
15013 -> 15975 ;
15976 [label="(...)", fillcolor="#C0C0C0"] ;
15975 -> 15976 ;
16241 [label="(...)", fillcolor="#C0C0C0"] ;
15975 -> 16241 ;
16348 [label="19_C <= 0.5\nentropy = 0.759\nsamples = 1066\nvalue = [1335, 375]\nclass = Animal", fillcolor="#eca471"] ;
15012 -> 16348 ;
16349 [label="20_U <= 0.5\nentropy = 0.624\nsamples = 770\nvalue = [1034, 191]\nclass = Animal", fillcolor="#ea985e"] ;
16348 -> 16349 ;
16350 [label="(...)", fillcolor="#C0C0C0"] ;
16349 -> 16350 ;
16561 [label="(...)", fillcolor="#C0C0C0"] ;
16349 -> 16561 ;
16624 [label="2_G <= 0.5\nentropy = 0.958\nsamples = 296\nvalue = [301, 184]\nclass = Animal", fillcolor="#f5ceb2"] ;
16348 -> 16624 ;
16625 [label="(...)", fillcolor="#C0C0C0"] ;
16624 -> 16625 ;
16750 [label="(...)", fillcolor="#C0C0C0"] ;
16624 -> 16750 ;
}