digraph Tree {
node [shape=box, style="filled, rounded", color="black", fontname="helvetica"] ;
edge [fontname="helvetica"] ;
0 [label="8_G <= 0.5\nentropy = 1.0\nsamples = 38231\nvalue = [30284, 30061]\nclass = Animal", fillcolor="#fffefe"] ;
1 [label="10_G <= 0.5\nentropy = 0.992\nsamples = 26402\nvalue = [23100, 18651]\nclass = Animal", fillcolor="#fae7d9"] ;
0 -> 1 [labeldistance=2.5, labelangle=45, headlabel="True"] ;
2 [label="22_G <= 0.5\nentropy = 0.987\nsamples = 19175\nvalue = [17125, 13086]\nclass = Animal", fillcolor="#f9e1d0"] ;
1 -> 2 ;
3 [label="1_U <= 0.5\nentropy = 0.999\nsamples = 16378\nvalue = [13396, 12396]\nclass = Animal", fillcolor="#fdf6f0"] ;
2 -> 3 ;
4 [label="(...)", fillcolor="#C0C0C0"] ;
3 -> 4 ;
4441 [label="(...)", fillcolor="#C0C0C0"] ;
3 -> 4441 ;
8042 [label="3_C <= 0.5\nentropy = 0.625\nsamples = 2797\nvalue = [3729, 690]\nclass = Animal", fillcolor="#ea985e"] ;
2 -> 8042 ;
8043 [label="(...)", fillcolor="#C0C0C0"] ;
8042 -> 8043 ;
8794 [label="(...)", fillcolor="#C0C0C0"] ;
8042 -> 8794 ;
9031 [label="11_C <= 0.5\nentropy = 0.999\nsamples = 7227\nvalue = [5975, 5565]\nclass = Animal", fillcolor="#fdf6f1"] ;
1 -> 9031 ;
9032 [label="22_U <= 0.5\nentropy = 0.986\nsamples = 5377\nvalue = [4901, 3706]\nclass = Animal", fillcolor="#f9e0cf"] ;
9031 -> 9032 ;
9033 [label="(...)", fillcolor="#C0C0C0"] ;
9032 -> 9033 ;
11486 [label="(...)", fillcolor="#C0C0C0"] ;
9032 -> 11486 ;
11787 [label="14_C <= 0.5\nentropy = 0.948\nsamples = 1850\nvalue = [1074, 1859]\nclass = Plant", fillcolor="#abd6f4"] ;
9031 -> 11787 ;
11788 [label="(...)", fillcolor="#C0C0C0"] ;
11787 -> 11788 ;
12355 [label="(...)", fillcolor="#C0C0C0"] ;
11787 -> 12355 ;
12526 [label="15_U <= 0.5\nentropy = 0.962\nsamples = 11829\nvalue = [7184, 11410]\nclass = Plant", fillcolor="#b6dbf5"] ;
0 -> 12526 [labeldistance=2.5, labelangle=-45, headlabel="False"] ;
12527 [label="4_C <= 0.5\nentropy = 0.994\nsamples = 7464\nvalue = [5356, 6388]\nclass = Plant", fillcolor="#dfeffb"] ;
12526 -> 12527 ;
12528 [label="1_A <= 0.5\nentropy = 0.978\nsamples = 5844\nvalue = [3780, 5367]\nclass = Plant", fillcolor="#c4e2f7"] ;
12527 -> 12528 ;
12529 [label="(...)", fillcolor="#C0C0C0"] ;
12528 -> 12529 ;
14434 [label="(...)", fillcolor="#C0C0C0"] ;
12528 -> 14434 ;
15041 [label="19_C <= 0.5\nentropy = 0.967\nsamples = 1620\nvalue = [1576, 1021]\nclass = Animal", fillcolor="#f6d3b9"] ;
12527 -> 15041 ;
15042 [label="(...)", fillcolor="#C0C0C0"] ;
15041 -> 15042 ;
15625 [label="(...)", fillcolor="#C0C0C0"] ;
15041 -> 15625 ;
15816 [label="22_U <= 0.5\nentropy = 0.837\nsamples = 4365\nvalue = [1828, 5022]\nclass = Plant", fillcolor="#81c1ee"] ;
12526 -> 15816 ;
15817 [label="23_U <= 0.5\nentropy = 0.781\nsamples = 4064\nvalue = [1485, 4917]\nclass = Plant", fillcolor="#75bbed"] ;
15816 -> 15817 ;
15818 [label="(...)", fillcolor="#C0C0C0"] ;
15817 -> 15818 ;
16799 [label="(...)", fillcolor="#C0C0C0"] ;
15817 -> 16799 ;
16842 [label="19_C <= 0.5\nentropy = 0.786\nsamples = 301\nvalue = [343, 105]\nclass = Animal", fillcolor="#eda876"] ;
15816 -> 16842 ;
16843 [label="(...)", fillcolor="#C0C0C0"] ;
16842 -> 16843 ;
16960 [label="(...)", fillcolor="#C0C0C0"] ;
16842 -> 16960 ;
}