digraph Tree {
node [shape=box, style="filled, rounded", color="black", fontname="helvetica"] ;
edge [fontname="helvetica"] ;
0 [label="23_G <= 0.5\nentropy = 1.0\nsamples = 38073\nvalue = [30108, 30237]\nclass = Plant", fillcolor="#feffff"] ;
1 [label="2_G <= 0.5\nentropy = 0.999\nsamples = 36173\nvalue = [27804, 29498]\nclass = Plant", fillcolor="#f4f9fe"] ;
0 -> 1 [labeldistance=2.5, labelangle=45, headlabel="True"] ;
2 [label="8_G <= 0.5\nentropy = 1.0\nsamples = 24933\nvalue = [20014, 19429]\nclass = Animal", fillcolor="#fefbf9"] ;
1 -> 2 ;
3 [label="3_G <= 0.5\nentropy = 0.991\nsamples = 17645\nvalue = [15530, 12375]\nclass = Animal", fillcolor="#fae5d7"] ;
2 -> 3 ;
4 [label="(...)", fillcolor="#C0C0C0"] ;
3 -> 4 ;
6143 [label="(...)", fillcolor="#C0C0C0"] ;
3 -> 6143 ;
8396 [label="22_C <= 0.5\nentropy = 0.964\nsamples = 7288\nvalue = [4484, 7054]\nclass = Plant", fillcolor="#b7dbf6"] ;
2 -> 8396 ;
8397 [label="(...)", fillcolor="#C0C0C0"] ;
8396 -> 8397 ;
11008 [label="(...)", fillcolor="#C0C0C0"] ;
8396 -> 11008 ;
11387 [label="4_G <= 0.5\nentropy = 0.988\nsamples = 11240\nvalue = [7790, 10069]\nclass = Plant", fillcolor="#d2e9f9"] ;
1 -> 11387 ;
11388 [label="19_U <= 0.5\nentropy = 0.958\nsamples = 8533\nvalue = [5126, 8373]\nclass = Plant", fillcolor="#b2d9f5"] ;
11387 -> 11388 ;
11389 [label="(...)", fillcolor="#C0C0C0"] ;
11388 -> 11389 ;
13830 [label="(...)", fillcolor="#C0C0C0"] ;
11388 -> 13830 ;
14649 [label="18_U <= 0.5\nentropy = 0.964\nsamples = 2707\nvalue = [2664, 1696]\nclass = Animal", fillcolor="#f6d1b7"] ;
11387 -> 14649 ;
14650 [label="(...)", fillcolor="#C0C0C0"] ;
14649 -> 14650 ;
15677 [label="(...)", fillcolor="#C0C0C0"] ;
14649 -> 15677 ;
15984 [label="2_G <= 0.5\nentropy = 0.8\nsamples = 1900\nvalue = [2304, 739]\nclass = Animal", fillcolor="#eda979"] ;
0 -> 15984 [labeldistance=2.5, labelangle=-45, headlabel="False"] ;
15985 [label="2_A <= 0.5\nentropy = 0.846\nsamples = 1357\nvalue = [1581, 595]\nclass = Animal", fillcolor="#efb084"] ;
15984 -> 15985 ;
15986 [label="1_C <= 0.5\nentropy = 0.917\nsamples = 741\nvalue = [792, 394]\nclass = Animal", fillcolor="#f2c09c"] ;
15985 -> 15986 ;
15987 [label="(...)", fillcolor="#C0C0C0"] ;
15986 -> 15987 ;
16258 [label="(...)", fillcolor="#C0C0C0"] ;
15986 -> 16258 ;
16341 [label="9_C <= 0.5\nentropy = 0.728\nsamples = 616\nvalue = [789, 201]\nclass = Animal", fillcolor="#eca16b"] ;
15985 -> 16341 ;
16342 [label="(...)", fillcolor="#C0C0C0"] ;
16341 -> 16342 ;
16487 [label="(...)", fillcolor="#C0C0C0"] ;
16341 -> 16487 ;
16538 [label="11_U <= 0.5\nentropy = 0.649\nsamples = 543\nvalue = [723, 144]\nclass = Animal", fillcolor="#ea9a60"] ;
15984 -> 16538 ;
16539 [label="17_G <= 0.5\nentropy = 0.507\nsamples = 399\nvalue = [560, 71]\nclass = Animal", fillcolor="#e89152"] ;
16538 -> 16539 ;
16540 [label="(...)", fillcolor="#C0C0C0"] ;
16539 -> 16540 ;
16615 [label="(...)", fillcolor="#C0C0C0"] ;
16539 -> 16615 ;
16658 [label="22_U <= 0.5\nentropy = 0.892\nsamples = 144\nvalue = [163, 73]\nclass = Animal", fillcolor="#f1b992"] ;
16538 -> 16658 ;
16659 [label="(...)", fillcolor="#C0C0C0"] ;
16658 -> 16659 ;
16716 [label="(...)", fillcolor="#C0C0C0"] ;
16658 -> 16716 ;
}