digraph Tree {
node [shape=box, style="filled, rounded", color="black", fontname="helvetica"] ;
edge [fontname="helvetica"] ;
0 [label="9_G <= 0.5\nentropy = 1.0\nsamples = 38125\nvalue = [30180, 30165]\nclass = Animal", fillcolor="#ffffff"] ;
1 [label="17_C <= 0.5\nentropy = 0.996\nsamples = 27521\nvalue = [23427, 20166]\nclass = Animal", fillcolor="#fbede3"] ;
0 -> 1 [labeldistance=2.5, labelangle=45, headlabel="True"] ;
2 [label="8_G <= 0.5\nentropy = 0.999\nsamples = 21409\nvalue = [17671, 16320]\nclass = Animal", fillcolor="#fdf5f0"] ;
1 -> 2 ;
3 [label="20_U <= 0.5\nentropy = 0.978\nsamples = 14337\nvalue = [13348, 9387]\nclass = Animal", fillcolor="#f7dac4"] ;
2 -> 3 ;
4 [label="(...)", fillcolor="#C0C0C0"] ;
3 -> 4 ;
5205 [label="(...)", fillcolor="#C0C0C0"] ;
3 -> 5205 ;
7066 [label="2_U <= 0.5\nentropy = 0.961\nsamples = 7072\nvalue = [4323, 6933]\nclass = Plant", fillcolor="#b4daf5"] ;
2 -> 7066 ;
7067 [label="(...)", fillcolor="#C0C0C0"] ;
7066 -> 7067 ;
8960 [label="(...)", fillcolor="#C0C0C0"] ;
7066 -> 8960 ;
9585 [label="22_U <= 0.5\nentropy = 0.971\nsamples = 6112\nvalue = [5756, 3846]\nclass = Animal", fillcolor="#f6d5bd"] ;
1 -> 9585 ;
9586 [label="9_U <= 0.5\nentropy = 0.993\nsamples = 5176\nvalue = [4476, 3657]\nclass = Animal", fillcolor="#fae8db"] ;
9585 -> 9586 ;
9587 [label="(...)", fillcolor="#C0C0C0"] ;
9586 -> 9587 ;
11244 [label="(...)", fillcolor="#C0C0C0"] ;
9586 -> 11244 ;
12171 [label="5_C <= 0.5\nentropy = 0.554\nsamples = 936\nvalue = [1280, 189]\nclass = Animal", fillcolor="#e99456"] ;
9585 -> 12171 ;
12172 [label="(...)", fillcolor="#C0C0C0"] ;
12171 -> 12172 ;
12415 [label="(...)", fillcolor="#C0C0C0"] ;
12171 -> 12415 ;
12488 [label="22_G <= 0.5\nentropy = 0.973\nsamples = 10604\nvalue = [6753, 9999]\nclass = Plant", fillcolor="#bfdff7"] ;
0 -> 12488 [labeldistance=2.5, labelangle=-45, headlabel="False"] ;
12489 [label="10_A <= 0.5\nentropy = 0.945\nsamples = 9443\nvalue = [5419, 9515]\nclass = Plant", fillcolor="#aad5f4"] ;
12488 -> 12489 ;
12490 [label="16_U <= 0.5\nentropy = 1.0\nsamples = 5208\nvalue = [4127, 4083]\nclass = Animal", fillcolor="#fffefd"] ;
12489 -> 12490 ;
12491 [label="(...)", fillcolor="#C0C0C0"] ;
12490 -> 12491 ;
14542 [label="(...)", fillcolor="#C0C0C0"] ;
12490 -> 14542 ;
15323 [label="7_G <= 0.5\nentropy = 0.706\nsamples = 4235\nvalue = [1292, 5432]\nclass = Plant", fillcolor="#68b4eb"] ;
12489 -> 15323 ;
15324 [label="(...)", fillcolor="#C0C0C0"] ;
15323 -> 15324 ;
16129 [label="(...)", fillcolor="#C0C0C0"] ;
15323 -> 16129 ;
16444 [label="4_C <= 0.5\nentropy = 0.836\nsamples = 1161\nvalue = [1334, 484]\nclass = Animal", fillcolor="#eeaf81"] ;
12488 -> 16444 ;
16445 [label="24_G <= 0.5\nentropy = 0.739\nsamples = 814\nvalue = [1024, 270]\nclass = Animal", fillcolor="#eca26d"] ;
16444 -> 16445 ;
16446 [label="(...)", fillcolor="#C0C0C0"] ;
16445 -> 16446 ;
16783 [label="(...)", fillcolor="#C0C0C0"] ;
16445 -> 16783 ;
16814 [label="19_U <= 0.5\nentropy = 0.976\nsamples = 347\nvalue = [310, 214]\nclass = Animal", fillcolor="#f7d8c2"] ;
16444 -> 16814 ;
16815 [label="(...)", fillcolor="#C0C0C0"] ;
16814 -> 16815 ;
16922 [label="(...)", fillcolor="#C0C0C0"] ;
16814 -> 16922 ;
}