digraph Tree {
node [shape=box, style="filled, rounded", color="black", fontname="helvetica"] ;
edge [fontname="helvetica"] ;
0 [label="20_G <= 0.5\nentropy = 1.0\nsamples = 38099\nvalue = [30232, 30113]\nclass = Animal", fillcolor="#fffffe"] ;
1 [label="22_A <= 0.5\nentropy = 0.997\nsamples = 29584\nvalue = [21918, 24960]\nclass = Plant", fillcolor="#e7f3fc"] ;
0 -> 1 [labeldistance=2.5, labelangle=45, headlabel="True"] ;
2 [label="22_U <= 0.5\nentropy = 0.99\nsamples = 26611\nvalue = [18629, 23563]\nclass = Plant", fillcolor="#d6eafa"] ;
1 -> 2 ;
3 [label="1_A <= 0.5\nentropy = 0.959\nsamples = 22915\nvalue = [13843, 22474]\nclass = Plant", fillcolor="#b3d9f5"] ;
2 -> 3 ;
4 [label="(...)", fillcolor="#C0C0C0"] ;
3 -> 4 ;
7469 [label="(...)", fillcolor="#C0C0C0"] ;
3 -> 7469 ;
9718 [label="8_A <= 0.5\nentropy = 0.692\nsamples = 3696\nvalue = [4786, 1089]\nclass = Animal", fillcolor="#eb9e66"] ;
2 -> 9718 ;
9719 [label="(...)", fillcolor="#C0C0C0"] ;
9718 -> 9719 ;
10750 [label="(...)", fillcolor="#C0C0C0"] ;
9718 -> 10750 ;
11127 [label="23_A <= 0.5\nentropy = 0.879\nsamples = 2973\nvalue = [3289, 1397]\nclass = Animal", fillcolor="#f0b78d"] ;
1 -> 11127 ;
11128 [label="20_C <= 0.5\nentropy = 0.868\nsamples = 2827\nvalue = [3157, 1285]\nclass = Animal", fillcolor="#f0b48a"] ;
11127 -> 11128 ;
11129 [label="(...)", fillcolor="#C0C0C0"] ;
11128 -> 11129 ;
11968 [label="(...)", fillcolor="#C0C0C0"] ;
11128 -> 11968 ;
12343 [label="8_C <= 0.5\nentropy = 0.995\nsamples = 146\nvalue = [132, 112]\nclass = Animal", fillcolor="#fbece1"] ;
11127 -> 12343 ;
12344 [label="(...)", fillcolor="#C0C0C0"] ;
12343 -> 12344 ;
12435 [label="(...)", fillcolor="#C0C0C0"] ;
12343 -> 12435 ;
12466 [label="19_C <= 0.5\nentropy = 0.96\nsamples = 8515\nvalue = [8314, 5153]\nclass = Animal", fillcolor="#f5cfb4"] ;
0 -> 12466 [labeldistance=2.5, labelangle=-45, headlabel="False"] ;
12467 [label="3_A <= 0.5\nentropy = 0.914\nsamples = 6939\nvalue = [7379, 3626]\nclass = Animal", fillcolor="#f2bf9a"] ;
12466 -> 12467 ;
12468 [label="2_U <= 0.5\nentropy = 0.941\nsamples = 4783\nvalue = [4871, 2716]\nclass = Animal", fillcolor="#f3c7a7"] ;
12467 -> 12468 ;
12469 [label="(...)", fillcolor="#C0C0C0"] ;
12468 -> 12469 ;
14296 [label="(...)", fillcolor="#C0C0C0"] ;
12468 -> 14296 ;
15057 [label="6_U <= 0.5\nentropy = 0.836\nsamples = 2156\nvalue = [2508, 910]\nclass = Animal", fillcolor="#eeaf81"] ;
12467 -> 15057 ;
15058 [label="(...)", fillcolor="#C0C0C0"] ;
15057 -> 15058 ;
15769 [label="(...)", fillcolor="#C0C0C0"] ;
15057 -> 15769 ;
16034 [label="21_G <= 0.5\nentropy = 0.958\nsamples = 1576\nvalue = [935, 1527]\nclass = Plant", fillcolor="#b2d9f5"] ;
12466 -> 16034 ;
16035 [label="8_G <= 0.5\nentropy = 1.0\nsamples = 967\nvalue = [751, 783]\nclass = Plant", fillcolor="#f7fbfe"] ;
16034 -> 16035 ;
16036 [label="(...)", fillcolor="#C0C0C0"] ;
16035 -> 16036 ;
16409 [label="(...)", fillcolor="#C0C0C0"] ;
16035 -> 16409 ;
16556 [label="18_G <= 0.5\nentropy = 0.718\nsamples = 609\nvalue = [184, 744]\nclass = Plant", fillcolor="#6ab5eb"] ;
16034 -> 16556 ;
16557 [label="(...)", fillcolor="#C0C0C0"] ;
16556 -> 16557 ;
16744 [label="(...)", fillcolor="#C0C0C0"] ;
16556 -> 16744 ;
}