digraph Tree {
node [shape=box, style="filled, rounded", color="black", fontname="helvetica"] ;
edge [fontname="helvetica"] ;
0 [label="19_U <= 0.5\nentropy = 1.0\nsamples = 38007\nvalue = [30174, 30171]\nclass = Animal", fillcolor="#ffffff"] ;
1 [label="23_G <= 0.5\nentropy = 0.995\nsamples = 29114\nvalue = [21178, 25075]\nclass = Plant", fillcolor="#e0f0fb"] ;
0 -> 1 [labeldistance=2.5, labelangle=45, headlabel="True"] ;
2 [label="10_A <= 0.5\nentropy = 0.991\nsamples = 27651\nvalue = [19461, 24451]\nclass = Plant", fillcolor="#d7ebfa"] ;
1 -> 2 ;
3 [label="2_A <= 0.5\nentropy = 1.0\nsamples = 19413\nvalue = [15098, 15824]\nclass = Plant", fillcolor="#f6fbfe"] ;
2 -> 3 ;
4 [label="(...)", fillcolor="#C0C0C0"] ;
3 -> 4 ;
6805 [label="(...)", fillcolor="#C0C0C0"] ;
3 -> 6805 ;
8936 [label="19_C <= 0.5\nentropy = 0.921\nsamples = 8238\nvalue = [4363, 8627]\nclass = Plant", fillcolor="#9dcff2"] ;
2 -> 8936 ;
8937 [label="(...)", fillcolor="#C0C0C0"] ;
8936 -> 8937 ;
10902 [label="(...)", fillcolor="#C0C0C0"] ;
8936 -> 10902 ;
11849 [label="11_U <= 0.5\nentropy = 0.836\nsamples = 1463\nvalue = [1717, 624]\nclass = Animal", fillcolor="#eeaf81"] ;
1 -> 11849 ;
11850 [label="9_C <= 0.5\nentropy = 0.746\nsamples = 1054\nvalue = [1343, 362]\nclass = Animal", fillcolor="#eca36e"] ;
11849 -> 11850 ;
11851 [label="(...)", fillcolor="#C0C0C0"] ;
11850 -> 11851 ;
12150 [label="(...)", fillcolor="#C0C0C0"] ;
11850 -> 12150 ;
12243 [label="20_U <= 0.5\nentropy = 0.978\nsamples = 409\nvalue = [374, 262]\nclass = Animal", fillcolor="#f7d9c4"] ;
11849 -> 12243 ;
12244 [label="(...)", fillcolor="#C0C0C0"] ;
12243 -> 12244 ;
12387 [label="(...)", fillcolor="#C0C0C0"] ;
12243 -> 12387 ;
12432 [label="18_U <= 0.5\nentropy = 0.944\nsamples = 8893\nvalue = [8996, 5096]\nclass = Animal", fillcolor="#f4c8a9"] ;
0 -> 12432 [labeldistance=2.5, labelangle=-45, headlabel="False"] ;
12433 [label="2_U <= 0.5\nentropy = 0.966\nsamples = 6116\nvalue = [5887, 3795]\nclass = Animal", fillcolor="#f6d2b9"] ;
12432 -> 12433 ;
12434 [label="14_G <= 0.5\nentropy = 0.937\nsamples = 4681\nvalue = [4775, 2615]\nclass = Animal", fillcolor="#f3c6a5"] ;
12433 -> 12434 ;
12435 [label="(...)", fillcolor="#C0C0C0"] ;
12434 -> 12435 ;
14166 [label="(...)", fillcolor="#C0C0C0"] ;
12434 -> 14166 ;
14871 [label="22_A <= 0.5\nentropy = 0.999\nsamples = 1435\nvalue = [1112, 1180]\nclass = Plant", fillcolor="#f4f9fe"] ;
12433 -> 14871 ;
14872 [label="(...)", fillcolor="#C0C0C0"] ;
14871 -> 14872 ;
15539 [label="(...)", fillcolor="#C0C0C0"] ;
14871 -> 15539 ;
15624 [label="21_U <= 0.5\nentropy = 0.875\nsamples = 2777\nvalue = [3109, 1301]\nclass = Animal", fillcolor="#f0b68c"] ;
12432 -> 15624 ;
15625 [label="11_C <= 0.5\nentropy = 0.91\nsamples = 2136\nvalue = [2298, 1107]\nclass = Animal", fillcolor="#f2be98"] ;
15624 -> 15625 ;
15626 [label="(...)", fillcolor="#C0C0C0"] ;
15625 -> 15626 ;
16417 [label="(...)", fillcolor="#C0C0C0"] ;
15625 -> 16417 ;
16606 [label="23_U <= 0.5\nentropy = 0.708\nsamples = 641\nvalue = [811, 194]\nclass = Animal", fillcolor="#eb9f68"] ;
15624 -> 16606 ;
16607 [label="(...)", fillcolor="#C0C0C0"] ;
16606 -> 16607 ;
16878 [label="(...)", fillcolor="#C0C0C0"] ;
16606 -> 16878 ;
}