digraph Tree {
node [shape=box, style="filled, rounded", color="black", fontname="helvetica"] ;
edge [fontname="helvetica"] ;
0 [label="8_C <= 0.5\nentropy = 1.0\nsamples = 38233\nvalue = [30194, 30151]\nclass = Animal", fillcolor="#ffffff"] ;
1 [label="22_G <= 0.5\nentropy = 0.998\nsamples = 30672\nvalue = [22970, 25390]\nclass = Plant", fillcolor="#ecf6fd"] ;
0 -> 1 [labeldistance=2.5, labelangle=45, headlabel="True"] ;
2 [label="19_G <= 0.5\nentropy = 0.986\nsamples = 26785\nvalue = [18194, 24048]\nclass = Plant", fillcolor="#cfe7f9"] ;
1 -> 2 ;
3 [label="8_U <= 0.5\nentropy = 0.977\nsamples = 20676\nvalue = [13395, 19271]\nclass = Plant", fillcolor="#c3e1f7"] ;
2 -> 3 ;
4 [label="(...)", fillcolor="#C0C0C0"] ;
3 -> 4 ;
5605 [label="(...)", fillcolor="#C0C0C0"] ;
3 -> 5605 ;
8818 [label="8_A <= 0.5\nentropy = 1.0\nsamples = 6109\nvalue = [4799, 4777]\nclass = Animal", fillcolor="#fffefe"] ;
2 -> 8818 ;
8819 [label="(...)", fillcolor="#C0C0C0"] ;
8818 -> 8819 ;
10926 [label="(...)", fillcolor="#C0C0C0"] ;
8818 -> 10926 ;
11933 [label="13_U <= 0.5\nentropy = 0.759\nsamples = 3887\nvalue = [4776, 1342]\nclass = Animal", fillcolor="#eca471"] ;
1 -> 11933 ;
11934 [label="21_U <= 0.5\nentropy = 0.784\nsamples = 2757\nvalue = [3335, 1015]\nclass = Animal", fillcolor="#eda775"] ;
11933 -> 11934 ;
11935 [label="(...)", fillcolor="#C0C0C0"] ;
11934 -> 11935 ;
12764 [label="(...)", fillcolor="#C0C0C0"] ;
11934 -> 12764 ;
13051 [label="1_G <= 0.5\nentropy = 0.691\nsamples = 1130\nvalue = [1441, 327]\nclass = Animal", fillcolor="#eb9e66"] ;
11933 -> 13051 ;
13052 [label="(...)", fillcolor="#C0C0C0"] ;
13051 -> 13052 ;
13409 [label="(...)", fillcolor="#C0C0C0"] ;
13051 -> 13409 ;
13478 [label="11_C <= 0.5\nentropy = 0.969\nsamples = 7561\nvalue = [7224, 4761]\nclass = Animal", fillcolor="#f6d4bb"] ;
0 -> 13478 [labeldistance=2.5, labelangle=-45, headlabel="False"] ;
13479 [label="10_A <= 0.5\nentropy = 0.935\nsamples = 5600\nvalue = [5771, 3129]\nclass = Animal", fillcolor="#f3c5a4"] ;
13478 -> 13479 ;
13480 [label="17_C <= 0.5\nentropy = 0.902\nsamples = 4304\nvalue = [4681, 2184]\nclass = Animal", fillcolor="#f1bc95"] ;
13479 -> 13480 ;
13481 [label="(...)", fillcolor="#C0C0C0"] ;
13480 -> 13481 ;
15060 [label="(...)", fillcolor="#C0C0C0"] ;
13480 -> 15060 ;
15579 [label="2_G <= 0.5\nentropy = 0.996\nsamples = 1296\nvalue = [1090, 945]\nclass = Animal", fillcolor="#fceee5"] ;
13479 -> 15579 ;
15580 [label="(...)", fillcolor="#C0C0C0"] ;
15579 -> 15580 ;
16111 [label="(...)", fillcolor="#C0C0C0"] ;
15579 -> 16111 ;
16302 [label="21_A <= 0.5\nentropy = 0.998\nsamples = 1961\nvalue = [1453, 1632]\nclass = Plant", fillcolor="#e9f4fc"] ;
13478 -> 16302 ;
16303 [label="14_A <= 0.5\nentropy = 0.977\nsamples = 1353\nvalue = [1237, 862]\nclass = Animal", fillcolor="#f7d9c3"] ;
16302 -> 16303 ;
16304 [label="(...)", fillcolor="#C0C0C0"] ;
16303 -> 16304 ;
16909 [label="(...)", fillcolor="#C0C0C0"] ;
16303 -> 16909 ;
17054 [label="22_G <= 0.5\nentropy = 0.758\nsamples = 608\nvalue = [216, 770]\nclass = Plant", fillcolor="#71b8ec"] ;
16302 -> 17054 ;
17055 [label="(...)", fillcolor="#C0C0C0"] ;
17054 -> 17055 ;
17208 [label="(...)", fillcolor="#C0C0C0"] ;
17054 -> 17208 ;
}