digraph Tree {
node [shape=box, style="filled, rounded", color="black", fontname="helvetica"] ;
edge [fontname="helvetica"] ;
0 [label="6_U <= 0.5\nentropy = 1.0\nsamples = 38175\nvalue = [30112, 30233]\nclass = Plant", fillcolor="#feffff"] ;
1 [label="1_U <= 0.5\nentropy = 0.997\nsamples = 29145\nvalue = [21613, 24407]\nclass = Plant", fillcolor="#e8f4fc"] ;
0 -> 1 [labeldistance=2.5, labelangle=45, headlabel="True"] ;
2 [label="10_A <= 0.5\nentropy = 0.99\nsamples = 13304\nvalue = [11673, 9253]\nclass = Animal", fillcolor="#fae5d6"] ;
1 -> 2 ;
3 [label="19_U <= 0.5\nentropy = 0.971\nsamples = 9597\nvalue = [9018, 6019]\nclass = Animal", fillcolor="#f6d5bd"] ;
2 -> 3 ;
4 [label="(...)", fillcolor="#C0C0C0"] ;
3 -> 4 ;
3985 [label="(...)", fillcolor="#C0C0C0"] ;
3 -> 3985 ;
5390 [label="23_C <= 0.5\nentropy = 0.993\nsamples = 3707\nvalue = [2655, 3234]\nclass = Plant", fillcolor="#dcedfa"] ;
2 -> 5390 ;
5391 [label="(...)", fillcolor="#C0C0C0"] ;
5390 -> 5391 ;
7006 [label="(...)", fillcolor="#C0C0C0"] ;
5390 -> 7006 ;
7081 [label="20_C <= 0.5\nentropy = 0.969\nsamples = 15841\nvalue = [9940, 15154]\nclass = Plant", fillcolor="#bbddf6"] ;
1 -> 7081 ;
7082 [label="8_G <= 0.5\nentropy = 0.996\nsamples = 10831\nvalue = [7951, 9226]\nclass = Plant", fillcolor="#e4f1fb"] ;
7081 -> 7082 ;
7083 [label="(...)", fillcolor="#C0C0C0"] ;
7082 -> 7083 ;
9982 [label="(...)", fillcolor="#C0C0C0"] ;
7082 -> 9982 ;
11203 [label="19_U <= 0.5\nentropy = 0.813\nsamples = 5010\nvalue = [1989, 5928]\nclass = Plant", fillcolor="#7bbeee"] ;
7081 -> 11203 ;
11204 [label="(...)", fillcolor="#C0C0C0"] ;
11203 -> 11204 ;
12127 [label="(...)", fillcolor="#C0C0C0"] ;
11203 -> 12127 ;
12492 [label="1_A <= 0.5\nentropy = 0.975\nsamples = 9030\nvalue = [8499, 5826]\nclass = Animal", fillcolor="#f7d7c1"] ;
0 -> 12492 [labeldistance=2.5, labelangle=-45, headlabel="False"] ;
12493 [label="23_A <= 0.5\nentropy = 0.984\nsamples = 7063\nvalue = [6427, 4772]\nclass = Animal", fillcolor="#f8dfcc"] ;
12492 -> 12493 ;
12494 [label="23_U <= 0.5\nentropy = 0.987\nsamples = 6757\nvalue = [6067, 4638]\nclass = Animal", fillcolor="#f9e1d0"] ;
12493 -> 12494 ;
12495 [label="(...)", fillcolor="#C0C0C0"] ;
12494 -> 12495 ;
15570 [label="(...)", fillcolor="#C0C0C0"] ;
12494 -> 15570 ;
15707 [label="5_U <= 0.5\nentropy = 0.843\nsamples = 306\nvalue = [360, 134]\nclass = Animal", fillcolor="#efb083"] ;
12493 -> 15707 ;
15708 [label="(...)", fillcolor="#C0C0C0"] ;
15707 -> 15708 ;
15797 [label="(...)", fillcolor="#C0C0C0"] ;
15707 -> 15797 ;
15840 [label="10_G <= 0.5\nentropy = 0.922\nsamples = 1967\nvalue = [2072, 1054]\nclass = Animal", fillcolor="#f2c19e"] ;
12492 -> 15840 ;
15841 [label="22_G <= 0.5\nentropy = 0.876\nsamples = 1468\nvalue = [1640, 689]\nclass = Animal", fillcolor="#f0b68c"] ;
15840 -> 15841 ;
15842 [label="(...)", fillcolor="#C0C0C0"] ;
15841 -> 15842 ;
16541 [label="(...)", fillcolor="#C0C0C0"] ;
15841 -> 16541 ;
16626 [label="13_G <= 0.5\nentropy = 0.995\nsamples = 499\nvalue = [432, 365]\nclass = Animal", fillcolor="#fbebe0"] ;
15840 -> 16626 ;
16627 [label="(...)", fillcolor="#C0C0C0"] ;
16626 -> 16627 ;
16824 [label="(...)", fillcolor="#C0C0C0"] ;
16626 -> 16824 ;
}