digraph Tree {
node [shape=box, style="filled, rounded", color="black", fontname="helvetica"] ;
edge [fontname="helvetica"] ;
0 [label="8_G <= 0.5\nentropy = 1.0\nsamples = 38238\nvalue = [30100, 30245]\nclass = Plant", fillcolor="#feffff"] ;
1 [label="5_G <= 0.5\nentropy = 0.993\nsamples = 26432\nvalue = [23026, 18794]\nclass = Animal", fillcolor="#fae8db"] ;
0 -> 1 [labeldistance=2.5, labelangle=45, headlabel="True"] ;
2 [label="18_C <= 0.5\nentropy = 0.997\nsamples = 19601\nvalue = [16425, 14575]\nclass = Animal", fillcolor="#fcf1e9"] ;
1 -> 2 ;
3 [label="23_U <= 0.5\nentropy = 0.986\nsamples = 14344\nvalue = [12931, 9760]\nclass = Animal", fillcolor="#f9e0ce"] ;
2 -> 3 ;
4 [label="(...)", fillcolor="#C0C0C0"] ;
3 -> 4 ;
6485 [label="(...)", fillcolor="#C0C0C0"] ;
3 -> 6485 ;
6768 [label="8_C <= 0.5\nentropy = 0.982\nsamples = 5257\nvalue = [3494, 4815]\nclass = Plant", fillcolor="#c9e4f8"] ;
2 -> 6768 ;
6769 [label="(...)", fillcolor="#C0C0C0"] ;
6768 -> 6769 ;
8184 [label="(...)", fillcolor="#C0C0C0"] ;
6768 -> 8184 ;
8883 [label="9_U <= 0.5\nentropy = 0.965\nsamples = 6831\nvalue = [6601, 4219]\nclass = Animal", fillcolor="#f6d2b8"] ;
1 -> 8883 ;
8884 [label="13_G <= 0.5\nentropy = 0.991\nsamples = 4430\nvalue = [3898, 3134]\nclass = Animal", fillcolor="#fae6d8"] ;
8883 -> 8884 ;
8885 [label="(...)", fillcolor="#C0C0C0"] ;
8884 -> 8885 ;
10756 [label="(...)", fillcolor="#C0C0C0"] ;
8884 -> 10756 ;
11395 [label="12_G <= 0.5\nentropy = 0.864\nsamples = 2401\nvalue = [2703, 1085]\nclass = Animal", fillcolor="#efb488"] ;
8883 -> 11395 ;
11396 [label="(...)", fillcolor="#C0C0C0"] ;
11395 -> 11396 ;
12123 [label="(...)", fillcolor="#C0C0C0"] ;
11395 -> 12123 ;
12408 [label="1_U <= 0.5\nentropy = 0.959\nsamples = 11806\nvalue = [7074, 11451]\nclass = Plant", fillcolor="#b3daf5"] ;
0 -> 12408 [labeldistance=2.5, labelangle=-45, headlabel="False"] ;
12409 [label="12_G <= 0.5\nentropy = 0.999\nsamples = 4915\nvalue = [3736, 4005]\nclass = Plant", fillcolor="#f2f8fd"] ;
12408 -> 12409 ;
12410 [label="2_G <= 0.5\nentropy = 0.988\nsamples = 3119\nvalue = [2785, 2149]\nclass = Animal", fillcolor="#f9e2d2"] ;
12409 -> 12410 ;
12411 [label="(...)", fillcolor="#C0C0C0"] ;
12410 -> 12411 ;
13730 [label="(...)", fillcolor="#C0C0C0"] ;
12410 -> 13730 ;
14255 [label="4_G <= 0.5\nentropy = 0.924\nsamples = 1796\nvalue = [951, 1856]\nclass = Plant", fillcolor="#9ecff2"] ;
12409 -> 14255 ;
14256 [label="(...)", fillcolor="#C0C0C0"] ;
14255 -> 14256 ;
14787 [label="(...)", fillcolor="#C0C0C0"] ;
14255 -> 14787 ;
15016 [label="21_U <= 0.5\nentropy = 0.893\nsamples = 6891\nvalue = [3338, 7446]\nclass = Plant", fillcolor="#92c9f1"] ;
12408 -> 15016 ;
15017 [label="4_G <= 0.5\nentropy = 0.83\nsamples = 5304\nvalue = [2174, 6119]\nclass = Plant", fillcolor="#7fc0ee"] ;
15016 -> 15017 ;
15018 [label="(...)", fillcolor="#C0C0C0"] ;
15017 -> 15018 ;
16121 [label="(...)", fillcolor="#C0C0C0"] ;
15017 -> 16121 ;
16594 [label="3_A <= 0.5\nentropy = 0.997\nsamples = 1587\nvalue = [1164, 1327]\nclass = Plant", fillcolor="#e7f3fc"] ;
15016 -> 16594 ;
16595 [label="(...)", fillcolor="#C0C0C0"] ;
16594 -> 16595 ;
16994 [label="(...)", fillcolor="#C0C0C0"] ;
16594 -> 16994 ;
}