digraph Tree {
node [shape=box, style="filled, rounded", color="black", fontname="helvetica"] ;
edge [fontname="helvetica"] ;
0 [label="19_C <= 0.5\nentropy = 1.0\nsamples = 38241\nvalue = [30215, 30130]\nclass = Animal", fillcolor="#fffffe"] ;
1 [label="10_A <= 0.5\nentropy = 0.985\nsamples = 25865\nvalue = [23322, 17423]\nclass = Animal", fillcolor="#f8dfcd"] ;
0 -> 1 [labeldistance=2.5, labelangle=45, headlabel="True"] ;
2 [label="17_A <= 0.5\nentropy = 0.969\nsamples = 18631\nvalue = [17711, 11666]\nclass = Animal", fillcolor="#f6d4bb"] ;
1 -> 2 ;
3 [label="9_A <= 0.5\nentropy = 0.956\nsamples = 14633\nvalue = [14369, 8725]\nclass = Animal", fillcolor="#f5ceb1"] ;
2 -> 3 ;
4 [label="(...)", fillcolor="#C0C0C0"] ;
3 -> 4 ;
5775 [label="(...)", fillcolor="#C0C0C0"] ;
3 -> 5775 ;
7524 [label="2_G <= 0.5\nentropy = 0.997\nsamples = 3998\nvalue = [3342, 2941]\nclass = Animal", fillcolor="#fcf0e7"] ;
2 -> 7524 ;
7525 [label="(...)", fillcolor="#C0C0C0"] ;
7524 -> 7525 ;
8998 [label="(...)", fillcolor="#C0C0C0"] ;
7524 -> 8998 ;
9615 [label="9_U <= 0.5\nentropy = 1.0\nsamples = 7234\nvalue = [5611, 5757]\nclass = Plant", fillcolor="#fafdfe"] ;
1 -> 9615 ;
9616 [label="7_C <= 0.5\nentropy = 0.987\nsamples = 5723\nvalue = [3892, 5100]\nclass = Plant", fillcolor="#d0e8f9"] ;
9615 -> 9616 ;
9617 [label="(...)", fillcolor="#C0C0C0"] ;
9616 -> 9617 ;
11698 [label="(...)", fillcolor="#C0C0C0"] ;
9616 -> 11698 ;
12203 [label="15_G <= 0.5\nentropy = 0.851\nsamples = 1511\nvalue = [1719, 657]\nclass = Animal", fillcolor="#efb185"] ;
9615 -> 12203 ;
12204 [label="(...)", fillcolor="#C0C0C0"] ;
12203 -> 12204 ;
12735 [label="(...)", fillcolor="#C0C0C0"] ;
12203 -> 12735 ;
12906 [label="15_U <= 0.5\nentropy = 0.936\nsamples = 12376\nvalue = [6893, 12707]\nclass = Plant", fillcolor="#a4d2f3"] ;
0 -> 12906 [labeldistance=2.5, labelangle=-45, headlabel="False"] ;
12907 [label="9_G <= 0.5\nentropy = 0.968\nsamples = 8432\nvalue = [5281, 8076]\nclass = Plant", fillcolor="#baddf6"] ;
12906 -> 12907 ;
12908 [label="4_U <= 0.5\nentropy = 0.995\nsamples = 5617\nvalue = [4040, 4809]\nclass = Plant", fillcolor="#dfeffb"] ;
12907 -> 12908 ;
12909 [label="(...)", fillcolor="#C0C0C0"] ;
12908 -> 12909 ;
14678 [label="(...)", fillcolor="#C0C0C0"] ;
12908 -> 14678 ;
15193 [label="10_C <= 0.5\nentropy = 0.849\nsamples = 2815\nvalue = [1241, 3267]\nclass = Plant", fillcolor="#84c2ef"] ;
12907 -> 15193 ;
15194 [label="(...)", fillcolor="#C0C0C0"] ;
15193 -> 15194 ;
15819 [label="(...)", fillcolor="#C0C0C0"] ;
15193 -> 15819 ;
16032 [label="16_G <= 0.5\nentropy = 0.824\nsamples = 3944\nvalue = [1612, 4631]\nclass = Plant", fillcolor="#7ebfee"] ;
12906 -> 16032 ;
16033 [label="8_G <= 0.5\nentropy = 0.944\nsamples = 2163\nvalue = [1227, 2171]\nclass = Plant", fillcolor="#a9d4f4"] ;
16032 -> 16033 ;
16034 [label="(...)", fillcolor="#C0C0C0"] ;
16033 -> 16034 ;
16585 [label="(...)", fillcolor="#C0C0C0"] ;
16033 -> 16585 ;
16768 [label="1_U <= 0.5\nentropy = 0.572\nsamples = 1781\nvalue = [385, 2460]\nclass = Plant", fillcolor="#58ace9"] ;
16032 -> 16768 ;
16769 [label="(...)", fillcolor="#C0C0C0"] ;
16768 -> 16769 ;
16950 [label="(...)", fillcolor="#C0C0C0"] ;
16768 -> 16950 ;
}