digraph Tree {
node [shape=box, style="filled, rounded", color="black", fontname="helvetica"] ;
edge [fontname="helvetica"] ;
0 [label="23_C <= 0.5\nentropy = 1.0\nsamples = 38113\nvalue = [30188, 30157]\nclass = Animal", fillcolor="#ffffff"] ;
1 [label="1_U <= 0.5\nentropy = 1.0\nsamples = 36721\nvalue = [28494, 29687]\nclass = Plant", fillcolor="#f7fbfe"] ;
0 -> 1 [labeldistance=2.5, labelangle=45, headlabel="True"] ;
2 [label="22_G <= 0.5\nentropy = 0.981\nsamples = 17243\nvalue = [15896, 11435]\nclass = Animal", fillcolor="#f8dcc7"] ;
1 -> 2 ;
3 [label="9_G <= 0.5\nentropy = 0.992\nsamples = 15059\nvalue = [13207, 10630]\nclass = Animal", fillcolor="#fae6d8"] ;
2 -> 3 ;
4 [label="(...)", fillcolor="#C0C0C0"] ;
3 -> 4 ;
6097 [label="(...)", fillcolor="#C0C0C0"] ;
3 -> 6097 ;
8184 [label="21_U <= 0.5\nentropy = 0.779\nsamples = 2184\nvalue = [2689, 805]\nclass = Animal", fillcolor="#eda774"] ;
2 -> 8184 ;
8185 [label="(...)", fillcolor="#C0C0C0"] ;
8184 -> 8185 ;
8864 [label="(...)", fillcolor="#C0C0C0"] ;
8184 -> 8864 ;
9157 [label="9_U <= 0.5\nentropy = 0.976\nsamples = 19478\nvalue = [12598, 18252]\nclass = Plant", fillcolor="#c2e1f7"] ;
1 -> 9157 ;
9158 [label="20_C <= 0.5\nentropy = 0.928\nsamples = 14343\nvalue = [7797, 14888]\nclass = Plant", fillcolor="#a1d0f3"] ;
9157 -> 9158 ;
9159 [label="(...)", fillcolor="#C0C0C0"] ;
9158 -> 9159 ;
12990 [label="(...)", fillcolor="#C0C0C0"] ;
9158 -> 12990 ;
14201 [label="5_A <= 0.5\nentropy = 0.978\nsamples = 5135\nvalue = [4801, 3364]\nclass = Animal", fillcolor="#f7d9c4"] ;
9157 -> 14201 ;
14202 [label="(...)", fillcolor="#C0C0C0"] ;
14201 -> 14202 ;
15699 [label="(...)", fillcolor="#C0C0C0"] ;
14201 -> 15699 ;
16260 [label="3_G <= 0.5\nentropy = 0.755\nsamples = 1392\nvalue = [1694, 470]\nclass = Animal", fillcolor="#eca470"] ;
0 -> 16260 [labeldistance=2.5, labelangle=-45, headlabel="False"] ;
16261 [label="9_U <= 0.5\nentropy = 0.68\nsamples = 1006\nvalue = [1289, 283]\nclass = Animal", fillcolor="#eb9d64"] ;
16260 -> 16261 ;
16262 [label="11_A <= 0.5\nentropy = 0.732\nsamples = 632\nvalue = [791, 204]\nclass = Animal", fillcolor="#eca16c"] ;
16261 -> 16262 ;
16263 [label="(...)", fillcolor="#C0C0C0"] ;
16262 -> 16263 ;
16494 [label="(...)", fillcolor="#C0C0C0"] ;
16262 -> 16494 ;
16555 [label="24_G <= 0.5\nentropy = 0.576\nsamples = 374\nvalue = [498, 79]\nclass = Animal", fillcolor="#e99558"] ;
16261 -> 16555 ;
16556 [label="(...)", fillcolor="#C0C0C0"] ;
16555 -> 16556 ;
16649 [label="(...)", fillcolor="#C0C0C0"] ;
16555 -> 16649 ;
16656 [label="25_G <= 0.5\nentropy = 0.9\nsamples = 386\nvalue = [405, 187]\nclass = Animal", fillcolor="#f1bb94"] ;
16260 -> 16656 ;
16657 [label="1_C <= 0.5\nentropy = 0.868\nsamples = 362\nvalue = [395, 161]\nclass = Animal", fillcolor="#f0b48a"] ;
16656 -> 16657 ;
16658 [label="(...)", fillcolor="#C0C0C0"] ;
16657 -> 16658 ;
16861 [label="(...)", fillcolor="#C0C0C0"] ;
16657 -> 16861 ;
16896 [label="26_C <= 0.5\nentropy = 0.852\nsamples = 24\nvalue = [10, 26]\nclass = Plant", fillcolor="#85c3ef"] ;
16656 -> 16896 ;
16897 [label="(...)", fillcolor="#C0C0C0"] ;
16896 -> 16897 ;
16912 [label="(...)", fillcolor="#C0C0C0"] ;
16896 -> 16912 ;
}