digraph Tree {
node [shape=box, style="filled, rounded", color="black", fontname="helvetica"] ;
edge [fontname="helvetica"] ;
0 [label="22_G <= 0.5\nentropy = 1.0\nsamples = 38167\nvalue = [30278, 30067]\nclass = Animal", fillcolor="#fffefe"] ;
1 [label="22_A <= 0.5\nentropy = 0.996\nsamples = 33298\nvalue = [24284, 28382]\nclass = Plant", fillcolor="#e2f1fb"] ;
0 -> 1 [labeldistance=2.5, labelangle=45, headlabel="True"] ;
2 [label="8_G <= 0.5\nentropy = 0.983\nsamples = 29013\nvalue = [19424, 26442]\nclass = Plant", fillcolor="#cae5f8"] ;
1 -> 2 ;
3 [label="18_C <= 0.5\nentropy = 0.999\nsamples = 19525\nvalue = [14740, 16118]\nclass = Plant", fillcolor="#eef7fd"] ;
2 -> 3 ;
4 [label="(...)", fillcolor="#C0C0C0"] ;
3 -> 4 ;
7181 [label="(...)", fillcolor="#C0C0C0"] ;
3 -> 7181 ;
9330 [label="19_C <= 0.5\nentropy = 0.896\nsamples = 9488\nvalue = [4684, 10324]\nclass = Plant", fillcolor="#93c9f1"] ;
2 -> 9330 ;
9331 [label="(...)", fillcolor="#C0C0C0"] ;
9330 -> 9331 ;
11896 [label="(...)", fillcolor="#C0C0C0"] ;
9330 -> 11896 ;
12671 [label="23_G <= 0.5\nentropy = 0.863\nsamples = 4285\nvalue = [4860, 1940]\nclass = Animal", fillcolor="#efb388"] ;
1 -> 12671 ;
12672 [label="10_C <= 0.5\nentropy = 0.883\nsamples = 3743\nvalue = [4155, 1793]\nclass = Animal", fillcolor="#f0b78e"] ;
12671 -> 12672 ;
12673 [label="(...)", fillcolor="#C0C0C0"] ;
12672 -> 12673 ;
14054 [label="(...)", fillcolor="#C0C0C0"] ;
12672 -> 14054 ;
14483 [label="6_U <= 0.5\nentropy = 0.663\nsamples = 542\nvalue = [705, 147]\nclass = Animal", fillcolor="#ea9b62"] ;
12671 -> 14483 ;
14484 [label="(...)", fillcolor="#C0C0C0"] ;
14483 -> 14484 ;
14615 [label="(...)", fillcolor="#C0C0C0"] ;
14483 -> 14615 ;
14658 [label="3_C <= 0.5\nentropy = 0.759\nsamples = 4869\nvalue = [5994, 1685]\nclass = Animal", fillcolor="#eca471"] ;
0 -> 14658 [labeldistance=2.5, labelangle=-45, headlabel="False"] ;
14659 [label="13_A <= 0.5\nentropy = 0.714\nsamples = 3775\nvalue = [4816, 1174]\nclass = Animal", fillcolor="#eba069"] ;
14658 -> 14659 ;
14660 [label="3_A <= 0.5\nentropy = 0.667\nsamples = 2870\nvalue = [3779, 796]\nclass = Animal", fillcolor="#ea9c63"] ;
14659 -> 14660 ;
14661 [label="(...)", fillcolor="#C0C0C0"] ;
14660 -> 14661 ;
15458 [label="(...)", fillcolor="#C0C0C0"] ;
14660 -> 15458 ;
15797 [label="5_A <= 0.5\nentropy = 0.837\nsamples = 905\nvalue = [1037, 378]\nclass = Animal", fillcolor="#eeaf81"] ;
14659 -> 15797 ;
15798 [label="(...)", fillcolor="#C0C0C0"] ;
15797 -> 15798 ;
16065 [label="(...)", fillcolor="#C0C0C0"] ;
15797 -> 16065 ;
16164 [label="8_A <= 0.5\nentropy = 0.884\nsamples = 1094\nvalue = [1178, 511]\nclass = Animal", fillcolor="#f0b88f"] ;
14658 -> 16164 ;
16165 [label="6_G <= 0.5\nentropy = 0.944\nsamples = 826\nvalue = [817, 463]\nclass = Animal", fillcolor="#f4c8a9"] ;
16164 -> 16165 ;
16166 [label="(...)", fillcolor="#C0C0C0"] ;
16165 -> 16166 ;
16419 [label="(...)", fillcolor="#C0C0C0"] ;
16165 -> 16419 ;
16530 [label="1_G <= 0.5\nentropy = 0.522\nsamples = 268\nvalue = [361, 48]\nclass = Animal", fillcolor="#e89253"] ;
16164 -> 16530 ;
16531 [label="(...)", fillcolor="#C0C0C0"] ;
16530 -> 16531 ;
16620 [label="(...)", fillcolor="#C0C0C0"] ;
16530 -> 16620 ;
}