digraph Tree {
node [shape=box, style="filled, rounded", color="black", fontname="helvetica"] ;
edge [fontname="helvetica"] ;
0 [label="19_C <= 0.5\nentropy = 1.0\nsamples = 38208\nvalue = [30021, 30324]\nclass = Plant", fillcolor="#fdfeff"] ;
1 [label="11_U <= 0.5\nentropy = 0.987\nsamples = 25781\nvalue = [23083, 17612]\nclass = Animal", fillcolor="#f9e1d0"] ;
0 -> 1 [labeldistance=2.5, labelangle=45, headlabel="True"] ;
2 [label="1_U <= 0.5\nentropy = 0.993\nsamples = 18778\nvalue = [16259, 13394]\nclass = Animal", fillcolor="#fae9dc"] ;
1 -> 2 ;
3 [label="14_A <= 0.5\nentropy = 0.959\nsamples = 9108\nvalue = [8881, 5479]\nclass = Animal", fillcolor="#f5cfb3"] ;
2 -> 3 ;
4 [label="(...)", fillcolor="#C0C0C0"] ;
3 -> 4 ;
3959 [label="(...)", fillcolor="#C0C0C0"] ;
3 -> 3959 ;
5234 [label="22_A <= 0.5\nentropy = 0.999\nsamples = 9670\nvalue = [7378, 7915]\nclass = Plant", fillcolor="#f2f8fd"] ;
2 -> 5234 ;
5235 [label="(...)", fillcolor="#C0C0C0"] ;
5234 -> 5235 ;
8640 [label="(...)", fillcolor="#C0C0C0"] ;
5234 -> 8640 ;
9051 [label="19_U <= 0.5\nentropy = 0.959\nsamples = 7003\nvalue = [6824, 4218]\nclass = Animal", fillcolor="#f5cfb3"] ;
1 -> 9051 ;
9052 [label="10_A <= 0.5\nentropy = 0.989\nsamples = 4337\nvalue = [3841, 2985]\nclass = Animal", fillcolor="#f9e3d3"] ;
9051 -> 9052 ;
9053 [label="(...)", fillcolor="#C0C0C0"] ;
9052 -> 9053 ;
10796 [label="(...)", fillcolor="#C0C0C0"] ;
9052 -> 10796 ;
11367 [label="22_G <= 0.5\nentropy = 0.872\nsamples = 2666\nvalue = [2983, 1233]\nclass = Animal", fillcolor="#f0b58b"] ;
9051 -> 11367 ;
11368 [label="(...)", fillcolor="#C0C0C0"] ;
11367 -> 11368 ;
12501 [label="(...)", fillcolor="#C0C0C0"] ;
11367 -> 12501 ;
12640 [label="8_G <= 0.5\nentropy = 0.937\nsamples = 12427\nvalue = [6938, 12712]\nclass = Plant", fillcolor="#a5d2f3"] ;
0 -> 12640 [labeldistance=2.5, labelangle=-45, headlabel="False"] ;
12641 [label="14_A <= 0.5\nentropy = 0.984\nsamples = 8251\nvalue = [5545, 7488]\nclass = Plant", fillcolor="#cce6f8"] ;
12640 -> 12641 ;
12642 [label="2_A <= 0.5\nentropy = 0.964\nsamples = 6784\nvalue = [4175, 6553]\nclass = Plant", fillcolor="#b7dbf6"] ;
12641 -> 12642 ;
12643 [label="(...)", fillcolor="#C0C0C0"] ;
12642 -> 12643 ;
14428 [label="(...)", fillcolor="#C0C0C0"] ;
12642 -> 14428 ;
15011 [label="18_C <= 0.5\nentropy = 0.974\nsamples = 1467\nvalue = [1370, 935]\nclass = Animal", fillcolor="#f7d7c0"] ;
12641 -> 15011 ;
15012 [label="(...)", fillcolor="#C0C0C0"] ;
15011 -> 15012 ;
15625 [label="(...)", fillcolor="#C0C0C0"] ;
15011 -> 15625 ;
15802 [label="1_A <= 0.5\nentropy = 0.742\nsamples = 4176\nvalue = [1393, 5224]\nclass = Plant", fillcolor="#6eb7ec"] ;
12640 -> 15802 ;
15803 [label="20_A <= 0.5\nentropy = 0.662\nsamples = 3778\nvalue = [1025, 4939]\nclass = Plant", fillcolor="#62b1ea"] ;
15802 -> 15803 ;
15804 [label="(...)", fillcolor="#C0C0C0"] ;
15803 -> 15804 ;
16379 [label="(...)", fillcolor="#C0C0C0"] ;
15803 -> 16379 ;
16568 [label="12_U <= 0.5\nentropy = 0.988\nsamples = 398\nvalue = [368, 285]\nclass = Animal", fillcolor="#f9e3d2"] ;
15802 -> 16568 ;
16569 [label="(...)", fillcolor="#C0C0C0"] ;
16568 -> 16569 ;
16724 [label="(...)", fillcolor="#C0C0C0"] ;
16568 -> 16724 ;
}