digraph Tree {
node [shape=box, style="filled, rounded", color="black", fontname="helvetica"] ;
edge [fontname="helvetica"] ;
0 [label="9_G <= 0.5\nentropy = 1.0\nsamples = 38141\nvalue = [30112, 30233]\nclass = Plant", fillcolor="#feffff"] ;
1 [label="4_A <= 0.5\nentropy = 0.996\nsamples = 27496\nvalue = [23253, 20109]\nclass = Animal", fillcolor="#fbeee4"] ;
0 -> 1 [labeldistance=2.5, labelangle=45, headlabel="True"] ;
2 [label="22_G <= 0.5\nentropy = 0.986\nsamples = 20116\nvalue = [18127, 13645]\nclass = Animal", fillcolor="#f9e0ce"] ;
1 -> 2 ;
3 [label="19_U <= 0.5\nentropy = 0.996\nsamples = 17423\nvalue = [14714, 12797]\nclass = Animal", fillcolor="#fcefe5"] ;
2 -> 3 ;
4 [label="(...)", fillcolor="#C0C0C0"] ;
3 -> 4 ;
6283 [label="(...)", fillcolor="#C0C0C0"] ;
3 -> 6283 ;
8408 [label="24_C <= 0.5\nentropy = 0.72\nsamples = 2693\nvalue = [3413, 848]\nclass = Animal", fillcolor="#eba06a"] ;
2 -> 8408 ;
8409 [label="(...)", fillcolor="#C0C0C0"] ;
8408 -> 8409 ;
9396 [label="(...)", fillcolor="#C0C0C0"] ;
8408 -> 9396 ;
9461 [label="2_A <= 0.5\nentropy = 0.99\nsamples = 7380\nvalue = [5126, 6464]\nclass = Plant", fillcolor="#d6ebfa"] ;
1 -> 9461 ;
9462 [label="8_G <= 0.5\nentropy = 0.959\nsamples = 5993\nvalue = [3600, 5838]\nclass = Plant", fillcolor="#b3d9f5"] ;
9461 -> 9462 ;
9463 [label="(...)", fillcolor="#C0C0C0"] ;
9462 -> 9463 ;
11102 [label="(...)", fillcolor="#C0C0C0"] ;
9462 -> 11102 ;
11689 [label="15_A <= 0.5\nentropy = 0.87\nsamples = 1387\nvalue = [1526, 626]\nclass = Animal", fillcolor="#f0b58a"] ;
9461 -> 11689 ;
11690 [label="(...)", fillcolor="#C0C0C0"] ;
11689 -> 11690 ;
12189 [label="(...)", fillcolor="#C0C0C0"] ;
11689 -> 12189 ;
12352 [label="12_G <= 0.5\nentropy = 0.973\nsamples = 10645\nvalue = [6859, 10124]\nclass = Plant", fillcolor="#bfdff7"] ;
0 -> 12352 [labeldistance=2.5, labelangle=-45, headlabel="False"] ;
12353 [label="18_C <= 0.5\nentropy = 0.987\nsamples = 7266\nvalue = [5055, 6589]\nclass = Plant", fillcolor="#d1e8f9"] ;
12352 -> 12353 ;
12354 [label="17_U <= 0.5\nentropy = 0.989\nsamples = 4559\nvalue = [4086, 3206]\nclass = Animal", fillcolor="#f9e4d4"] ;
12353 -> 12354 ;
12355 [label="(...)", fillcolor="#C0C0C0"] ;
12354 -> 12355 ;
14164 [label="(...)", fillcolor="#C0C0C0"] ;
12354 -> 14164 ;
14861 [label="13_A <= 0.5\nentropy = 0.765\nsamples = 2707\nvalue = [969, 3383]\nclass = Plant", fillcolor="#72b9ec"] ;
12353 -> 14861 ;
14862 [label="(...)", fillcolor="#C0C0C0"] ;
14861 -> 14862 ;
15387 [label="(...)", fillcolor="#C0C0C0"] ;
14861 -> 15387 ;
15546 [label="13_U <= 0.5\nentropy = 0.923\nsamples = 3379\nvalue = [1804, 3535]\nclass = Plant", fillcolor="#9ecff2"] ;
12352 -> 15546 ;
15547 [label="19_C <= 0.5\nentropy = 0.852\nsamples = 2867\nvalue = [1260, 3277]\nclass = Plant", fillcolor="#85c3ef"] ;
15546 -> 15547 ;
15548 [label="(...)", fillcolor="#C0C0C0"] ;
15547 -> 15548 ;
16207 [label="(...)", fillcolor="#C0C0C0"] ;
15547 -> 16207 ;
16446 [label="11_G <= 0.5\nentropy = 0.906\nsamples = 512\nvalue = [544, 258]\nclass = Animal", fillcolor="#f1bd97"] ;
15546 -> 16446 ;
16447 [label="(...)", fillcolor="#C0C0C0"] ;
16446 -> 16447 ;
16682 [label="(...)", fillcolor="#C0C0C0"] ;
16446 -> 16682 ;
}