digraph Tree {
node [shape=box, style="filled, rounded", color="black", fontname="helvetica"] ;
edge [fontname="helvetica"] ;
0 [label="22_G <= 0.5\nentropy = 1.0\nsamples = 38230\nvalue = [30155, 30190]\nclass = Plant", fillcolor="#ffffff"] ;
1 [label="18_C <= 0.5\nentropy = 0.995\nsamples = 33273\nvalue = [24045, 28459]\nclass = Plant", fillcolor="#e0f0fb"] ;
0 -> 1 [labeldistance=2.5, labelangle=45, headlabel="True"] ;
2 [label="2_A <= 0.5\nentropy = 1.0\nsamples = 23944\nvalue = [18750, 19066]\nclass = Plant", fillcolor="#fcfdff"] ;
1 -> 2 ;
3 [label="19_C <= 0.5\nentropy = 0.992\nsamples = 18647\nvalue = [13150, 16262]\nclass = Plant", fillcolor="#d9ecfa"] ;
2 -> 3 ;
4 [label="(...)", fillcolor="#C0C0C0"] ;
3 -> 4 ;
6753 [label="(...)", fillcolor="#C0C0C0"] ;
3 -> 6753 ;
8808 [label="7_G <= 0.5\nentropy = 0.919\nsamples = 5297\nvalue = [5600, 2804]\nclass = Animal", fillcolor="#f2c09c"] ;
2 -> 8808 ;
8809 [label="(...)", fillcolor="#C0C0C0"] ;
8808 -> 8809 ;
10846 [label="(...)", fillcolor="#C0C0C0"] ;
8808 -> 10846 ;
11535 [label="19_U <= 0.5\nentropy = 0.943\nsamples = 9329\nvalue = [5295, 9393]\nclass = Plant", fillcolor="#a9d4f4"] ;
1 -> 11535 ;
11536 [label="3_G <= 0.5\nentropy = 0.875\nsamples = 7144\nvalue = [3311, 7902]\nclass = Plant", fillcolor="#8cc6f0"] ;
11535 -> 11536 ;
11537 [label="(...)", fillcolor="#C0C0C0"] ;
11536 -> 11537 ;
13142 [label="(...)", fillcolor="#C0C0C0"] ;
11536 -> 13142 ;
13897 [label="1_A <= 0.5\nentropy = 0.985\nsamples = 2185\nvalue = [1984, 1491]\nclass = Animal", fillcolor="#f9e0ce"] ;
11535 -> 13897 ;
13898 [label="(...)", fillcolor="#C0C0C0"] ;
13897 -> 13898 ;
14675 [label="(...)", fillcolor="#C0C0C0"] ;
13897 -> 14675 ;
14942 [label="25_A <= 0.5\nentropy = 0.762\nsamples = 4957\nvalue = [6110, 1731]\nclass = Animal", fillcolor="#eca571"] ;
0 -> 14942 [labeldistance=2.5, labelangle=-45, headlabel="False"] ;
14943 [label="5_C <= 0.5\nentropy = 0.749\nsamples = 4865\nvalue = [6041, 1643]\nclass = Animal", fillcolor="#eca36f"] ;
14942 -> 14943 ;
14944 [label="8_G <= 0.5\nentropy = 0.701\nsamples = 3744\nvalue = [4767, 1118]\nclass = Animal", fillcolor="#eb9f67"] ;
14943 -> 14944 ;
14945 [label="(...)", fillcolor="#C0C0C0"] ;
14944 -> 14945 ;
15972 [label="(...)", fillcolor="#C0C0C0"] ;
14944 -> 15972 ;
16403 [label="19_C <= 0.5\nentropy = 0.871\nsamples = 1121\nvalue = [1274, 525]\nclass = Animal", fillcolor="#f0b58b"] ;
14943 -> 16403 ;
16404 [label="(...)", fillcolor="#C0C0C0"] ;
16403 -> 16404 ;
16673 [label="(...)", fillcolor="#C0C0C0"] ;
16403 -> 16673 ;
16812 [label="8_A <= 0.5\nentropy = 0.989\nsamples = 92\nvalue = [69, 88]\nclass = Plant", fillcolor="#d4eaf9"] ;
14942 -> 16812 ;
16813 [label="9_U <= 0.5\nentropy = 0.942\nsamples = 78\nvalue = [46, 82]\nclass = Plant", fillcolor="#a8d4f4"] ;
16812 -> 16813 ;
16814 [label="(...)", fillcolor="#C0C0C0"] ;
16813 -> 16814 ;
16849 [label="(...)", fillcolor="#C0C0C0"] ;
16813 -> 16849 ;
16856 [label="1_U <= 0.5\nentropy = 0.736\nsamples = 14\nvalue = [23, 6]\nclass = Animal", fillcolor="#eca26d"] ;
16812 -> 16856 ;
16857 [label="(...)", fillcolor="#C0C0C0"] ;
16856 -> 16857 ;
16860 [label="(...)", fillcolor="#C0C0C0"] ;
16856 -> 16860 ;
}