digraph Tree {
node [shape=box, style="filled, rounded", color="black", fontname="helvetica"] ;
edge [fontname="helvetica"] ;
0 [label="22_C <= 0.5\nentropy = 1.0\nsamples = 38246\nvalue = [30308, 30037]\nclass = Animal", fillcolor="#fffefd"] ;
1 [label="2_A <= 0.5\nentropy = 0.999\nsamples = 34533\nvalue = [26125, 28310]\nclass = Plant", fillcolor="#f0f7fd"] ;
0 -> 1 [labeldistance=2.5, labelangle=45, headlabel="True"] ;
2 [label="17_A <= 0.5\nentropy = 0.988\nsamples = 26242\nvalue = [18061, 23324]\nclass = Plant", fillcolor="#d2e9f9"] ;
1 -> 2 ;
3 [label="10_U <= 0.5\nentropy = 0.995\nsamples = 19878\nvalue = [14392, 17062]\nclass = Plant", fillcolor="#e0f0fb"] ;
2 -> 3 ;
4 [label="(...)", fillcolor="#C0C0C0"] ;
3 -> 4 ;
6535 [label="(...)", fillcolor="#C0C0C0"] ;
3 -> 6535 ;
9016 [label="15_G <= 0.5\nentropy = 0.95\nsamples = 6364\nvalue = [3669, 6262]\nclass = Plant", fillcolor="#add6f4"] ;
2 -> 9016 ;
9017 [label="(...)", fillcolor="#C0C0C0"] ;
9016 -> 9017 ;
10802 [label="(...)", fillcolor="#C0C0C0"] ;
9016 -> 10802 ;
11591 [label="13_C <= 0.5\nentropy = 0.959\nsamples = 8291\nvalue = [8064, 4986]\nclass = Animal", fillcolor="#f5cfb3"] ;
1 -> 11591 ;
11592 [label="7_A <= 0.5\nentropy = 0.972\nsamples = 6816\nvalue = [6433, 4315]\nclass = Animal", fillcolor="#f6d6be"] ;
11591 -> 11592 ;
11593 [label="(...)", fillcolor="#C0C0C0"] ;
11592 -> 11593 ;
13680 [label="(...)", fillcolor="#C0C0C0"] ;
11592 -> 13680 ;
14513 [label="6_A <= 0.5\nentropy = 0.871\nsamples = 1475\nvalue = [1631, 671]\nclass = Animal", fillcolor="#f0b58a"] ;
11591 -> 14513 ;
14514 [label="(...)", fillcolor="#C0C0C0"] ;
14513 -> 14514 ;
15041 [label="(...)", fillcolor="#C0C0C0"] ;
14513 -> 15041 ;
15226 [label="9_U <= 0.5\nentropy = 0.872\nsamples = 3713\nvalue = [4183, 1727]\nclass = Animal", fillcolor="#f0b58b"] ;
0 -> 15226 [labeldistance=2.5, labelangle=-45, headlabel="False"] ;
15227 [label="1_A <= 0.5\nentropy = 0.898\nsamples = 2614\nvalue = [2838, 1303]\nclass = Animal", fillcolor="#f1bb94"] ;
15226 -> 15227 ;
15228 [label="1_C <= 0.5\nentropy = 0.929\nsamples = 2023\nvalue = [2093, 1100]\nclass = Animal", fillcolor="#f3c3a1"] ;
15227 -> 15228 ;
15229 [label="(...)", fillcolor="#C0C0C0"] ;
15228 -> 15229 ;
16058 [label="(...)", fillcolor="#C0C0C0"] ;
15228 -> 16058 ;
16341 [label="25_A <= 0.5\nentropy = 0.749\nsamples = 591\nvalue = [745, 203]\nclass = Animal", fillcolor="#eca36f"] ;
15227 -> 16341 ;
16342 [label="(...)", fillcolor="#C0C0C0"] ;
16341 -> 16342 ;
16611 [label="(...)", fillcolor="#C0C0C0"] ;
16341 -> 16611 ;
16618 [label="19_U <= 0.5\nentropy = 0.795\nsamples = 1099\nvalue = [1345, 424]\nclass = Animal", fillcolor="#eda977"] ;
15226 -> 16618 ;
16619 [label="16_C <= 0.5\nentropy = 0.846\nsamples = 753\nvalue = [883, 332]\nclass = Animal", fillcolor="#efb083"] ;
16618 -> 16619 ;
16620 [label="(...)", fillcolor="#C0C0C0"] ;
16619 -> 16620 ;
16903 [label="(...)", fillcolor="#C0C0C0"] ;
16619 -> 16903 ;
17032 [label="18_A <= 0.5\nentropy = 0.649\nsamples = 346\nvalue = [462, 92]\nclass = Animal", fillcolor="#ea9a60"] ;
16618 -> 17032 ;
17033 [label="(...)", fillcolor="#C0C0C0"] ;
17032 -> 17033 ;
17128 [label="(...)", fillcolor="#C0C0C0"] ;
17032 -> 17128 ;
}