digraph Tree {
node [shape=box, style="filled, rounded", color="black", fontname="helvetica"] ;
edge [fontname="helvetica"] ;
0 [label="20_C <= 0.5\nentropy = 1.0\nsamples = 38208\nvalue = [30160, 30185]\nclass = Plant", fillcolor="#ffffff"] ;
1 [label="22_A <= 0.5\nentropy = 0.996\nsamples = 28238\nvalue = [24035, 20541]\nclass = Animal", fillcolor="#fbede2"] ;
0 -> 1 [labeldistance=2.5, labelangle=45, headlabel="True"] ;
2 [label="19_C <= 0.5\nentropy = 1.0\nsamples = 24828\nvalue = [19986, 19179]\nclass = Animal", fillcolor="#fefaf7"] ;
1 -> 2 ;
3 [label="22_G <= 0.5\nentropy = 0.975\nsamples = 16631\nvalue = [15542, 10663]\nclass = Animal", fillcolor="#f7d7c1"] ;
2 -> 3 ;
4 [label="(...)", fillcolor="#C0C0C0"] ;
3 -> 4 ;
7225 [label="(...)", fillcolor="#C0C0C0"] ;
3 -> 7225 ;
8264 [label="12_G <= 0.5\nentropy = 0.928\nsamples = 8197\nvalue = [4444, 8516]\nclass = Plant", fillcolor="#a0d0f3"] ;
2 -> 8264 ;
8265 [label="(...)", fillcolor="#C0C0C0"] ;
8264 -> 8265 ;
10438 [label="(...)", fillcolor="#C0C0C0"] ;
8264 -> 10438 ;
11243 [label="9_C <= 0.5\nentropy = 0.814\nsamples = 3410\nvalue = [4049, 1362]\nclass = Animal", fillcolor="#eeab7c"] ;
1 -> 11243 ;
11244 [label="20_U <= 0.5\nentropy = 0.774\nsamples = 2583\nvalue = [3188, 940]\nclass = Animal", fillcolor="#eda673"] ;
11243 -> 11244 ;
11245 [label="(...)", fillcolor="#C0C0C0"] ;
11244 -> 11245 ;
11992 [label="(...)", fillcolor="#C0C0C0"] ;
11244 -> 11992 ;
12395 [label="7_U <= 0.5\nentropy = 0.914\nsamples = 827\nvalue = [861, 422]\nclass = Animal", fillcolor="#f2bf9a"] ;
11243 -> 12395 ;
12396 [label="(...)", fillcolor="#C0C0C0"] ;
12395 -> 12396 ;
12611 [label="(...)", fillcolor="#C0C0C0"] ;
12395 -> 12611 ;
12724 [label="1_C <= 0.5\nentropy = 0.964\nsamples = 9970\nvalue = [6125, 9644]\nclass = Plant", fillcolor="#b7dbf6"] ;
0 -> 12724 [labeldistance=2.5, labelangle=-45, headlabel="False"] ;
12725 [label="22_U <= 0.5\nentropy = 0.94\nsamples = 8626\nvalue = [4887, 8809]\nclass = Plant", fillcolor="#a7d3f3"] ;
12724 -> 12725 ;
12726 [label="22_G <= 0.5\nentropy = 0.896\nsamples = 7780\nvalue = [3872, 8509]\nclass = Plant", fillcolor="#93caf1"] ;
12725 -> 12726 ;
12727 [label="(...)", fillcolor="#C0C0C0"] ;
12726 -> 12727 ;
15098 [label="(...)", fillcolor="#C0C0C0"] ;
12726 -> 15098 ;
15577 [label="2_C <= 0.5\nentropy = 0.775\nsamples = 846\nvalue = [1015, 300]\nclass = Animal", fillcolor="#eda674"] ;
12725 -> 15577 ;
15578 [label="(...)", fillcolor="#C0C0C0"] ;
15577 -> 15578 ;
15849 [label="(...)", fillcolor="#C0C0C0"] ;
15577 -> 15849 ;
15944 [label="22_G <= 0.5\nentropy = 0.973\nsamples = 1344\nvalue = [1238, 835]\nclass = Animal", fillcolor="#f7d6bf"] ;
12724 -> 15944 ;
15945 [label="9_G <= 0.5\nentropy = 0.989\nsamples = 1135\nvalue = [978, 762]\nclass = Animal", fillcolor="#f9e3d3"] ;
15944 -> 15945 ;
15946 [label="(...)", fillcolor="#C0C0C0"] ;
15945 -> 15946 ;
16457 [label="(...)", fillcolor="#C0C0C0"] ;
15945 -> 16457 ;
16614 [label="21_G <= 0.5\nentropy = 0.759\nsamples = 209\nvalue = [260, 73]\nclass = Animal", fillcolor="#eca471"] ;
15944 -> 16614 ;
16615 [label="(...)", fillcolor="#C0C0C0"] ;
16614 -> 16615 ;
16680 [label="(...)", fillcolor="#C0C0C0"] ;
16614 -> 16680 ;
}