digraph Tree {
node [shape=box, style="filled, rounded", color="black", fontname="helvetica"] ;
edge [fontname="helvetica"] ;
0 [label="9_G <= 0.5\nentropy = 1.0\nsamples = 38125\nvalue = [30348, 29997]\nclass = Animal", fillcolor="#fffefd"] ;
1 [label="8_G <= 0.5\nentropy = 0.995\nsamples = 27594\nvalue = [23593, 19967]\nclass = Animal", fillcolor="#fbece1"] ;
0 -> 1 [labeldistance=2.5, labelangle=45, headlabel="True"] ;
2 [label="21_U <= 0.5\nentropy = 0.971\nsamples = 18977\nvalue = [17989, 12034]\nclass = Animal", fillcolor="#f6d5bd"] ;
1 -> 2 ;
3 [label="14_G <= 0.5\nentropy = 0.985\nsamples = 14547\nvalue = [13151, 9871]\nclass = Animal", fillcolor="#f9e0ce"] ;
2 -> 3 ;
4 [label="(...)", fillcolor="#C0C0C0"] ;
3 -> 4 ;
5627 [label="(...)", fillcolor="#C0C0C0"] ;
3 -> 5627 ;
7414 [label="23_A <= 0.5\nentropy = 0.892\nsamples = 4430\nvalue = [4838, 2163]\nclass = Animal", fillcolor="#f1b992"] ;
2 -> 7414 ;
7415 [label="(...)", fillcolor="#C0C0C0"] ;
7414 -> 7415 ;
9330 [label="(...)", fillcolor="#C0C0C0"] ;
7414 -> 9330 ;
9437 [label="12_G <= 0.5\nentropy = 0.979\nsamples = 8617\nvalue = [5604, 7933]\nclass = Plant", fillcolor="#c5e2f7"] ;
1 -> 9437 ;
9438 [label="13_U <= 0.5\nentropy = 0.994\nsamples = 5580\nvalue = [3988, 4770]\nclass = Plant", fillcolor="#dfeffb"] ;
9437 -> 9438 ;
9439 [label="(...)", fillcolor="#C0C0C0"] ;
9438 -> 9439 ;
11188 [label="(...)", fillcolor="#C0C0C0"] ;
9438 -> 11188 ;
11865 [label="14_U <= 0.5\nentropy = 0.923\nsamples = 3037\nvalue = [1616, 3163]\nclass = Plant", fillcolor="#9ecff2"] ;
9437 -> 11865 ;
11866 [label="(...)", fillcolor="#C0C0C0"] ;
11865 -> 11866 ;
12563 [label="(...)", fillcolor="#C0C0C0"] ;
11865 -> 12563 ;
12792 [label="8_U <= 0.5\nentropy = 0.972\nsamples = 10531\nvalue = [6755, 10030]\nclass = Plant", fillcolor="#bedff7"] ;
0 -> 12792 [labeldistance=2.5, labelangle=-45, headlabel="False"] ;
12793 [label="18_C <= 0.5\nentropy = 0.942\nsamples = 7390\nvalue = [4232, 7555]\nclass = Plant", fillcolor="#a8d4f4"] ;
12792 -> 12793 ;
12794 [label="5_A <= 0.5\nentropy = 0.996\nsamples = 4039\nvalue = [3439, 2955]\nclass = Animal", fillcolor="#fbede3"] ;
12793 -> 12794 ;
12795 [label="(...)", fillcolor="#C0C0C0"] ;
12794 -> 12795 ;
14526 [label="(...)", fillcolor="#C0C0C0"] ;
12794 -> 14526 ;
15071 [label="4_C <= 0.5\nentropy = 0.602\nsamples = 3351\nvalue = [793, 4600]\nclass = Plant", fillcolor="#5baee9"] ;
12793 -> 15071 ;
15072 [label="(...)", fillcolor="#C0C0C0"] ;
15071 -> 15072 ;
15551 [label="(...)", fillcolor="#C0C0C0"] ;
15071 -> 15551 ;
15708 [label="22_U <= 0.5\nentropy = 1.0\nsamples = 3141\nvalue = [2523, 2475]\nclass = Animal", fillcolor="#fffdfb"] ;
12792 -> 15708 ;
15709 [label="22_G <= 0.5\nentropy = 0.993\nsamples = 2749\nvalue = [1978, 2395]\nclass = Plant", fillcolor="#ddeefa"] ;
15708 -> 15709 ;
15710 [label="(...)", fillcolor="#C0C0C0"] ;
15709 -> 15710 ;
16851 [label="(...)", fillcolor="#C0C0C0"] ;
15709 -> 16851 ;
16992 [label="16_G <= 0.5\nentropy = 0.552\nsamples = 392\nvalue = [545, 80]\nclass = Animal", fillcolor="#e99356"] ;
15708 -> 16992 ;
16993 [label="(...)", fillcolor="#C0C0C0"] ;
16992 -> 16993 ;
17098 [label="(...)", fillcolor="#C0C0C0"] ;
16992 -> 17098 ;
}