digraph Tree {
node [shape=box, style="filled, rounded", color="black", fontname="helvetica"] ;
edge [fontname="helvetica"] ;
0 [label="1_U <= 0.5\nentropy = 1.0\nsamples = 38069\nvalue = [30130, 30215]\nclass = Plant", fillcolor="#feffff"] ;
1 [label="10_A <= 0.5\nentropy = 0.981\nsamples = 17904\nvalue = [16432, 11819]\nclass = Animal", fillcolor="#f8dcc7"] ;
0 -> 1 [labeldistance=2.5, labelangle=45, headlabel="True"] ;
2 [label="2_A <= 0.5\nentropy = 0.96\nsamples = 13279\nvalue = [12877, 7996]\nclass = Animal", fillcolor="#f5cfb4"] ;
1 -> 2 ;
3 [label="23_U <= 0.5\nentropy = 0.979\nsamples = 9594\nvalue = [8817, 6230]\nclass = Animal", fillcolor="#f7dac5"] ;
2 -> 3 ;
4 [label="(...)", fillcolor="#C0C0C0"] ;
3 -> 4 ;
5117 [label="(...)", fillcolor="#C0C0C0"] ;
3 -> 5117 ;
5368 [label="10_G <= 0.5\nentropy = 0.885\nsamples = 3685\nvalue = [4060, 1766]\nclass = Animal", fillcolor="#f0b88f"] ;
2 -> 5368 ;
5369 [label="(...)", fillcolor="#C0C0C0"] ;
5368 -> 5369 ;
6630 [label="(...)", fillcolor="#C0C0C0"] ;
5368 -> 6630 ;
7371 [label="9_U <= 0.5\nentropy = 0.999\nsamples = 4625\nvalue = [3555, 3823]\nclass = Plant", fillcolor="#f1f8fd"] ;
1 -> 7371 ;
7372 [label="7_A <= 0.5\nentropy = 0.984\nsamples = 3760\nvalue = [2560, 3446]\nclass = Plant", fillcolor="#cce6f8"] ;
7371 -> 7372 ;
7373 [label="(...)", fillcolor="#C0C0C0"] ;
7372 -> 7373 ;
8682 [label="(...)", fillcolor="#C0C0C0"] ;
7372 -> 8682 ;
9171 [label="19_U <= 0.5\nentropy = 0.848\nsamples = 865\nvalue = [995, 377]\nclass = Animal", fillcolor="#efb184"] ;
7371 -> 9171 ;
9172 [label="(...)", fillcolor="#C0C0C0"] ;
9171 -> 9172 ;
9489 [label="(...)", fillcolor="#C0C0C0"] ;
9171 -> 9489 ;
9620 [label="23_U <= 0.5\nentropy = 0.984\nsamples = 20165\nvalue = [13698, 18396]\nclass = Plant", fillcolor="#cce6f8"] ;
0 -> 9620 [labeldistance=2.5, labelangle=-45, headlabel="False"] ;
9621 [label="20_C <= 0.5\nentropy = 0.974\nsamples = 19221\nvalue = [12398, 18201]\nclass = Plant", fillcolor="#c0e0f7"] ;
9620 -> 9621 ;
9622 [label="8_C <= 0.5\nentropy = 0.998\nsamples = 13412\nvalue = [10034, 11287]\nclass = Plant", fillcolor="#e9f4fc"] ;
9621 -> 9622 ;
9623 [label="(...)", fillcolor="#C0C0C0"] ;
9622 -> 9623 ;
13886 [label="(...)", fillcolor="#C0C0C0"] ;
9622 -> 13886 ;
14977 [label="4_U <= 0.5\nentropy = 0.819\nsamples = 5809\nvalue = [2364, 6914]\nclass = Plant", fillcolor="#7dbfee"] ;
9621 -> 14977 ;
14978 [label="(...)", fillcolor="#C0C0C0"] ;
14977 -> 14978 ;
16295 [label="(...)", fillcolor="#C0C0C0"] ;
14977 -> 16295 ;
16664 [label="24_A <= 0.5\nentropy = 0.559\nsamples = 944\nvalue = [1300, 195]\nclass = Animal", fillcolor="#e99457"] ;
9620 -> 16664 ;
16665 [label="16_G <= 0.5\nentropy = 0.514\nsamples = 895\nvalue = [1258, 163]\nclass = Animal", fillcolor="#e89153"] ;
16664 -> 16665 ;
16666 [label="(...)", fillcolor="#C0C0C0"] ;
16665 -> 16666 ;
16855 [label="(...)", fillcolor="#C0C0C0"] ;
16665 -> 16855 ;
16932 [label="16_U <= 0.5\nentropy = 0.987\nsamples = 49\nvalue = [42, 32]\nclass = Animal", fillcolor="#f9e1d0"] ;
16664 -> 16932 ;
16933 [label="(...)", fillcolor="#C0C0C0"] ;
16932 -> 16933 ;
16956 [label="(...)", fillcolor="#C0C0C0"] ;
16932 -> 16956 ;
}