digraph Tree {
node [shape=box, style="filled, rounded", color="black", fontname="helvetica"] ;
edge [fontname="helvetica"] ;
0 [label="8_G <= 0.5\nentropy = 1.0\nsamples = 38211\nvalue = [30115, 30230]\nclass = Plant", fillcolor="#feffff"] ;
1 [label="9_G <= 0.5\nentropy = 0.993\nsamples = 26415\nvalue = [22958, 18738]\nclass = Animal", fillcolor="#fae8db"] ;
0 -> 1 [labeldistance=2.5, labelangle=45, headlabel="True"] ;
2 [label="2_U <= 0.5\nentropy = 0.974\nsamples = 18942\nvalue = [17841, 12176]\nclass = Animal", fillcolor="#f7d7c0"] ;
1 -> 2 ;
3 [label="12_C <= 0.5\nentropy = 0.945\nsamples = 14112\nvalue = [14207, 8095]\nclass = Animal", fillcolor="#f4c9aa"] ;
2 -> 3 ;
4 [label="(...)", fillcolor="#C0C0C0"] ;
3 -> 4 ;
5295 [label="(...)", fillcolor="#C0C0C0"] ;
3 -> 5295 ;
6762 [label="20_C <= 0.5\nentropy = 0.998\nsamples = 4830\nvalue = [3634, 4081]\nclass = Plant", fillcolor="#e9f4fc"] ;
2 -> 6762 ;
6763 [label="(...)", fillcolor="#C0C0C0"] ;
6762 -> 6763 ;
8676 [label="(...)", fillcolor="#C0C0C0"] ;
6762 -> 8676 ;
9243 [label="19_C <= 0.5\nentropy = 0.989\nsamples = 7473\nvalue = [5117, 6562]\nclass = Plant", fillcolor="#d3e9f9"] ;
1 -> 9243 ;
9244 [label="6_G <= 0.5\nentropy = 0.995\nsamples = 4655\nvalue = [3924, 3316]\nclass = Animal", fillcolor="#fbebe0"] ;
9243 -> 9244 ;
9245 [label="(...)", fillcolor="#C0C0C0"] ;
9244 -> 9245 ;
10926 [label="(...)", fillcolor="#C0C0C0"] ;
9244 -> 10926 ;
11645 [label="6_C <= 0.5\nentropy = 0.84\nsamples = 2818\nvalue = [1193, 3246]\nclass = Plant", fillcolor="#82c1ef"] ;
9243 -> 11645 ;
11646 [label="(...)", fillcolor="#C0C0C0"] ;
11645 -> 11646 ;
12273 [label="(...)", fillcolor="#C0C0C0"] ;
11645 -> 12273 ;
12486 [label="22_G <= 0.5\nentropy = 0.961\nsamples = 11796\nvalue = [7157, 11492]\nclass = Plant", fillcolor="#b4daf5"] ;
0 -> 12486 [labeldistance=2.5, labelangle=-45, headlabel="False"] ;
12487 [label="1_U <= 0.5\nentropy = 0.934\nsamples = 10589\nvalue = [5849, 10870]\nclass = Plant", fillcolor="#a4d2f3"] ;
12486 -> 12487 ;
12488 [label="11_C <= 0.5\nentropy = 0.995\nsamples = 4364\nvalue = [3174, 3772]\nclass = Plant", fillcolor="#e0effb"] ;
12487 -> 12488 ;
12489 [label="(...)", fillcolor="#C0C0C0"] ;
12488 -> 12489 ;
14330 [label="(...)", fillcolor="#C0C0C0"] ;
12488 -> 14330 ;
14761 [label="16_G <= 0.5\nentropy = 0.847\nsamples = 6225\nvalue = [2675, 7098]\nclass = Plant", fillcolor="#84c2ef"] ;
12487 -> 14761 ;
14762 [label="(...)", fillcolor="#C0C0C0"] ;
14761 -> 14762 ;
16033 [label="(...)", fillcolor="#C0C0C0"] ;
14761 -> 16033 ;
16468 [label="13_A <= 0.5\nentropy = 0.907\nsamples = 1207\nvalue = [1308, 622]\nclass = Animal", fillcolor="#f1bd97"] ;
12486 -> 16468 ;
16469 [label="5_A <= 0.5\nentropy = 0.84\nsamples = 891\nvalue = [1033, 380]\nclass = Animal", fillcolor="#efaf82"] ;
16468 -> 16469 ;
16470 [label="(...)", fillcolor="#C0C0C0"] ;
16469 -> 16470 ;
16779 [label="(...)", fillcolor="#C0C0C0"] ;
16469 -> 16779 ;
16890 [label="16_A <= 0.5\nentropy = 0.997\nsamples = 316\nvalue = [275, 242]\nclass = Animal", fillcolor="#fcf0e7"] ;
16468 -> 16890 ;
16891 [label="(...)", fillcolor="#C0C0C0"] ;
16890 -> 16891 ;
17026 [label="(...)", fillcolor="#C0C0C0"] ;
16890 -> 17026 ;
}