digraph Tree {
node [shape=box, style="filled, rounded", color="black", fontname="helvetica"] ;
edge [fontname="helvetica"] ;
0 [label="22_U <= 0.5\nentropy = 1.0\nsamples = 38161\nvalue = [30431, 29914]\nclass = Animal", fillcolor="#fffdfc"] ;
1 [label="1_U <= 0.5\nentropy = 0.994\nsamples = 33028\nvalue = [23778, 28469]\nclass = Plant", fillcolor="#deeffb"] ;
0 -> 1 [labeldistance=2.5, labelangle=45, headlabel="True"] ;
2 [label="10_A <= 0.5\nentropy = 0.994\nsamples = 15345\nvalue = [13344, 11071]\nclass = Animal", fillcolor="#fbeadd"] ;
1 -> 2 ;
3 [label="22_G <= 0.5\nentropy = 0.977\nsamples = 11329\nvalue = [10649, 7458]\nclass = Animal", fillcolor="#f7d9c4"] ;
2 -> 3 ;
4 [label="(...)", fillcolor="#C0C0C0"] ;
3 -> 4 ;
5611 [label="(...)", fillcolor="#C0C0C0"] ;
3 -> 5611 ;
6518 [label="12_G <= 0.5\nentropy = 0.985\nsamples = 4016\nvalue = [2695, 3613]\nclass = Plant", fillcolor="#cde6f8"] ;
2 -> 6518 ;
6519 [label="(...)", fillcolor="#C0C0C0"] ;
6518 -> 6519 ;
7930 [label="(...)", fillcolor="#C0C0C0"] ;
6518 -> 7930 ;
8497 [label="2_U <= 0.5\nentropy = 0.954\nsamples = 17683\nvalue = [10434, 17398]\nclass = Plant", fillcolor="#b0d8f5"] ;
1 -> 8497 ;
8498 [label="22_A <= 0.5\nentropy = 0.977\nsamples = 13061\nvalue = [8451, 12110]\nclass = Plant", fillcolor="#c3e1f7"] ;
8497 -> 8498 ;
8499 [label="(...)", fillcolor="#C0C0C0"] ;
8498 -> 8499 ;
12466 [label="(...)", fillcolor="#C0C0C0"] ;
8498 -> 12466 ;
13065 [label="12_C <= 0.5\nentropy = 0.845\nsamples = 4622\nvalue = [1983, 5288]\nclass = Plant", fillcolor="#83c2ef"] ;
8497 -> 13065 ;
13066 [label="(...)", fillcolor="#C0C0C0"] ;
13065 -> 13066 ;
14399 [label="(...)", fillcolor="#C0C0C0"] ;
13065 -> 14399 ;
14702 [label="1_C <= 0.5\nentropy = 0.677\nsamples = 5133\nvalue = [6653, 1445]\nclass = Animal", fillcolor="#eb9c64"] ;
0 -> 14702 [labeldistance=2.5, labelangle=-45, headlabel="False"] ;
14703 [label="20_U <= 0.5\nentropy = 0.653\nsamples = 4322\nvalue = [5686, 1146]\nclass = Animal", fillcolor="#ea9a61"] ;
14702 -> 14703 ;
14704 [label="23_A <= 0.5\nentropy = 0.718\nsamples = 2878\nvalue = [3634, 898]\nclass = Animal", fillcolor="#eba06a"] ;
14703 -> 14704 ;
14705 [label="(...)", fillcolor="#C0C0C0"] ;
14704 -> 14705 ;
15838 [label="(...)", fillcolor="#C0C0C0"] ;
14704 -> 15838 ;
15923 [label="11_A <= 0.5\nentropy = 0.493\nsamples = 1444\nvalue = [2052, 248]\nclass = Animal", fillcolor="#e89051"] ;
14703 -> 15923 ;
15924 [label="(...)", fillcolor="#C0C0C0"] ;
15923 -> 15924 ;
16237 [label="(...)", fillcolor="#C0C0C0"] ;
15923 -> 16237 ;
16322 [label="2_A <= 0.5\nentropy = 0.789\nsamples = 811\nvalue = [967, 299]\nclass = Animal", fillcolor="#eda876"] ;
14702 -> 16322 ;
16323 [label="24_G <= 0.5\nentropy = 0.907\nsamples = 510\nvalue = [533, 254]\nclass = Animal", fillcolor="#f1bd97"] ;
16322 -> 16323 ;
16324 [label="(...)", fillcolor="#C0C0C0"] ;
16323 -> 16324 ;
16535 [label="(...)", fillcolor="#C0C0C0"] ;
16323 -> 16535 ;
16544 [label="14_C <= 0.5\nentropy = 0.45\nsamples = 301\nvalue = [434, 45]\nclass = Animal", fillcolor="#e88e4e"] ;
16322 -> 16544 ;
16545 [label="(...)", fillcolor="#C0C0C0"] ;
16544 -> 16545 ;
16640 [label="(...)", fillcolor="#C0C0C0"] ;
16544 -> 16640 ;
}