digraph Tree {
node [shape=box, style="filled, rounded", color="black", fontname="helvetica"] ;
edge [fontname="helvetica"] ;
0 [label="23_A <= 0.5\nentropy = 1.0\nsamples = 38079\nvalue = [30264, 30081]\nclass = Animal", fillcolor="#fffefe"] ;
1 [label="23_G <= 0.5\nentropy = 1.0\nsamples = 36567\nvalue = [28456, 29462]\nclass = Plant", fillcolor="#f8fcfe"] ;
0 -> 1 [labeldistance=2.5, labelangle=45, headlabel="True"] ;
2 [label="23_U <= 0.5\nentropy = 0.999\nsamples = 34645\nvalue = [26183, 28681]\nclass = Plant", fillcolor="#eef6fd"] ;
1 -> 2 ;
3 [label="22_U <= 0.5\nentropy = 0.994\nsamples = 32665\nvalue = [23562, 28153]\nclass = Plant", fillcolor="#dfeffb"] ;
2 -> 3 ;
4 [label="(...)", fillcolor="#C0C0C0"] ;
3 -> 4 ;
12929 [label="(...)", fillcolor="#C0C0C0"] ;
3 -> 12929 ;
14484 [label="24_G <= 0.5\nentropy = 0.652\nsamples = 1980\nvalue = [2621, 528]\nclass = Animal", fillcolor="#ea9a61"] ;
2 -> 14484 ;
14485 [label="(...)", fillcolor="#C0C0C0"] ;
14484 -> 14485 ;
15078 [label="(...)", fillcolor="#C0C0C0"] ;
14484 -> 15078 ;
15201 [label="24_U <= 0.5\nentropy = 0.82\nsamples = 1922\nvalue = [2273, 781]\nclass = Animal", fillcolor="#eeac7d"] ;
1 -> 15201 ;
15202 [label="24_C <= 0.5\nentropy = 0.776\nsamples = 1638\nvalue = [1991, 591]\nclass = Animal", fillcolor="#eda674"] ;
15201 -> 15202 ;
15203 [label="(...)", fillcolor="#C0C0C0"] ;
15202 -> 15203 ;
15710 [label="(...)", fillcolor="#C0C0C0"] ;
15202 -> 15710 ;
15829 [label="25_A <= 0.5\nentropy = 0.972\nsamples = 284\nvalue = [282, 190]\nclass = Animal", fillcolor="#f7d6be"] ;
15201 -> 15829 ;
15830 [label="(...)", fillcolor="#C0C0C0"] ;
15829 -> 15830 ;
15969 [label="(...)", fillcolor="#C0C0C0"] ;
15829 -> 15969 ;
15974 [label="11_A <= 0.5\nentropy = 0.819\nsamples = 1512\nvalue = [1808, 619]\nclass = Animal", fillcolor="#eeac7d"] ;
0 -> 15974 [labeldistance=2.5, labelangle=-45, headlabel="False"] ;
15975 [label="21_U <= 0.5\nentropy = 0.768\nsamples = 1189\nvalue = [1462, 423]\nclass = Animal", fillcolor="#eda572"] ;
15974 -> 15975 ;
15976 [label="16_U <= 0.5\nentropy = 0.848\nsamples = 751\nvalue = [869, 329]\nclass = Animal", fillcolor="#efb184"] ;
15975 -> 15976 ;
15977 [label="(...)", fillcolor="#C0C0C0"] ;
15976 -> 15977 ;
16274 [label="(...)", fillcolor="#C0C0C0"] ;
15976 -> 16274 ;
16365 [label="8_G <= 0.5\nentropy = 0.576\nsamples = 438\nvalue = [593, 94]\nclass = Animal", fillcolor="#e99558"] ;
15975 -> 16365 ;
16366 [label="(...)", fillcolor="#C0C0C0"] ;
16365 -> 16366 ;
16453 [label="(...)", fillcolor="#C0C0C0"] ;
16365 -> 16453 ;
16500 [label="24_A <= 0.5\nentropy = 0.944\nsamples = 323\nvalue = [346, 196]\nclass = Animal", fillcolor="#f4c8a9"] ;
15974 -> 16500 ;
16501 [label="7_U <= 0.5\nentropy = 0.916\nsamples = 295\nvalue = [328, 162]\nclass = Animal", fillcolor="#f2bf9b"] ;
16500 -> 16501 ;
16502 [label="(...)", fillcolor="#C0C0C0"] ;
16501 -> 16502 ;
16631 [label="(...)", fillcolor="#C0C0C0"] ;
16501 -> 16631 ;
16678 [label="2_C <= 0.5\nentropy = 0.931\nsamples = 28\nvalue = [18, 34]\nclass = Plant", fillcolor="#a2d1f3"] ;
16500 -> 16678 ;
16679 [label="(...)", fillcolor="#C0C0C0"] ;
16678 -> 16679 ;
16696 [label="(...)", fillcolor="#C0C0C0"] ;
16678 -> 16696 ;
}