digraph Tree {
node [shape=box, style="filled, rounded", color="black", fontname="helvetica"] ;
edge [fontname="helvetica"] ;
0 [label="19_U <= 0.5\nentropy = 1.0\nsamples = 38116\nvalue = [30213, 30132]\nclass = Animal", fillcolor="#fffffe"] ;
1 [label="20_C <= 0.5\nentropy = 0.995\nsamples = 29154\nvalue = [21119, 25047]\nclass = Plant", fillcolor="#e0f0fb"] ;
0 -> 1 [labeldistance=2.5, labelangle=45, headlabel="True"] ;
2 [label="9_G <= 0.5\nentropy = 1.0\nsamples = 21482\nvalue = [16972, 17061]\nclass = Plant", fillcolor="#fefeff"] ;
1 -> 2 ;
3 [label="22_G <= 0.5\nentropy = 0.998\nsamples = 15705\nvalue = [13107, 11704]\nclass = Animal", fillcolor="#fcf2ea"] ;
2 -> 3 ;
4 [label="(...)", fillcolor="#C0C0C0"] ;
3 -> 4 ;
6337 [label="(...)", fillcolor="#C0C0C0"] ;
3 -> 6337 ;
7140 [label="18_U <= 0.5\nentropy = 0.981\nsamples = 5777\nvalue = [3865, 5357]\nclass = Plant", fillcolor="#c8e4f8"] ;
2 -> 7140 ;
7141 [label="(...)", fillcolor="#C0C0C0"] ;
7140 -> 7141 ;
9028 [label="(...)", fillcolor="#C0C0C0"] ;
7140 -> 9028 ;
9687 [label="1_U <= 0.5\nentropy = 0.927\nsamples = 7672\nvalue = [4147, 7986]\nclass = Plant", fillcolor="#a0d0f3"] ;
1 -> 9687 ;
9688 [label="21_C <= 0.5\nentropy = 1.0\nsamples = 2919\nvalue = [2311, 2274]\nclass = Animal", fillcolor="#fffdfc"] ;
9687 -> 9688 ;
9689 [label="(...)", fillcolor="#C0C0C0"] ;
9688 -> 9689 ;
11000 [label="(...)", fillcolor="#C0C0C0"] ;
9688 -> 11000 ;
11331 [label="17_A <= 0.5\nentropy = 0.8\nsamples = 4753\nvalue = [1836, 5712]\nclass = Plant", fillcolor="#79bced"] ;
9687 -> 11331 ;
11332 [label="(...)", fillcolor="#C0C0C0"] ;
11331 -> 11332 ;
12377 [label="(...)", fillcolor="#C0C0C0"] ;
11331 -> 12377 ;
12668 [label="23_G <= 0.5\nentropy = 0.942\nsamples = 8962\nvalue = [9094, 5085]\nclass = Animal", fillcolor="#f4c7a8"] ;
0 -> 12668 [labeldistance=2.5, labelangle=-45, headlabel="False"] ;
12669 [label="23_U <= 0.5\nentropy = 0.95\nsamples = 8497\nvalue = [8485, 4972]\nclass = Animal", fillcolor="#f4cbad"] ;
12668 -> 12669 ;
12670 [label="22_G <= 0.5\nentropy = 0.964\nsamples = 7866\nvalue = [7615, 4830]\nclass = Animal", fillcolor="#f5d1b7"] ;
12669 -> 12670 ;
12671 [label="(...)", fillcolor="#C0C0C0"] ;
12670 -> 12671 ;
16210 [label="(...)", fillcolor="#C0C0C0"] ;
12670 -> 16210 ;
16607 [label="9_U <= 0.5\nentropy = 0.585\nsamples = 631\nvalue = [870, 142]\nclass = Animal", fillcolor="#e99659"] ;
12669 -> 16607 ;
16608 [label="(...)", fillcolor="#C0C0C0"] ;
16607 -> 16608 ;
16749 [label="(...)", fillcolor="#C0C0C0"] ;
16607 -> 16749 ;
16820 [label="25_U <= 0.5\nentropy = 0.626\nsamples = 465\nvalue = [609, 113]\nclass = Animal", fillcolor="#ea985e"] ;
12668 -> 16820 ;
16821 [label="24_C <= 0.5\nentropy = 0.6\nsamples = 452\nvalue = [597, 102]\nclass = Animal", fillcolor="#e9975b"] ;
16820 -> 16821 ;
16822 [label="(...)", fillcolor="#C0C0C0"] ;
16821 -> 16822 ;
16949 [label="(...)", fillcolor="#C0C0C0"] ;
16821 -> 16949 ;
16982 [label="8_A <= 0.5\nentropy = 0.999\nsamples = 13\nvalue = [12, 11]\nclass = Animal", fillcolor="#fdf5ef"] ;
16820 -> 16982 ;
16983 [label="(...)", fillcolor="#C0C0C0"] ;
16982 -> 16983 ;
16990 [label="(...)", fillcolor="#C0C0C0"] ;
16982 -> 16990 ;
}