digraph Tree {
node [shape=box, style="filled, rounded", color="black", fontname="helvetica"] ;
edge [fontname="helvetica"] ;
0 [label="22_G <= 0.5\nentropy = 1.0\nsamples = 38169\nvalue = [30355, 29990]\nclass = Animal", fillcolor="#fffdfd"] ;
1 [label="22_U <= 0.5\nentropy = 0.996\nsamples = 33243\nvalue = [24185, 28326]\nclass = Plant", fillcolor="#e2f1fb"] ;
0 -> 1 [labeldistance=2.5, labelangle=45, headlabel="True"] ;
2 [label="19_C <= 0.5\nentropy = 0.968\nsamples = 28144\nvalue = [17584, 26849]\nclass = Plant", fillcolor="#bbddf6"] ;
1 -> 2 ;
3 [label="17_G <= 0.5\nentropy = 0.997\nsamples = 18053\nvalue = [13293, 15179]\nclass = Plant", fillcolor="#e6f3fc"] ;
2 -> 3 ;
4 [label="(...)", fillcolor="#C0C0C0"] ;
3 -> 4 ;
6703 [label="(...)", fillcolor="#C0C0C0"] ;
3 -> 6703 ;
9336 [label="10_A <= 0.5\nentropy = 0.84\nsamples = 10091\nvalue = [4291, 11670]\nclass = Plant", fillcolor="#82c1ef"] ;
2 -> 9336 ;
9337 [label="(...)", fillcolor="#C0C0C0"] ;
9336 -> 9337 ;
11828 [label="(...)", fillcolor="#C0C0C0"] ;
9336 -> 11828 ;
12559 [label="17_C <= 0.5\nentropy = 0.686\nsamples = 5099\nvalue = [6601, 1477]\nclass = Animal", fillcolor="#eb9d65"] ;
1 -> 12559 ;
12560 [label="8_A <= 0.5\nentropy = 0.722\nsamples = 3963\nvalue = [5046, 1263]\nclass = Animal", fillcolor="#eca16b"] ;
12559 -> 12560 ;
12561 [label="(...)", fillcolor="#C0C0C0"] ;
12560 -> 12561 ;
13664 [label="(...)", fillcolor="#C0C0C0"] ;
12560 -> 13664 ;
14157 [label="26_A <= 0.5\nentropy = 0.532\nsamples = 1136\nvalue = [1555, 214]\nclass = Animal", fillcolor="#e99254"] ;
12559 -> 14157 ;
14158 [label="(...)", fillcolor="#C0C0C0"] ;
14157 -> 14158 ;
14531 [label="(...)", fillcolor="#C0C0C0"] ;
14157 -> 14531 ;
14534 [label="26_U <= 0.5\nentropy = 0.746\nsamples = 4926\nvalue = [6170, 1664]\nclass = Animal", fillcolor="#eca36e"] ;
0 -> 14534 [labeldistance=2.5, labelangle=-45, headlabel="False"] ;
14535 [label="13_A <= 0.5\nentropy = 0.741\nsamples = 4893\nvalue = [6153, 1631]\nclass = Animal", fillcolor="#eca26d"] ;
14534 -> 14535 ;
14536 [label="9_A <= 0.5\nentropy = 0.691\nsamples = 3708\nvalue = [4812, 1093]\nclass = Animal", fillcolor="#eb9e66"] ;
14535 -> 14536 ;
14537 [label="(...)", fillcolor="#C0C0C0"] ;
14536 -> 14537 ;
15660 [label="(...)", fillcolor="#C0C0C0"] ;
14536 -> 15660 ;
16037 [label="21_C <= 0.5\nentropy = 0.864\nsamples = 1185\nvalue = [1341, 538]\nclass = Animal", fillcolor="#efb488"] ;
14535 -> 16037 ;
16038 [label="(...)", fillcolor="#C0C0C0"] ;
16037 -> 16038 ;
16459 [label="(...)", fillcolor="#C0C0C0"] ;
16037 -> 16459 ;
16550 [label="16_G <= 0.5\nentropy = 0.925\nsamples = 33\nvalue = [17, 33]\nclass = Plant", fillcolor="#9fcff2"] ;
14534 -> 16550 ;
16551 [label="2_U <= 0.5\nentropy = 0.999\nsamples = 21\nvalue = [17, 16]\nclass = Animal", fillcolor="#fdf8f3"] ;
16550 -> 16551 ;
16552 [label="(...)", fillcolor="#C0C0C0"] ;
16551 -> 16552 ;
16559 [label="(...)", fillcolor="#C0C0C0"] ;
16551 -> 16559 ;
16562 [label="entropy = 0.0\nsamples = 12\nvalue = [0, 17]\nclass = Plant", fillcolor="#399de5"] ;
16550 -> 16562 ;
}