digraph Tree {
node [shape=box, style="filled, rounded", color="black", fontname="helvetica"] ;
edge [fontname="helvetica"] ;
0 [label="12_G <= 0.5\nentropy = 1.0\nsamples = 38117\nvalue = [30448, 29897]\nclass = Animal", fillcolor="#fffdfb"] ;
1 [label="16_C <= 0.5\nentropy = 0.997\nsamples = 27032\nvalue = [22883, 19955]\nclass = Animal", fillcolor="#fcefe6"] ;
0 -> 1 [labeldistance=2.5, labelangle=45, headlabel="True"] ;
2 [label="20_C <= 0.5\nentropy = 0.999\nsamples = 21312\nvalue = [17328, 16392]\nclass = Animal", fillcolor="#fef8f4"] ;
1 -> 2 ;
3 [label="22_A <= 0.5\nentropy = 0.988\nsamples = 15547\nvalue = [13833, 10706]\nclass = Animal", fillcolor="#f9e3d2"] ;
2 -> 3 ;
4 [label="(...)", fillcolor="#C0C0C0"] ;
3 -> 4 ;
6409 [label="(...)", fillcolor="#C0C0C0"] ;
3 -> 6409 ;
7330 [label="18_U <= 0.5\nentropy = 0.959\nsamples = 5765\nvalue = [3495, 5686]\nclass = Plant", fillcolor="#b3d9f5"] ;
2 -> 7330 ;
7331 [label="(...)", fillcolor="#C0C0C0"] ;
7330 -> 7331 ;
8958 [label="(...)", fillcolor="#C0C0C0"] ;
7330 -> 8958 ;
9503 [label="22_A <= 0.5\nentropy = 0.965\nsamples = 5720\nvalue = [5555, 3563]\nclass = Animal", fillcolor="#f6d2b8"] ;
1 -> 9503 ;
9504 [label="13_C <= 0.5\nentropy = 0.976\nsamples = 5114\nvalue = [4814, 3341]\nclass = Animal", fillcolor="#f7d8c2"] ;
9503 -> 9504 ;
9505 [label="(...)", fillcolor="#C0C0C0"] ;
9504 -> 9505 ;
11382 [label="(...)", fillcolor="#C0C0C0"] ;
9504 -> 11382 ;
11967 [label="24_A <= 0.5\nentropy = 0.779\nsamples = 606\nvalue = [741, 222]\nclass = Animal", fillcolor="#eda774"] ;
9503 -> 11967 ;
11968 [label="(...)", fillcolor="#C0C0C0"] ;
11967 -> 11968 ;
12259 [label="(...)", fillcolor="#C0C0C0"] ;
11967 -> 12259 ;
12274 [label="10_A <= 0.5\nentropy = 0.987\nsamples = 11085\nvalue = [7565, 9942]\nclass = Plant", fillcolor="#d0e8f9"] ;
0 -> 12274 [labeldistance=2.5, labelangle=-45, headlabel="False"] ;
12275 [label="14_A <= 0.5\nentropy = 0.997\nsamples = 6977\nvalue = [5890, 5161]\nclass = Animal", fillcolor="#fcefe6"] ;
12274 -> 12275 ;
12276 [label="14_U <= 0.5\nentropy = 0.989\nsamples = 5092\nvalue = [4523, 3541]\nclass = Animal", fillcolor="#f9e4d4"] ;
12275 -> 12276 ;
12277 [label="(...)", fillcolor="#C0C0C0"] ;
12276 -> 12277 ;
13810 [label="(...)", fillcolor="#C0C0C0"] ;
12276 -> 13810 ;
14789 [label="5_G <= 0.5\nentropy = 0.995\nsamples = 1885\nvalue = [1367, 1620]\nclass = Plant", fillcolor="#e0f0fb"] ;
12275 -> 14789 ;
14790 [label="(...)", fillcolor="#C0C0C0"] ;
14789 -> 14790 ;
15367 [label="(...)", fillcolor="#C0C0C0"] ;
14789 -> 15367 ;
15618 [label="16_C <= 0.5\nentropy = 0.826\nsamples = 4108\nvalue = [1675, 4781]\nclass = Plant", fillcolor="#7ebfee"] ;
12274 -> 15618 ;
15619 [label="18_C <= 0.5\nentropy = 0.918\nsamples = 2469\nvalue = [1280, 2567]\nclass = Plant", fillcolor="#9ccef2"] ;
15618 -> 15619 ;
15620 [label="(...)", fillcolor="#C0C0C0"] ;
15619 -> 15620 ;
16287 [label="(...)", fillcolor="#C0C0C0"] ;
15619 -> 16287 ;
16484 [label="19_C <= 0.5\nentropy = 0.613\nsamples = 1639\nvalue = [395, 2214]\nclass = Plant", fillcolor="#5caeea"] ;
15618 -> 16484 ;
16485 [label="(...)", fillcolor="#C0C0C0"] ;
16484 -> 16485 ;
16674 [label="(...)", fillcolor="#C0C0C0"] ;
16484 -> 16674 ;
}