digraph Tree {
node [shape=box, style="filled, rounded", color="black", fontname="helvetica"] ;
edge [fontname="helvetica"] ;
0 [label="9_U <= 0.5\nentropy = 1.0\nsamples = 38183\nvalue = [30014, 30331]\nclass = Plant", fillcolor="#fdfeff"] ;
1 [label="22_C <= 0.5\nentropy = 0.994\nsamples = 27430\nvalue = [19640, 23716]\nclass = Plant", fillcolor="#ddeefb"] ;
0 -> 1 [labeldistance=2.5, labelangle=45, headlabel="True"] ;
2 [label="20_C <= 0.5\nentropy = 0.985\nsamples = 24832\nvalue = [16862, 22433]\nclass = Plant", fillcolor="#cee7f9"] ;
1 -> 2 ;
3 [label="21_U <= 0.5\nentropy = 0.998\nsamples = 17875\nvalue = [13301, 14919]\nclass = Plant", fillcolor="#eaf4fc"] ;
2 -> 3 ;
4 [label="(...)", fillcolor="#C0C0C0"] ;
3 -> 4 ;
6699 [label="(...)", fillcolor="#C0C0C0"] ;
3 -> 6699 ;
8334 [label="10_C <= 0.5\nentropy = 0.906\nsamples = 6957\nvalue = [3561, 7514]\nclass = Plant", fillcolor="#97cbf1"] ;
2 -> 8334 ;
8335 [label="(...)", fillcolor="#C0C0C0"] ;
8334 -> 8335 ;
10442 [label="(...)", fillcolor="#C0C0C0"] ;
8334 -> 10442 ;
11041 [label="16_U <= 0.5\nentropy = 0.9\nsamples = 2598\nvalue = [2778, 1283]\nclass = Animal", fillcolor="#f1bb94"] ;
1 -> 11041 ;
11042 [label="1_U <= 0.5\nentropy = 0.863\nsamples = 1785\nvalue = [1997, 799]\nclass = Animal", fillcolor="#efb388"] ;
11041 -> 11042 ;
11043 [label="(...)", fillcolor="#C0C0C0"] ;
11042 -> 11043 ;
11544 [label="(...)", fillcolor="#C0C0C0"] ;
11042 -> 11544 ;
11957 [label="24_G <= 0.5\nentropy = 0.96\nsamples = 813\nvalue = [781, 484]\nclass = Animal", fillcolor="#f5cfb4"] ;
11041 -> 11957 ;
11958 [label="(...)", fillcolor="#C0C0C0"] ;
11957 -> 11958 ;
12321 [label="(...)", fillcolor="#C0C0C0"] ;
11957 -> 12321 ;
12346 [label="22_G <= 0.5\nentropy = 0.964\nsamples = 10753\nvalue = [10374, 6615]\nclass = Animal", fillcolor="#f6d1b7"] ;
0 -> 12346 [labeldistance=2.5, labelangle=-45, headlabel="False"] ;
12347 [label="22_A <= 0.5\nentropy = 0.989\nsamples = 9010\nvalue = [7990, 6215]\nclass = Animal", fillcolor="#f9e3d3"] ;
12346 -> 12347 ;
12348 [label="10_A <= 0.5\nentropy = 0.997\nsamples = 7688\nvalue = [6451, 5696]\nclass = Animal", fillcolor="#fcf0e8"] ;
12347 -> 12348 ;
12349 [label="(...)", fillcolor="#C0C0C0"] ;
12348 -> 12349 ;
15438 [label="(...)", fillcolor="#C0C0C0"] ;
12348 -> 15438 ;
16079 [label="6_A <= 0.5\nentropy = 0.815\nsamples = 1322\nvalue = [1539, 519]\nclass = Animal", fillcolor="#eeab7c"] ;
12347 -> 16079 ;
16080 [label="(...)", fillcolor="#C0C0C0"] ;
16079 -> 16080 ;
16495 [label="(...)", fillcolor="#C0C0C0"] ;
16079 -> 16495 ;
16638 [label="1_C <= 0.5\nentropy = 0.594\nsamples = 1743\nvalue = [2384, 400]\nclass = Animal", fillcolor="#e9965a"] ;
12346 -> 16638 ;
16639 [label="13_A <= 0.5\nentropy = 0.524\nsamples = 1446\nvalue = [2047, 274]\nclass = Animal", fillcolor="#e89254"] ;
16638 -> 16639 ;
16640 [label="(...)", fillcolor="#C0C0C0"] ;
16639 -> 16640 ;
17011 [label="(...)", fillcolor="#C0C0C0"] ;
16639 -> 17011 ;
17136 [label="16_G <= 0.5\nentropy = 0.845\nsamples = 297\nvalue = [337, 126]\nclass = Animal", fillcolor="#efb083"] ;
16638 -> 17136 ;
17137 [label="(...)", fillcolor="#C0C0C0"] ;
17136 -> 17137 ;
17236 [label="(...)", fillcolor="#C0C0C0"] ;
17136 -> 17236 ;
}