digraph Tree {
node [shape=box, style="filled, rounded", color="black", fontname="helvetica"] ;
edge [fontname="helvetica"] ;
0 [label="22_G <= 0.5\nentropy = 1.0\nsamples = 38170\nvalue = [30148, 30197]\nclass = Plant", fillcolor="#ffffff"] ;
1 [label="21_C <= 0.5\nentropy = 0.995\nsamples = 33176\nvalue = [24073, 28476]\nclass = Plant", fillcolor="#e0f0fb"] ;
0 -> 1 [labeldistance=2.5, labelangle=45, headlabel="True"] ;
2 [label="22_U <= 0.5\nentropy = 0.998\nsamples = 25224\nvalue = [18932, 21016]\nclass = Plant", fillcolor="#ebf5fc"] ;
1 -> 2 ;
3 [label="8_G <= 0.5\nentropy = 0.976\nsamples = 21359\nvalue = [13833, 19979]\nclass = Plant", fillcolor="#c2e1f7"] ;
2 -> 3 ;
4 [label="(...)", fillcolor="#C0C0C0"] ;
3 -> 4 ;
7447 [label="(...)", fillcolor="#C0C0C0"] ;
3 -> 7447 ;
10066 [label="23_U <= 0.5\nentropy = 0.655\nsamples = 3865\nvalue = [5099, 1037]\nclass = Animal", fillcolor="#ea9b61"] ;
2 -> 10066 ;
10067 [label="(...)", fillcolor="#C0C0C0"] ;
10066 -> 10067 ;
11402 [label="(...)", fillcolor="#C0C0C0"] ;
10066 -> 11402 ;
11497 [label="9_U <= 0.5\nentropy = 0.975\nsamples = 7952\nvalue = [5141, 7460]\nclass = Plant", fillcolor="#c1e1f7"] ;
1 -> 11497 ;
11498 [label="20_G <= 0.5\nentropy = 0.947\nsamples = 5951\nvalue = [3425, 5940]\nclass = Plant", fillcolor="#abd6f4"] ;
11497 -> 11498 ;
11499 [label="(...)", fillcolor="#C0C0C0"] ;
11498 -> 11499 ;
13194 [label="(...)", fillcolor="#C0C0C0"] ;
11498 -> 13194 ;
13817 [label="2_U <= 0.5\nentropy = 0.997\nsamples = 2001\nvalue = [1716, 1520]\nclass = Animal", fillcolor="#fcf1e8"] ;
11497 -> 13817 ;
13818 [label="(...)", fillcolor="#C0C0C0"] ;
13817 -> 13818 ;
14481 [label="(...)", fillcolor="#C0C0C0"] ;
13817 -> 14481 ;
14714 [label="17_A <= 0.5\nentropy = 0.762\nsamples = 4994\nvalue = [6075, 1721]\nclass = Animal", fillcolor="#eca571"] ;
0 -> 14714 [labeldistance=2.5, labelangle=-45, headlabel="False"] ;
14715 [label="8_A <= 0.5\nentropy = 0.732\nsamples = 4004\nvalue = [4976, 1283]\nclass = Animal", fillcolor="#eca16c"] ;
14714 -> 14715 ;
14716 [label="25_G <= 0.5\nentropy = 0.756\nsamples = 2963\nvalue = [3624, 1008]\nclass = Animal", fillcolor="#eca470"] ;
14715 -> 14716 ;
14717 [label="(...)", fillcolor="#C0C0C0"] ;
14716 -> 14717 ;
15856 [label="(...)", fillcolor="#C0C0C0"] ;
14716 -> 15856 ;
15883 [label="5_A <= 0.5\nentropy = 0.655\nsamples = 1041\nvalue = [1352, 275]\nclass = Animal", fillcolor="#ea9b61"] ;
14715 -> 15883 ;
15884 [label="(...)", fillcolor="#C0C0C0"] ;
15883 -> 15884 ;
16155 [label="(...)", fillcolor="#C0C0C0"] ;
15883 -> 16155 ;
16264 [label="7_G <= 0.5\nentropy = 0.862\nsamples = 990\nvalue = [1099, 438]\nclass = Animal", fillcolor="#efb388"] ;
14714 -> 16264 ;
16265 [label="8_A <= 0.5\nentropy = 0.899\nsamples = 729\nvalue = [788, 362]\nclass = Animal", fillcolor="#f1bb94"] ;
16264 -> 16265 ;
16266 [label="(...)", fillcolor="#C0C0C0"] ;
16265 -> 16266 ;
16549 [label="(...)", fillcolor="#C0C0C0"] ;
16265 -> 16549 ;
16614 [label="9_A <= 0.5\nentropy = 0.715\nsamples = 261\nvalue = [311, 76]\nclass = Animal", fillcolor="#eba069"] ;
16264 -> 16614 ;
16615 [label="(...)", fillcolor="#C0C0C0"] ;
16614 -> 16615 ;
16716 [label="(...)", fillcolor="#C0C0C0"] ;
16614 -> 16716 ;
}