digraph Tree {
node [shape=box, style="filled, rounded", color="black", fontname="helvetica"] ;
edge [fontname="helvetica"] ;
0 [label="20_C <= 0.5\nentropy = 1.0\nsamples = 38168\nvalue = [30281, 30064]\nclass = Animal", fillcolor="#fffefe"] ;
1 [label="2_U <= 0.5\nentropy = 0.995\nsamples = 28097\nvalue = [24115, 20245]\nclass = Animal", fillcolor="#fbebdf"] ;
0 -> 1 [labeldistance=2.5, labelangle=45, headlabel="True"] ;
2 [label="22_U <= 0.5\nentropy = 0.987\nsamples = 21201\nvalue = [19020, 14528]\nclass = Animal", fillcolor="#f9e1d0"] ;
1 -> 2 ;
3 [label="22_C <= 0.5\nentropy = 0.999\nsamples = 18042\nvalue = [14731, 13867]\nclass = Animal", fillcolor="#fdf8f3"] ;
2 -> 3 ;
4 [label="(...)", fillcolor="#C0C0C0"] ;
3 -> 4 ;
7393 [label="(...)", fillcolor="#C0C0C0"] ;
3 -> 7393 ;
8482 [label="23_A <= 0.5\nentropy = 0.567\nsamples = 3159\nvalue = [4289, 661]\nclass = Animal", fillcolor="#e99458"] ;
2 -> 8482 ;
8483 [label="(...)", fillcolor="#C0C0C0"] ;
8482 -> 8483 ;
9406 [label="(...)", fillcolor="#C0C0C0"] ;
8482 -> 9406 ;
9467 [label="19_U <= 0.5\nentropy = 0.998\nsamples = 6896\nvalue = [5095, 5717]\nclass = Plant", fillcolor="#e9f4fc"] ;
1 -> 9467 ;
9468 [label="1_U <= 0.5\nentropy = 0.984\nsamples = 5378\nvalue = [3574, 4821]\nclass = Plant", fillcolor="#cce6f8"] ;
9467 -> 9468 ;
9469 [label="(...)", fillcolor="#C0C0C0"] ;
9468 -> 9469 ;
10814 [label="(...)", fillcolor="#C0C0C0"] ;
9468 -> 10814 ;
11889 [label="13_G <= 0.5\nentropy = 0.951\nsamples = 1518\nvalue = [1521, 896]\nclass = Animal", fillcolor="#f4cbae"] ;
9467 -> 11889 ;
11890 [label="(...)", fillcolor="#C0C0C0"] ;
11889 -> 11890 ;
12497 [label="(...)", fillcolor="#C0C0C0"] ;
11889 -> 12497 ;
12708 [label="2_A <= 0.5\nentropy = 0.962\nsamples = 10071\nvalue = [6166, 9819]\nclass = Plant", fillcolor="#b5dbf5"] ;
0 -> 12708 [labeldistance=2.5, labelangle=-45, headlabel="False"] ;
12709 [label="1_U <= 0.5\nentropy = 0.931\nsamples = 8271\nvalue = [4558, 8603]\nclass = Plant", fillcolor="#a2d1f3"] ;
12708 -> 12709 ;
12710 [label="12_G <= 0.5\nentropy = 0.992\nsamples = 2798\nvalue = [2476, 2001]\nclass = Animal", fillcolor="#fae7d9"] ;
12709 -> 12710 ;
12711 [label="(...)", fillcolor="#C0C0C0"] ;
12710 -> 12711 ;
13988 [label="(...)", fillcolor="#C0C0C0"] ;
12710 -> 13988 ;
14387 [label="6_C <= 0.5\nentropy = 0.795\nsamples = 5473\nvalue = [2082, 6602]\nclass = Plant", fillcolor="#77bced"] ;
12709 -> 14387 ;
14388 [label="(...)", fillcolor="#C0C0C0"] ;
14387 -> 14388 ;
15521 [label="(...)", fillcolor="#C0C0C0"] ;
14387 -> 15521 ;
15862 [label="19_C <= 0.5\nentropy = 0.986\nsamples = 1800\nvalue = [1608, 1216]\nclass = Animal", fillcolor="#f9e0cf"] ;
12708 -> 15862 ;
15863 [label="9_G <= 0.5\nentropy = 0.996\nsamples = 1346\nvalue = [1134, 972]\nclass = Animal", fillcolor="#fbede3"] ;
15862 -> 15863 ;
15864 [label="(...)", fillcolor="#C0C0C0"] ;
15863 -> 15864 ;
16351 [label="(...)", fillcolor="#C0C0C0"] ;
15863 -> 16351 ;
16518 [label="7_G <= 0.5\nentropy = 0.925\nsamples = 454\nvalue = [474, 244]\nclass = Animal", fillcolor="#f2c29f"] ;
15862 -> 16518 ;
16519 [label="(...)", fillcolor="#C0C0C0"] ;
16518 -> 16519 ;
16702 [label="(...)", fillcolor="#C0C0C0"] ;
16518 -> 16702 ;
}