digraph Tree {
node [shape=box, style="filled, rounded", color="black", fontname="helvetica"] ;
edge [fontname="helvetica"] ;
0 [label="18_C <= 0.5\nentropy = 1.0\nsamples = 38173\nvalue = [30359, 29986]\nclass = Animal", fillcolor="#fffdfd"] ;
1 [label="22_G <= 0.5\nentropy = 0.996\nsamples = 27883\nvalue = [23706, 20330]\nclass = Animal", fillcolor="#fbede3"] ;
0 -> 1 [labeldistance=2.5, labelangle=45, headlabel="True"] ;
2 [label="19_C <= 0.5\nentropy = 1.0\nsamples = 24017\nvalue = [18873, 19103]\nclass = Plant", fillcolor="#fdfeff"] ;
1 -> 2 ;
3 [label="19_A <= 0.5\nentropy = 0.989\nsamples = 16497\nvalue = [14674, 11397]\nclass = Animal", fillcolor="#f9e3d3"] ;
2 -> 3 ;
4 [label="(...)", fillcolor="#C0C0C0"] ;
3 -> 4 ;
6193 [label="(...)", fillcolor="#C0C0C0"] ;
3 -> 6193 ;
8544 [label="23_G <= 0.5\nentropy = 0.936\nsamples = 7520\nvalue = [4199, 7706]\nclass = Plant", fillcolor="#a5d2f3"] ;
2 -> 8544 ;
8545 [label="(...)", fillcolor="#C0C0C0"] ;
8544 -> 8545 ;
11280 [label="(...)", fillcolor="#C0C0C0"] ;
8544 -> 11280 ;
11365 [label="17_C <= 0.5\nentropy = 0.727\nsamples = 3866\nvalue = [4833, 1227]\nclass = Animal", fillcolor="#eca16b"] ;
1 -> 11365 ;
11366 [label="5_G <= 0.5\nentropy = 0.667\nsamples = 3045\nvalue = [3946, 831]\nclass = Animal", fillcolor="#ea9c63"] ;
11365 -> 11366 ;
11367 [label="(...)", fillcolor="#C0C0C0"] ;
11366 -> 11367 ;
12232 [label="(...)", fillcolor="#C0C0C0"] ;
11366 -> 12232 ;
12495 [label="9_U <= 0.5\nentropy = 0.892\nsamples = 821\nvalue = [887, 396]\nclass = Animal", fillcolor="#f1b991"] ;
11365 -> 12495 ;
12496 [label="(...)", fillcolor="#C0C0C0"] ;
12495 -> 12496 ;
12781 [label="(...)", fillcolor="#C0C0C0"] ;
12495 -> 12781 ;
12900 [label="9_G <= 0.5\nentropy = 0.975\nsamples = 10290\nvalue = [6653, 9656]\nclass = Plant", fillcolor="#c1e1f7"] ;
0 -> 12900 [labeldistance=2.5, labelangle=-45, headlabel="False"] ;
12901 [label="11_G <= 0.5\nentropy = 1.0\nsamples = 6421\nvalue = [5219, 4981]\nclass = Animal", fillcolor="#fef9f6"] ;
12900 -> 12901 ;
12902 [label="4_A <= 0.5\nentropy = 0.985\nsamples = 4325\nvalue = [3913, 2935]\nclass = Animal", fillcolor="#f9e0ce"] ;
12901 -> 12902 ;
12903 [label="(...)", fillcolor="#C0C0C0"] ;
12902 -> 12903 ;
14450 [label="(...)", fillcolor="#C0C0C0"] ;
12902 -> 14450 ;
14923 [label="8_C <= 0.5\nentropy = 0.965\nsamples = 2096\nvalue = [1306, 2046]\nclass = Plant", fillcolor="#b7dcf6"] ;
12901 -> 14923 ;
14924 [label="(...)", fillcolor="#C0C0C0"] ;
14923 -> 14924 ;
15559 [label="(...)", fillcolor="#C0C0C0"] ;
14923 -> 15559 ;
15772 [label="4_C <= 0.5\nentropy = 0.786\nsamples = 3869\nvalue = [1434, 4675]\nclass = Plant", fillcolor="#76bbed"] ;
12900 -> 15772 ;
15773 [label="13_U <= 0.5\nentropy = 0.959\nsamples = 1795\nvalue = [1076, 1746]\nclass = Plant", fillcolor="#b3d9f5"] ;
15772 -> 15773 ;
15774 [label="(...)", fillcolor="#C0C0C0"] ;
15773 -> 15774 ;
16271 [label="(...)", fillcolor="#C0C0C0"] ;
15773 -> 16271 ;
16470 [label="21_U <= 0.5\nentropy = 0.497\nsamples = 2074\nvalue = [358, 2929]\nclass = Plant", fillcolor="#51a9e8"] ;
15772 -> 16470 ;
16471 [label="(...)", fillcolor="#C0C0C0"] ;
16470 -> 16471 ;
16676 [label="(...)", fillcolor="#C0C0C0"] ;
16470 -> 16676 ;
}