digraph Tree {
node [shape=box, style="filled, rounded", color="black", fontname="helvetica"] ;
edge [fontname="helvetica"] ;
0 [label="19_U <= 0.5\nentropy = 1.0\nsamples = 38265\nvalue = [30022, 30323]\nclass = Plant", fillcolor="#fdfeff"] ;
1 [label="22_G <= 0.5\nentropy = 0.994\nsamples = 29224\nvalue = [20963, 25248]\nclass = Plant", fillcolor="#ddeefb"] ;
0 -> 1 [labeldistance=2.5, labelangle=45, headlabel="True"] ;
2 [label="22_U <= 0.5\nentropy = 0.979\nsamples = 25803\nvalue = [16939, 23862]\nclass = Plant", fillcolor="#c6e3f7"] ;
1 -> 2 ;
3 [label="3_U <= 0.5\nentropy = 0.934\nsamples = 22070\nvalue = [12212, 22682]\nclass = Plant", fillcolor="#a4d2f3"] ;
2 -> 3 ;
4 [label="(...)", fillcolor="#C0C0C0"] ;
3 -> 4 ;
7005 [label="(...)", fillcolor="#C0C0C0"] ;
3 -> 7005 ;
9312 [label="25_U <= 0.5\nentropy = 0.721\nsamples = 3733\nvalue = [4727, 1180]\nclass = Animal", fillcolor="#eba06a"] ;
2 -> 9312 ;
9313 [label="(...)", fillcolor="#C0C0C0"] ;
9312 -> 9313 ;
10764 [label="(...)", fillcolor="#C0C0C0"] ;
9312 -> 10764 ;
10789 [label="23_G <= 0.5\nentropy = 0.821\nsamples = 3421\nvalue = [4024, 1386]\nclass = Animal", fillcolor="#eeac7d"] ;
1 -> 10789 ;
10790 [label="21_U <= 0.5\nentropy = 0.789\nsamples = 3052\nvalue = [3674, 1138]\nclass = Animal", fillcolor="#eda876"] ;
10789 -> 10790 ;
10791 [label="(...)", fillcolor="#C0C0C0"] ;
10790 -> 10791 ;
11726 [label="(...)", fillcolor="#C0C0C0"] ;
10790 -> 11726 ;
12159 [label="11_U <= 0.5\nentropy = 0.979\nsamples = 369\nvalue = [350, 248]\nclass = Animal", fillcolor="#f7dac5"] ;
10789 -> 12159 ;
12160 [label="(...)", fillcolor="#C0C0C0"] ;
12159 -> 12160 ;
12281 [label="(...)", fillcolor="#C0C0C0"] ;
12159 -> 12281 ;
12336 [label="13_G <= 0.5\nentropy = 0.942\nsamples = 9041\nvalue = [9059, 5075]\nclass = Animal", fillcolor="#f4c8a8"] ;
0 -> 12336 [labeldistance=2.5, labelangle=-45, headlabel="False"] ;
12337 [label="6_U <= 0.5\nentropy = 0.927\nsamples = 6902\nvalue = [7100, 3695]\nclass = Animal", fillcolor="#f3c3a0"] ;
12336 -> 12337 ;
12338 [label="27_A <= 0.5\nentropy = 0.905\nsamples = 4807\nvalue = [5146, 2431]\nclass = Animal", fillcolor="#f1bd97"] ;
12337 -> 12338 ;
12339 [label="(...)", fillcolor="#C0C0C0"] ;
12338 -> 12339 ;
14646 [label="(...)", fillcolor="#C0C0C0"] ;
12338 -> 14646 ;
14649 [label="15_A <= 0.5\nentropy = 0.967\nsamples = 2095\nvalue = [1954, 1264]\nclass = Animal", fillcolor="#f6d3b9"] ;
12337 -> 14649 ;
14650 [label="(...)", fillcolor="#C0C0C0"] ;
14649 -> 14650 ;
15357 [label="(...)", fillcolor="#C0C0C0"] ;
14649 -> 15357 ;
15586 [label="22_C <= 0.5\nentropy = 0.978\nsamples = 2139\nvalue = [1959, 1380]\nclass = Animal", fillcolor="#f7dac4"] ;
12336 -> 15586 ;
15587 [label="17_C <= 0.5\nentropy = 0.987\nsamples = 1891\nvalue = [1682, 1291]\nclass = Animal", fillcolor="#f9e2d1"] ;
15586 -> 15587 ;
15588 [label="(...)", fillcolor="#C0C0C0"] ;
15587 -> 15588 ;
16415 [label="(...)", fillcolor="#C0C0C0"] ;
15587 -> 16415 ;
16614 [label="10_G <= 0.5\nentropy = 0.8\nsamples = 248\nvalue = [277, 89]\nclass = Animal", fillcolor="#eda979"] ;
15586 -> 16614 ;
16615 [label="(...)", fillcolor="#C0C0C0"] ;
16614 -> 16615 ;
16704 [label="(...)", fillcolor="#C0C0C0"] ;
16614 -> 16704 ;
}