digraph Tree {
node [shape=box, style="filled, rounded", color="black", fontname="helvetica"] ;
edge [fontname="helvetica"] ;
0 [label="22_A <= 0.5\nentropy = 1.0\nsamples = 38149\nvalue = [30211, 30134]\nclass = Animal", fillcolor="#fffffe"] ;
1 [label="22_G <= 0.5\nentropy = 0.998\nsamples = 33893\nvalue = [25327, 28176]\nclass = Plant", fillcolor="#ebf5fc"] ;
0 -> 1 [labeldistance=2.5, labelangle=45, headlabel="True"] ;
2 [label="3_G <= 0.5\nentropy = 0.982\nsamples = 29032\nvalue = [19316, 26455]\nclass = Plant", fillcolor="#cae5f8"] ;
1 -> 2 ;
3 [label="9_U <= 0.5\nentropy = 0.996\nsamples = 19610\nvalue = [14230, 16575]\nclass = Plant", fillcolor="#e3f1fb"] ;
2 -> 3 ;
4 [label="(...)", fillcolor="#C0C0C0"] ;
3 -> 4 ;
6407 [label="(...)", fillcolor="#C0C0C0"] ;
3 -> 6407 ;
9094 [label="12_G <= 0.5\nentropy = 0.925\nsamples = 9422\nvalue = [5086, 9880]\nclass = Plant", fillcolor="#9fcff2"] ;
2 -> 9094 ;
9095 [label="(...)", fillcolor="#C0C0C0"] ;
9094 -> 9095 ;
11670 [label="(...)", fillcolor="#C0C0C0"] ;
9094 -> 11670 ;
12719 [label="25_A <= 0.5\nentropy = 0.765\nsamples = 4861\nvalue = [6011, 1721]\nclass = Animal", fillcolor="#eca572"] ;
1 -> 12719 ;
12720 [label="19_U <= 0.5\nentropy = 0.751\nsamples = 4774\nvalue = [5958, 1632]\nclass = Animal", fillcolor="#eca46f"] ;
12719 -> 12720 ;
12721 [label="(...)", fillcolor="#C0C0C0"] ;
12720 -> 12721 ;
14190 [label="(...)", fillcolor="#C0C0C0"] ;
12720 -> 14190 ;
14697 [label="13_A <= 0.5\nentropy = 0.953\nsamples = 87\nvalue = [53, 89]\nclass = Plant", fillcolor="#afd7f4"] ;
12719 -> 14697 ;
14698 [label="(...)", fillcolor="#C0C0C0"] ;
14697 -> 14698 ;
14731 [label="(...)", fillcolor="#C0C0C0"] ;
14697 -> 14731 ;
14744 [label="2_A <= 0.5\nentropy = 0.864\nsamples = 4256\nvalue = [4884, 1958]\nclass = Animal", fillcolor="#efb488"] ;
0 -> 14744 [labeldistance=2.5, labelangle=-45, headlabel="False"] ;
14745 [label="19_C <= 0.5\nentropy = 0.92\nsamples = 2897\nvalue = [3095, 1562]\nclass = Animal", fillcolor="#f2c19d"] ;
14744 -> 14745 ;
14746 [label="1_A <= 0.5\nentropy = 0.853\nsamples = 1953\nvalue = [2272, 875]\nclass = Animal", fillcolor="#efb285"] ;
14745 -> 14746 ;
14747 [label="(...)", fillcolor="#C0C0C0"] ;
14746 -> 14747 ;
15512 [label="(...)", fillcolor="#C0C0C0"] ;
14746 -> 15512 ;
15755 [label="17_A <= 0.5\nentropy = 0.994\nsamples = 944\nvalue = [823, 687]\nclass = Animal", fillcolor="#fbeade"] ;
14745 -> 15755 ;
15756 [label="(...)", fillcolor="#C0C0C0"] ;
15755 -> 15756 ;
16045 [label="(...)", fillcolor="#C0C0C0"] ;
15755 -> 16045 ;
16120 [label="6_A <= 0.5\nentropy = 0.683\nsamples = 1359\nvalue = [1789, 396]\nclass = Animal", fillcolor="#eb9d65"] ;
14744 -> 16120 ;
16121 [label="5_U <= 0.5\nentropy = 0.593\nsamples = 1148\nvalue = [1596, 267]\nclass = Animal", fillcolor="#e9965a"] ;
16120 -> 16121 ;
16122 [label="(...)", fillcolor="#C0C0C0"] ;
16121 -> 16122 ;
16423 [label="(...)", fillcolor="#C0C0C0"] ;
16121 -> 16423 ;
16564 [label="7_G <= 0.5\nentropy = 0.971\nsamples = 211\nvalue = [193, 129]\nclass = Animal", fillcolor="#f6d5bd"] ;
16120 -> 16564 ;
16565 [label="(...)", fillcolor="#C0C0C0"] ;
16564 -> 16565 ;
16650 [label="(...)", fillcolor="#C0C0C0"] ;
16564 -> 16650 ;
}