digraph Tree {
node [shape=box, style="filled, rounded", color="black", fontname="helvetica"] ;
edge [fontname="helvetica"] ;
0 [label="20_G <= 0.5\nentropy = 1.0\nsamples = 38070\nvalue = [30254, 30091]\nclass = Animal", fillcolor="#fffefe"] ;
1 [label="1_A <= 0.5\nentropy = 0.997\nsamples = 29523\nvalue = [21957, 24843]\nclass = Plant", fillcolor="#e8f4fc"] ;
0 -> 1 [labeldistance=2.5, labelangle=45, headlabel="True"] ;
2 [label="19_U <= 0.5\nentropy = 0.988\nsamples = 23597\nvalue = [16301, 21177]\nclass = Plant", fillcolor="#d1e8f9"] ;
1 -> 2 ;
3 [label="22_C <= 0.5\nentropy = 0.97\nsamples = 18848\nvalue = [11937, 18067]\nclass = Plant", fillcolor="#bcdef6"] ;
2 -> 3 ;
4 [label="(...)", fillcolor="#C0C0C0"] ;
3 -> 4 ;
6725 [label="(...)", fillcolor="#C0C0C0"] ;
3 -> 6725 ;
7564 [label="20_C <= 0.5\nentropy = 0.98\nsamples = 4749\nvalue = [4364, 3110]\nclass = Animal", fillcolor="#f8dbc6"] ;
2 -> 7564 ;
7565 [label="(...)", fillcolor="#C0C0C0"] ;
7564 -> 7565 ;
8968 [label="(...)", fillcolor="#C0C0C0"] ;
7564 -> 8968 ;
9749 [label="11_C <= 0.5\nentropy = 0.967\nsamples = 5926\nvalue = [5656, 3666]\nclass = Animal", fillcolor="#f6d3b9"] ;
1 -> 9749 ;
9750 [label="18_U <= 0.5\nentropy = 0.982\nsamples = 4770\nvalue = [4351, 3164]\nclass = Animal", fillcolor="#f8ddc9"] ;
9749 -> 9750 ;
9751 [label="(...)", fillcolor="#C0C0C0"] ;
9750 -> 9751 ;
11490 [label="(...)", fillcolor="#C0C0C0"] ;
9750 -> 11490 ;
12117 [label="12_G <= 0.5\nentropy = 0.852\nsamples = 1156\nvalue = [1305, 502]\nclass = Animal", fillcolor="#efb185"] ;
9749 -> 12117 ;
12118 [label="(...)", fillcolor="#C0C0C0"] ;
12117 -> 12118 ;
12657 [label="(...)", fillcolor="#C0C0C0"] ;
12117 -> 12657 ;
12764 [label="22_G <= 0.5\nentropy = 0.963\nsamples = 8547\nvalue = [8297, 5248]\nclass = Animal", fillcolor="#f5d1b6"] ;
0 -> 12764 [labeldistance=2.5, labelangle=-45, headlabel="False"] ;
12765 [label="22_A <= 0.5\nentropy = 0.983\nsamples = 7145\nvalue = [6542, 4816]\nclass = Animal", fillcolor="#f8decb"] ;
12764 -> 12765 ;
12766 [label="6_A <= 0.5\nentropy = 0.994\nsamples = 6009\nvalue = [5203, 4331]\nclass = Animal", fillcolor="#fbeade"] ;
12765 -> 12766 ;
12767 [label="(...)", fillcolor="#C0C0C0"] ;
12766 -> 12767 ;
15242 [label="(...)", fillcolor="#C0C0C0"] ;
12766 -> 15242 ;
15949 [label="15_A <= 0.5\nentropy = 0.836\nsamples = 1136\nvalue = [1339, 485]\nclass = Animal", fillcolor="#eeaf81"] ;
12765 -> 15949 ;
15950 [label="(...)", fillcolor="#C0C0C0"] ;
15949 -> 15950 ;
16369 [label="(...)", fillcolor="#C0C0C0"] ;
15949 -> 16369 ;
16504 [label="16_C <= 0.5\nentropy = 0.717\nsamples = 1402\nvalue = [1755, 432]\nclass = Animal", fillcolor="#eba06a"] ;
12764 -> 16504 ;
16505 [label="26_U <= 0.5\nentropy = 0.768\nsamples = 1090\nvalue = [1319, 382]\nclass = Animal", fillcolor="#eda572"] ;
16504 -> 16505 ;
16506 [label="(...)", fillcolor="#C0C0C0"] ;
16505 -> 16506 ;
16891 [label="(...)", fillcolor="#C0C0C0"] ;
16505 -> 16891 ;
16898 [label="24_G <= 0.5\nentropy = 0.478\nsamples = 312\nvalue = [436, 50]\nclass = Animal", fillcolor="#e88f50"] ;
16504 -> 16898 ;
16899 [label="(...)", fillcolor="#C0C0C0"] ;
16898 -> 16899 ;
17008 [label="(...)", fillcolor="#C0C0C0"] ;
16898 -> 17008 ;
}