digraph Tree {
node [shape=box, style="filled, rounded", color="black", fontname="helvetica"] ;
edge [fontname="helvetica"] ;
0 [label="4_U <= 0.5\nentropy = 1.0\nsamples = 38080\nvalue = [30272, 30073]\nclass = Animal", fillcolor="#fffefe"] ;
1 [label="23_U <= 0.5\nentropy = 0.999\nsamples = 30391\nvalue = [23367, 24775]\nclass = Plant", fillcolor="#f4f9fe"] ;
0 -> 1 [labeldistance=2.5, labelangle=45, headlabel="True"] ;
2 [label="22_U <= 0.5\nentropy = 0.997\nsamples = 28903\nvalue = [21344, 24369]\nclass = Plant", fillcolor="#e6f3fc"] ;
1 -> 2 ;
3 [label="19_U <= 0.5\nentropy = 0.98\nsamples = 25276\nvalue = [16671, 23270]\nclass = Plant", fillcolor="#c7e3f8"] ;
2 -> 3 ;
4 [label="(...)", fillcolor="#C0C0C0"] ;
3 -> 4 ;
8173 [label="(...)", fillcolor="#C0C0C0"] ;
3 -> 8173 ;
10986 [label="7_G <= 0.5\nentropy = 0.702\nsamples = 3627\nvalue = [4673, 1099]\nclass = Animal", fillcolor="#eb9f68"] ;
2 -> 10986 ;
10987 [label="(...)", fillcolor="#C0C0C0"] ;
10986 -> 10987 ;
11996 [label="(...)", fillcolor="#C0C0C0"] ;
10986 -> 11996 ;
12333 [label="19_C <= 0.5\nentropy = 0.651\nsamples = 1488\nvalue = [2023, 406]\nclass = Animal", fillcolor="#ea9a61"] ;
1 -> 12333 ;
12334 [label="24_G <= 0.5\nentropy = 0.589\nsamples = 1165\nvalue = [1636, 270]\nclass = Animal", fillcolor="#e9965a"] ;
12333 -> 12334 ;
12335 [label="(...)", fillcolor="#C0C0C0"] ;
12334 -> 12335 ;
12670 [label="(...)", fillcolor="#C0C0C0"] ;
12334 -> 12670 ;
12747 [label="7_C <= 0.5\nentropy = 0.827\nsamples = 323\nvalue = [387, 136]\nclass = Animal", fillcolor="#eead7f"] ;
12333 -> 12747 ;
12748 [label="(...)", fillcolor="#C0C0C0"] ;
12747 -> 12748 ;
12845 [label="(...)", fillcolor="#C0C0C0"] ;
12747 -> 12845 ;
12894 [label="23_C <= 0.5\nentropy = 0.987\nsamples = 7689\nvalue = [6905, 5298]\nclass = Animal", fillcolor="#f9e2d1"] ;
0 -> 12894 [labeldistance=2.5, labelangle=-45, headlabel="False"] ;
12895 [label="15_U <= 0.5\nentropy = 0.992\nsamples = 7379\nvalue = [6483, 5222]\nclass = Animal", fillcolor="#fae6d8"] ;
12894 -> 12895 ;
12896 [label="6_G <= 0.5\nentropy = 0.996\nsamples = 5753\nvalue = [4890, 4225]\nclass = Animal", fillcolor="#fbeee4"] ;
12895 -> 12896 ;
12897 [label="(...)", fillcolor="#C0C0C0"] ;
12896 -> 12897 ;
14932 [label="(...)", fillcolor="#C0C0C0"] ;
12896 -> 14932 ;
15799 [label="23_U <= 0.5\nentropy = 0.961\nsamples = 1626\nvalue = [1593, 997]\nclass = Animal", fillcolor="#f5d0b5"] ;
12895 -> 15799 ;
15800 [label="(...)", fillcolor="#C0C0C0"] ;
15799 -> 15800 ;
16725 [label="(...)", fillcolor="#C0C0C0"] ;
15799 -> 16725 ;
16758 [label="22_G <= 0.5\nentropy = 0.616\nsamples = 310\nvalue = [422, 76]\nclass = Animal", fillcolor="#ea985d"] ;
12894 -> 16758 ;
16759 [label="25_A <= 0.5\nentropy = 0.702\nsamples = 221\nvalue = [277, 65]\nclass = Animal", fillcolor="#eb9f67"] ;
16758 -> 16759 ;
16760 [label="(...)", fillcolor="#C0C0C0"] ;
16759 -> 16760 ;
16865 [label="(...)", fillcolor="#C0C0C0"] ;
16759 -> 16865 ;
16866 [label="20_A <= 0.5\nentropy = 0.368\nsamples = 89\nvalue = [145, 11]\nclass = Animal", fillcolor="#e78b48"] ;
16758 -> 16866 ;
16867 [label="(...)", fillcolor="#C0C0C0"] ;
16866 -> 16867 ;
16888 [label="(...)", fillcolor="#C0C0C0"] ;
16866 -> 16888 ;
}