digraph Tree {
node [shape=box, style="filled, rounded", color="black", fontname="helvetica"] ;
edge [fontname="helvetica"] ;
0 [label="2_A <= 0.5\nentropy = 1.0\nsamples = 38244\nvalue = [30061, 30284]\nclass = Plant", fillcolor="#fefeff"] ;
1 [label="1_U <= 0.5\nentropy = 0.995\nsamples = 29089\nvalue = [21001, 24859]\nclass = Plant", fillcolor="#e0f0fb"] ;
0 -> 1 [labeldistance=2.5, labelangle=45, headlabel="True"] ;
2 [label="17_A <= 0.5\nentropy = 0.99\nsamples = 12564\nvalue = [11005, 8661]\nclass = Animal", fillcolor="#f9e4d5"] ;
1 -> 2 ;
3 [label="10_G <= 0.5\nentropy = 0.977\nsamples = 9933\nvalue = [9137, 6399]\nclass = Animal", fillcolor="#f7d9c4"] ;
2 -> 3 ;
4 [label="(...)", fillcolor="#C0C0C0"] ;
3 -> 4 ;
3871 [label="(...)", fillcolor="#C0C0C0"] ;
3 -> 3871 ;
5378 [label="22_U <= 0.5\nentropy = 0.993\nsamples = 2631\nvalue = [1868, 2262]\nclass = Plant", fillcolor="#ddeefa"] ;
2 -> 5378 ;
5379 [label="(...)", fillcolor="#C0C0C0"] ;
5378 -> 5379 ;
6698 [label="(...)", fillcolor="#C0C0C0"] ;
5378 -> 6698 ;
6843 [label="9_C <= 0.5\nentropy = 0.959\nsamples = 16525\nvalue = [9996, 16198]\nclass = Plant", fillcolor="#b3d9f5"] ;
1 -> 6843 ;
6844 [label="22_U <= 0.5\nentropy = 0.978\nsamples = 12269\nvalue = [8033, 11424]\nclass = Plant", fillcolor="#c4e2f7"] ;
6843 -> 6844 ;
6845 [label="(...)", fillcolor="#C0C0C0"] ;
6844 -> 6845 ;
10960 [label="(...)", fillcolor="#C0C0C0"] ;
6844 -> 10960 ;
11553 [label="23_U <= 0.5\nentropy = 0.87\nsamples = 4256\nvalue = [1963, 4774]\nclass = Plant", fillcolor="#8ac5f0"] ;
6843 -> 11553 ;
11554 [label="(...)", fillcolor="#C0C0C0"] ;
11553 -> 11554 ;
12743 [label="(...)", fillcolor="#C0C0C0"] ;
11553 -> 12743 ;
12806 [label="9_G <= 0.5\nentropy = 0.954\nsamples = 9155\nvalue = [9060, 5425]\nclass = Animal", fillcolor="#f5ccb0"] ;
0 -> 12806 [labeldistance=2.5, labelangle=-45, headlabel="False"] ;
12807 [label="5_G <= 0.5\nentropy = 0.876\nsamples = 6570\nvalue = [7294, 3065]\nclass = Animal", fillcolor="#f0b68c"] ;
12806 -> 12807 ;
12808 [label="23_U <= 0.5\nentropy = 0.908\nsamples = 4686\nvalue = [5011, 2398]\nclass = Animal", fillcolor="#f1bd98"] ;
12807 -> 12808 ;
12809 [label="(...)", fillcolor="#C0C0C0"] ;
12808 -> 12809 ;
14940 [label="(...)", fillcolor="#C0C0C0"] ;
12808 -> 14940 ;
15045 [label="13_A <= 0.5\nentropy = 0.771\nsamples = 1884\nvalue = [2283, 667]\nclass = Animal", fillcolor="#eda673"] ;
12807 -> 15045 ;
15046 [label="(...)", fillcolor="#C0C0C0"] ;
15045 -> 15046 ;
15713 [label="(...)", fillcolor="#C0C0C0"] ;
15045 -> 15713 ;
15914 [label="5_C <= 0.5\nentropy = 0.985\nsamples = 2585\nvalue = [1766, 2360]\nclass = Plant", fillcolor="#cde6f8"] ;
12806 -> 15914 ;
15915 [label="4_G <= 0.5\nentropy = 1.0\nsamples = 1533\nvalue = [1242, 1199]\nclass = Animal", fillcolor="#fefbf8"] ;
15914 -> 15915 ;
15916 [label="(...)", fillcolor="#C0C0C0"] ;
15915 -> 15916 ;
16431 [label="(...)", fillcolor="#C0C0C0"] ;
15915 -> 16431 ;
16670 [label="7_A <= 0.5\nentropy = 0.894\nsamples = 1052\nvalue = [524, 1161]\nclass = Plant", fillcolor="#92c9f1"] ;
15914 -> 16670 ;
16671 [label="(...)", fillcolor="#C0C0C0"] ;
16670 -> 16671 ;
16806 [label="(...)", fillcolor="#C0C0C0"] ;
16670 -> 16806 ;
}