digraph Tree {
node [shape=box, style="filled, rounded", color="black", fontname="helvetica"] ;
edge [fontname="helvetica"] ;
0 [label="1_A <= 0.5\nentropy = 1.0\nsamples = 38235\nvalue = [30248, 30097]\nclass = Animal", fillcolor="#fffefe"] ;
1 [label="23_U <= 0.5\nentropy = 0.997\nsamples = 30233\nvalue = [22368, 25344]\nclass = Plant", fillcolor="#e8f3fc"] ;
0 -> 1 [labeldistance=2.5, labelangle=45, headlabel="True"] ;
2 [label="23_C <= 0.5\nentropy = 0.993\nsamples = 28834\nvalue = [20505, 24992]\nclass = Plant", fillcolor="#dbedfa"] ;
1 -> 2 ;
3 [label="9_U <= 0.5\nentropy = 0.989\nsamples = 27773\nvalue = [19215, 24606]\nclass = Plant", fillcolor="#d4eaf9"] ;
2 -> 3 ;
4 [label="(...)", fillcolor="#C0C0C0"] ;
3 -> 4 ;
8547 [label="(...)", fillcolor="#C0C0C0"] ;
3 -> 8547 ;
12004 [label="6_G <= 0.5\nentropy = 0.779\nsamples = 1061\nvalue = [1290, 386]\nclass = Animal", fillcolor="#eda774"] ;
2 -> 12004 ;
12005 [label="(...)", fillcolor="#C0C0C0"] ;
12004 -> 12005 ;
12368 [label="(...)", fillcolor="#C0C0C0"] ;
12004 -> 12368 ;
12541 [label="24_A <= 0.5\nentropy = 0.632\nsamples = 1399\nvalue = [1863, 352]\nclass = Animal", fillcolor="#ea995e"] ;
1 -> 12541 ;
12542 [label="9_A <= 0.5\nentropy = 0.598\nsamples = 1330\nvalue = [1795, 305]\nclass = Animal", fillcolor="#e9965b"] ;
12541 -> 12542 ;
12543 [label="(...)", fillcolor="#C0C0C0"] ;
12542 -> 12543 ;
12882 [label="(...)", fillcolor="#C0C0C0"] ;
12542 -> 12882 ;
13011 [label="19_C <= 0.5\nentropy = 0.976\nsamples = 69\nvalue = [68, 47]\nclass = Animal", fillcolor="#f7d8c2"] ;
12541 -> 13011 ;
13012 [label="(...)", fillcolor="#C0C0C0"] ;
13011 -> 13012 ;
13047 [label="(...)", fillcolor="#C0C0C0"] ;
13011 -> 13047 ;
13058 [label="22_G <= 0.5\nentropy = 0.955\nsamples = 8002\nvalue = [7880, 4753]\nclass = Animal", fillcolor="#f5cdb0"] ;
0 -> 13058 [labeldistance=2.5, labelangle=-45, headlabel="False"] ;
13059 [label="22_U <= 0.5\nentropy = 0.98\nsamples = 6822\nvalue = [6280, 4479]\nclass = Animal", fillcolor="#f8dbc6"] ;
13058 -> 13059 ;
13060 [label="19_U <= 0.5\nentropy = 1.0\nsamples = 5523\nvalue = [4465, 4236]\nclass = Animal", fillcolor="#fef9f5"] ;
13059 -> 13060 ;
13061 [label="(...)", fillcolor="#C0C0C0"] ;
13060 -> 13061 ;
15248 [label="(...)", fillcolor="#C0C0C0"] ;
13060 -> 15248 ;
16051 [label="8_C <= 0.5\nentropy = 0.524\nsamples = 1299\nvalue = [1815, 243]\nclass = Animal", fillcolor="#e89254"] ;
13059 -> 16051 ;
16052 [label="(...)", fillcolor="#C0C0C0"] ;
16051 -> 16052 ;
16407 [label="(...)", fillcolor="#C0C0C0"] ;
16051 -> 16407 ;
16476 [label="13_A <= 0.5\nentropy = 0.6\nsamples = 1180\nvalue = [1600, 274]\nclass = Animal", fillcolor="#e9975b"] ;
13058 -> 16476 ;
16477 [label="26_G <= 0.5\nentropy = 0.534\nsamples = 919\nvalue = [1287, 178]\nclass = Animal", fillcolor="#e99254"] ;
16476 -> 16477 ;
16478 [label="(...)", fillcolor="#C0C0C0"] ;
16477 -> 16478 ;
16759 [label="(...)", fillcolor="#C0C0C0"] ;
16477 -> 16759 ;
16764 [label="2_A <= 0.5\nentropy = 0.786\nsamples = 261\nvalue = [313, 96]\nclass = Animal", fillcolor="#eda876"] ;
16476 -> 16764 ;
16765 [label="(...)", fillcolor="#C0C0C0"] ;
16764 -> 16765 ;
16872 [label="(...)", fillcolor="#C0C0C0"] ;
16764 -> 16872 ;
}