digraph Tree {
node [shape=box, style="filled, rounded", color="black", fontname="helvetica"] ;
edge [fontname="helvetica"] ;
0 [label="8_G <= 0.5\nentropy = 1.0\nsamples = 38216\nvalue = [29992, 30353]\nclass = Plant", fillcolor="#fdfeff"] ;
1 [label="22_U <= 0.5\nentropy = 0.993\nsamples = 26336\nvalue = [22898, 18775]\nclass = Animal", fillcolor="#fae8db"] ;
0 -> 1 [labeldistance=2.5, labelangle=45, headlabel="True"] ;
2 [label="2_A <= 0.5\nentropy = 1.0\nsamples = 22517\nvalue = [17959, 17674]\nclass = Animal", fillcolor="#fffdfc"] ;
1 -> 2 ;
3 [label="18_C <= 0.5\nentropy = 0.994\nsamples = 17202\nvalue = [12351, 14883]\nclass = Plant", fillcolor="#ddeefb"] ;
2 -> 3 ;
4 [label="(...)", fillcolor="#C0C0C0"] ;
3 -> 4 ;
6269 [label="(...)", fillcolor="#C0C0C0"] ;
3 -> 6269 ;
8076 [label="10_G <= 0.5\nentropy = 0.917\nsamples = 5315\nvalue = [5608, 2791]\nclass = Animal", fillcolor="#f2c09c"] ;
2 -> 8076 ;
8077 [label="(...)", fillcolor="#C0C0C0"] ;
8076 -> 8077 ;
9986 [label="(...)", fillcolor="#C0C0C0"] ;
8076 -> 9986 ;
10757 [label="20_U <= 0.5\nentropy = 0.685\nsamples = 3819\nvalue = [4939, 1101]\nclass = Animal", fillcolor="#eb9d65"] ;
1 -> 10757 ;
10758 [label="12_G <= 0.5\nentropy = 0.775\nsamples = 2577\nvalue = [3127, 924]\nclass = Animal", fillcolor="#eda674"] ;
10757 -> 10758 ;
10759 [label="(...)", fillcolor="#C0C0C0"] ;
10758 -> 10759 ;
11562 [label="(...)", fillcolor="#C0C0C0"] ;
10758 -> 11562 ;
11805 [label="2_A <= 0.5\nentropy = 0.433\nsamples = 1242\nvalue = [1812, 177]\nclass = Animal", fillcolor="#e88d4c"] ;
10757 -> 11805 ;
11806 [label="(...)", fillcolor="#C0C0C0"] ;
11805 -> 11806 ;
12045 [label="(...)", fillcolor="#C0C0C0"] ;
11805 -> 12045 ;
12122 [label="19_C <= 0.5\nentropy = 0.958\nsamples = 11880\nvalue = [7094, 11578]\nclass = Plant", fillcolor="#b2d9f5"] ;
0 -> 12122 [labeldistance=2.5, labelangle=-45, headlabel="False"] ;
12123 [label="21_U <= 0.5\nentropy = 0.998\nsamples = 7692\nvalue = [5692, 6377]\nclass = Plant", fillcolor="#eaf4fc"] ;
12122 -> 12123 ;
12124 [label="17_G <= 0.5\nentropy = 0.98\nsamples = 5919\nvalue = [3875, 5401]\nclass = Plant", fillcolor="#c7e3f8"] ;
12123 -> 12124 ;
12125 [label="(...)", fillcolor="#C0C0C0"] ;
12124 -> 12125 ;
14050 [label="(...)", fillcolor="#C0C0C0"] ;
12124 -> 14050 ;
14889 [label="6_A <= 0.5\nentropy = 0.934\nsamples = 1773\nvalue = [1817, 976]\nclass = Animal", fillcolor="#f3c5a3"] ;
12123 -> 14889 ;
14890 [label="(...)", fillcolor="#C0C0C0"] ;
14889 -> 14890 ;
15441 [label="(...)", fillcolor="#C0C0C0"] ;
14889 -> 15441 ;
15600 [label="18_G <= 0.5\nentropy = 0.746\nsamples = 4188\nvalue = [1402, 5201]\nclass = Plant", fillcolor="#6eb7ec"] ;
12122 -> 15600 ;
15601 [label="10_A <= 0.5\nentropy = 0.675\nsamples = 3794\nvalue = [1066, 4932]\nclass = Plant", fillcolor="#64b2eb"] ;
15600 -> 15601 ;
15602 [label="(...)", fillcolor="#C0C0C0"] ;
15601 -> 15602 ;
16199 [label="(...)", fillcolor="#C0C0C0"] ;
15601 -> 16199 ;
16416 [label="2_G <= 0.5\nentropy = 0.991\nsamples = 394\nvalue = [336, 269]\nclass = Animal", fillcolor="#fae6d8"] ;
15600 -> 16416 ;
16417 [label="(...)", fillcolor="#C0C0C0"] ;
16416 -> 16417 ;
16582 [label="(...)", fillcolor="#C0C0C0"] ;
16416 -> 16582 ;
}