digraph Tree {
node [shape=box, style="filled, rounded", color="black", fontname="helvetica"] ;
edge [fontname="helvetica"] ;
0 [label="6_U <= 0.5\nentropy = 1.0\nsamples = 38171\nvalue = [30271, 30074]\nclass = Animal", fillcolor="#fffefe"] ;
1 [label="22_G <= 0.5\nentropy = 0.998\nsamples = 29178\nvalue = [21741, 24317]\nclass = Plant", fillcolor="#eaf5fc"] ;
0 -> 1 [labeldistance=2.5, labelangle=45, headlabel="True"] ;
2 [label="23_G <= 0.5\nentropy = 0.984\nsamples = 25488\nvalue = [17087, 23078]\nclass = Plant", fillcolor="#cce6f8"] ;
1 -> 2 ;
3 [label="10_A <= 0.5\nentropy = 0.977\nsamples = 24434\nvalue = [15820, 22704]\nclass = Plant", fillcolor="#c3e1f7"] ;
2 -> 3 ;
4 [label="(...)", fillcolor="#C0C0C0"] ;
3 -> 4 ;
7731 [label="(...)", fillcolor="#C0C0C0"] ;
3 -> 7731 ;
10344 [label="14_U <= 0.5\nentropy = 0.774\nsamples = 1054\nvalue = [1267, 374]\nclass = Animal", fillcolor="#eda673"] ;
2 -> 10344 ;
10345 [label="(...)", fillcolor="#C0C0C0"] ;
10344 -> 10345 ;
10638 [label="(...)", fillcolor="#C0C0C0"] ;
10344 -> 10638 ;
10745 [label="5_A <= 0.5\nentropy = 0.742\nsamples = 3690\nvalue = [4654, 1239]\nclass = Animal", fillcolor="#eca36e"] ;
1 -> 10745 ;
10746 [label="25_A <= 0.5\nentropy = 0.788\nsamples = 2608\nvalue = [3149, 971]\nclass = Animal", fillcolor="#eda876"] ;
10745 -> 10746 ;
10747 [label="(...)", fillcolor="#C0C0C0"] ;
10746 -> 10747 ;
11822 [label="(...)", fillcolor="#C0C0C0"] ;
10746 -> 11822 ;
11837 [label="1_C <= 0.5\nentropy = 0.613\nsamples = 1082\nvalue = [1505, 268]\nclass = Animal", fillcolor="#ea975c"] ;
10745 -> 11837 ;
11838 [label="(...)", fillcolor="#C0C0C0"] ;
11837 -> 11838 ;
12105 [label="(...)", fillcolor="#C0C0C0"] ;
11837 -> 12105 ;
12182 [label="1_U <= 0.5\nentropy = 0.973\nsamples = 8993\nvalue = [8530, 5757]\nclass = Animal", fillcolor="#f7d6bf"] ;
0 -> 12182 [labeldistance=2.5, labelangle=-45, headlabel="False"] ;
12183 [label="2_A <= 0.5\nentropy = 0.93\nsamples = 4503\nvalue = [4643, 2453]\nclass = Animal", fillcolor="#f3c4a2"] ;
12182 -> 12183 ;
12184 [label="19_U <= 0.5\nentropy = 0.954\nsamples = 3114\nvalue = [3041, 1815]\nclass = Animal", fillcolor="#f5ccaf"] ;
12183 -> 12184 ;
12185 [label="(...)", fillcolor="#C0C0C0"] ;
12184 -> 12185 ;
13560 [label="(...)", fillcolor="#C0C0C0"] ;
12184 -> 13560 ;
14001 [label="8_C <= 0.5\nentropy = 0.862\nsamples = 1389\nvalue = [1602, 638]\nclass = Animal", fillcolor="#efb388"] ;
12183 -> 14001 ;
14002 [label="(...)", fillcolor="#C0C0C0"] ;
14001 -> 14002 ;
14531 [label="(...)", fillcolor="#C0C0C0"] ;
14001 -> 14531 ;
14682 [label="19_C <= 0.5\nentropy = 0.995\nsamples = 4490\nvalue = [3887, 3304]\nclass = Animal", fillcolor="#fbece1"] ;
12182 -> 14682 ;
14683 [label="22_U <= 0.5\nentropy = 0.99\nsamples = 3603\nvalue = [3231, 2557]\nclass = Animal", fillcolor="#fae5d6"] ;
14682 -> 14683 ;
14684 [label="(...)", fillcolor="#C0C0C0"] ;
14683 -> 14684 ;
15983 [label="(...)", fillcolor="#C0C0C0"] ;
14683 -> 15983 ;
16170 [label="14_U <= 0.5\nentropy = 0.997\nsamples = 887\nvalue = [656, 747]\nclass = Plant", fillcolor="#e7f3fc"] ;
14682 -> 16170 ;
16171 [label="(...)", fillcolor="#C0C0C0"] ;
16170 -> 16171 ;
16490 [label="(...)", fillcolor="#C0C0C0"] ;
16170 -> 16490 ;
}