digraph Tree {
node [shape=box, style="filled, rounded", color="black", fontname="helvetica"] ;
edge [fontname="helvetica"] ;
0 [label="19_C <= 0.5\nentropy = 1.0\nsamples = 38185\nvalue = [30135, 30210]\nclass = Plant", fillcolor="#ffffff"] ;
1 [label="22_U <= 0.5\nentropy = 0.987\nsamples = 25844\nvalue = [23195, 17650]\nclass = Animal", fillcolor="#f9e1d0"] ;
0 -> 1 [labeldistance=2.5, labelangle=45, headlabel="True"] ;
2 [label="23_U <= 0.5\nentropy = 0.999\nsamples = 22009\nvalue = [18180, 16613]\nclass = Animal", fillcolor="#fdf4ee"] ;
1 -> 2 ;
3 [label="1_U <= 0.5\nentropy = 1.0\nsamples = 20778\nvalue = [16570, 16302]\nclass = Animal", fillcolor="#fffdfc"] ;
2 -> 3 ;
4 [label="(...)", fillcolor="#C0C0C0"] ;
3 -> 4 ;
5997 [label="(...)", fillcolor="#C0C0C0"] ;
3 -> 5997 ;
10538 [label="13_A <= 0.5\nentropy = 0.639\nsamples = 1231\nvalue = [1610, 311]\nclass = Animal", fillcolor="#ea995f"] ;
2 -> 10538 ;
10539 [label="(...)", fillcolor="#C0C0C0"] ;
10538 -> 10539 ;
10884 [label="(...)", fillcolor="#C0C0C0"] ;
10538 -> 10884 ;
10997 [label="2_U <= 0.5\nentropy = 0.661\nsamples = 3835\nvalue = [5015, 1037]\nclass = Animal", fillcolor="#ea9b62"] ;
1 -> 10997 ;
10998 [label="20_U <= 0.5\nentropy = 0.613\nsamples = 2974\nvalue = [3989, 712]\nclass = Animal", fillcolor="#ea975c"] ;
10997 -> 10998 ;
10999 [label="(...)", fillcolor="#C0C0C0"] ;
10998 -> 10999 ;
11862 [label="(...)", fillcolor="#C0C0C0"] ;
10998 -> 11862 ;
12123 [label="24_G <= 0.5\nentropy = 0.796\nsamples = 861\nvalue = [1026, 325]\nclass = Animal", fillcolor="#eda978"] ;
10997 -> 12123 ;
12124 [label="(...)", fillcolor="#C0C0C0"] ;
12123 -> 12124 ;
12525 [label="(...)", fillcolor="#C0C0C0"] ;
12123 -> 12525 ;
12540 [label="23_G <= 0.5\nentropy = 0.939\nsamples = 12341\nvalue = [6940, 12560]\nclass = Plant", fillcolor="#a6d3f3"] ;
0 -> 12540 [labeldistance=2.5, labelangle=-45, headlabel="False"] ;
12541 [label="10_U <= 0.5\nentropy = 0.922\nsamples = 11865\nvalue = [6306, 12429]\nclass = Plant", fillcolor="#9dcff2"] ;
12540 -> 12541 ;
12542 [label="16_G <= 0.5\nentropy = 0.897\nsamples = 9198\nvalue = [4543, 9964]\nclass = Plant", fillcolor="#93caf1"] ;
12541 -> 12542 ;
12543 [label="(...)", fillcolor="#C0C0C0"] ;
12542 -> 12543 ;
14730 [label="(...)", fillcolor="#C0C0C0"] ;
12542 -> 14730 ;
15481 [label="3_A <= 0.5\nentropy = 0.98\nsamples = 2667\nvalue = [1763, 2465]\nclass = Plant", fillcolor="#c7e3f8"] ;
12541 -> 15481 ;
15482 [label="(...)", fillcolor="#C0C0C0"] ;
15481 -> 15482 ;
16291 [label="(...)", fillcolor="#C0C0C0"] ;
15481 -> 16291 ;
16552 [label="13_U <= 0.5\nentropy = 0.661\nsamples = 476\nvalue = [634, 131]\nclass = Animal", fillcolor="#ea9b62"] ;
12540 -> 16552 ;
16553 [label="20_U <= 0.5\nentropy = 0.514\nsamples = 337\nvalue = [479, 62]\nclass = Animal", fillcolor="#e89153"] ;
16552 -> 16553 ;
16554 [label="(...)", fillcolor="#C0C0C0"] ;
16553 -> 16554 ;
16635 [label="(...)", fillcolor="#C0C0C0"] ;
16553 -> 16635 ;
16642 [label="16_U <= 0.5\nentropy = 0.891\nsamples = 139\nvalue = [155, 69]\nclass = Animal", fillcolor="#f1b991"] ;
16552 -> 16642 ;
16643 [label="(...)", fillcolor="#C0C0C0"] ;
16642 -> 16643 ;
16676 [label="(...)", fillcolor="#C0C0C0"] ;
16642 -> 16676 ;
}