digraph Tree {
node [shape=box, style="filled, rounded", color="black", fontname="helvetica"] ;
edge [fontname="helvetica"] ;
0 [label="20_C <= 0.5\nentropy = 1.0\nsamples = 38028\nvalue = [30138, 30207]\nclass = Plant", fillcolor="#ffffff"] ;
1 [label="8_G <= 0.5\nentropy = 0.995\nsamples = 28073\nvalue = [24125, 20322]\nclass = Animal", fillcolor="#fbebe0"] ;
0 -> 1 [labeldistance=2.5, labelangle=45, headlabel="True"] ;
2 [label="22_G <= 0.5\nentropy = 0.967\nsamples = 18931\nvalue = [18233, 11825]\nclass = Animal", fillcolor="#f6d3b9"] ;
1 -> 2 ;
3 [label="9_U <= 0.5\nentropy = 0.987\nsamples = 16215\nvalue = [14664, 11146]\nclass = Animal", fillcolor="#f9e1cf"] ;
2 -> 3 ;
4 [label="(...)", fillcolor="#C0C0C0"] ;
3 -> 4 ;
6037 [label="(...)", fillcolor="#C0C0C0"] ;
3 -> 6037 ;
8434 [label="4_C <= 0.5\nentropy = 0.634\nsamples = 2716\nvalue = [3569, 679]\nclass = Animal", fillcolor="#ea995f"] ;
2 -> 8434 ;
8435 [label="(...)", fillcolor="#C0C0C0"] ;
8434 -> 8435 ;
9180 [label="(...)", fillcolor="#C0C0C0"] ;
8434 -> 9180 ;
9419 [label="19_C <= 0.5\nentropy = 0.976\nsamples = 9142\nvalue = [5892, 8497]\nclass = Plant", fillcolor="#c2e1f7"] ;
1 -> 9419 ;
9420 [label="14_C <= 0.5\nentropy = 0.995\nsamples = 5719\nvalue = [4885, 4146]\nclass = Animal", fillcolor="#fbece1"] ;
9419 -> 9420 ;
9421 [label="(...)", fillcolor="#C0C0C0"] ;
9420 -> 9421 ;
11656 [label="(...)", fillcolor="#C0C0C0"] ;
9420 -> 11656 ;
12169 [label="1_A <= 0.5\nentropy = 0.697\nsamples = 3423\nvalue = [1007, 4351]\nclass = Plant", fillcolor="#67b4eb"] ;
9419 -> 12169 ;
12170 [label="(...)", fillcolor="#C0C0C0"] ;
12169 -> 12170 ;
12833 [label="(...)", fillcolor="#C0C0C0"] ;
12169 -> 12833 ;
13008 [label="22_U <= 0.5\nentropy = 0.957\nsamples = 9955\nvalue = [6013, 9885]\nclass = Plant", fillcolor="#b1d9f5"] ;
0 -> 13008 [labeldistance=2.5, labelangle=-45, headlabel="False"] ;
13009 [label="22_C <= 0.5\nentropy = 0.923\nsamples = 8971\nvalue = [4844, 9485]\nclass = Plant", fillcolor="#9ecff2"] ;
13008 -> 13009 ;
13010 [label="1_U <= 0.5\nentropy = 0.89\nsamples = 8284\nvalue = [4044, 9132]\nclass = Plant", fillcolor="#91c8f1"] ;
13009 -> 13010 ;
13011 [label="(...)", fillcolor="#C0C0C0"] ;
13010 -> 13011 ;
14746 [label="(...)", fillcolor="#C0C0C0"] ;
13010 -> 14746 ;
16083 [label="8_U <= 0.5\nentropy = 0.889\nsamples = 687\nvalue = [800, 353]\nclass = Animal", fillcolor="#f0b990"] ;
13009 -> 16083 ;
16084 [label="(...)", fillcolor="#C0C0C0"] ;
16083 -> 16084 ;
16363 [label="(...)", fillcolor="#C0C0C0"] ;
16083 -> 16363 ;
16434 [label="2_C <= 0.5\nentropy = 0.819\nsamples = 984\nvalue = [1169, 400]\nclass = Animal", fillcolor="#eeac7d"] ;
13008 -> 16434 ;
16435 [label="21_A <= 0.5\nentropy = 0.758\nsamples = 772\nvalue = [961, 269]\nclass = Animal", fillcolor="#eca470"] ;
16434 -> 16435 ;
16436 [label="(...)", fillcolor="#C0C0C0"] ;
16435 -> 16436 ;
16719 [label="(...)", fillcolor="#C0C0C0"] ;
16435 -> 16719 ;
16834 [label="1_A <= 0.5\nentropy = 0.962\nsamples = 212\nvalue = [208, 131]\nclass = Animal", fillcolor="#f5d0b6"] ;
16434 -> 16834 ;
16835 [label="(...)", fillcolor="#C0C0C0"] ;
16834 -> 16835 ;
16930 [label="(...)", fillcolor="#C0C0C0"] ;
16834 -> 16930 ;
}