digraph Tree {
node [shape=box, style="filled, rounded", color="black", fontname="helvetica"] ;
edge [fontname="helvetica"] ;
0 [label="9_U <= 0.5\nentropy = 1.0\nsamples = 38188\nvalue = [30187, 30158]\nclass = Animal", fillcolor="#ffffff"] ;
1 [label="20_C <= 0.5\nentropy = 0.994\nsamples = 27446\nvalue = [19740, 23642]\nclass = Plant", fillcolor="#deeffb"] ;
0 -> 1 [labeldistance=2.5, labelangle=45, headlabel="True"] ;
2 [label="22_U <= 0.5\nentropy = 1.0\nsamples = 19969\nvalue = [15619, 15888]\nclass = Plant", fillcolor="#fcfdff"] ;
1 -> 2 ;
3 [label="17_A <= 0.5\nentropy = 0.993\nsamples = 17344\nvalue = [12266, 15038]\nclass = Plant", fillcolor="#dbedfa"] ;
2 -> 3 ;
4 [label="(...)", fillcolor="#C0C0C0"] ;
3 -> 4 ;
6517 [label="(...)", fillcolor="#C0C0C0"] ;
3 -> 6517 ;
8388 [label="1_A <= 0.5\nentropy = 0.726\nsamples = 2625\nvalue = [3353, 850]\nclass = Animal", fillcolor="#eca16b"] ;
2 -> 8388 ;
8389 [label="(...)", fillcolor="#C0C0C0"] ;
8388 -> 8389 ;
9196 [label="(...)", fillcolor="#C0C0C0"] ;
8388 -> 9196 ;
9439 [label="14_G <= 0.5\nentropy = 0.931\nsamples = 7477\nvalue = [4121, 7754]\nclass = Plant", fillcolor="#a2d1f3"] ;
1 -> 9439 ;
9440 [label="10_A <= 0.5\nentropy = 0.876\nsamples = 6043\nvalue = [2841, 6755]\nclass = Plant", fillcolor="#8cc6f0"] ;
9439 -> 9440 ;
9441 [label="(...)", fillcolor="#C0C0C0"] ;
9440 -> 9441 ;
11060 [label="(...)", fillcolor="#C0C0C0"] ;
9440 -> 11060 ;
11621 [label="15_A <= 0.5\nentropy = 0.989\nsamples = 1434\nvalue = [1280, 999]\nclass = Animal", fillcolor="#f9e3d4"] ;
9439 -> 11621 ;
11622 [label="(...)", fillcolor="#C0C0C0"] ;
11621 -> 11622 ;
12167 [label="(...)", fillcolor="#C0C0C0"] ;
11621 -> 12167 ;
12340 [label="7_G <= 0.5\nentropy = 0.961\nsamples = 10742\nvalue = [10447, 6516]\nclass = Animal", fillcolor="#f5d0b4"] ;
0 -> 12340 [labeldistance=2.5, labelangle=-45, headlabel="False"] ;
12341 [label="23_C <= 0.5\nentropy = 0.928\nsamples = 7930\nvalue = [8177, 4266]\nclass = Animal", fillcolor="#f3c3a0"] ;
12340 -> 12341 ;
12342 [label="14_U <= 0.5\nentropy = 0.938\nsamples = 7567\nvalue = [7659, 4214]\nclass = Animal", fillcolor="#f3c6a6"] ;
12341 -> 12342 ;
12343 [label="(...)", fillcolor="#C0C0C0"] ;
12342 -> 12343 ;
14856 [label="(...)", fillcolor="#C0C0C0"] ;
12342 -> 14856 ;
15807 [label="2_G <= 0.5\nentropy = 0.441\nsamples = 363\nvalue = [518, 52]\nclass = Animal", fillcolor="#e88e4d"] ;
12341 -> 15807 ;
15808 [label="(...)", fillcolor="#C0C0C0"] ;
15807 -> 15808 ;
15867 [label="(...)", fillcolor="#C0C0C0"] ;
15807 -> 15867 ;
15890 [label="10_C <= 0.5\nentropy = 1.0\nsamples = 2812\nvalue = [2270, 2250]\nclass = Animal", fillcolor="#fffefd"] ;
12340 -> 15890 ;
15891 [label="22_U <= 0.5\nentropy = 0.994\nsamples = 2007\nvalue = [1765, 1468]\nclass = Animal", fillcolor="#fbeade"] ;
15890 -> 15891 ;
15892 [label="(...)", fillcolor="#C0C0C0"] ;
15891 -> 15892 ;
16709 [label="(...)", fillcolor="#C0C0C0"] ;
15891 -> 16709 ;
16798 [label="19_C <= 0.5\nentropy = 0.966\nsamples = 805\nvalue = [505, 782]\nclass = Plant", fillcolor="#b9dcf6"] ;
15890 -> 16798 ;
16799 [label="(...)", fillcolor="#C0C0C0"] ;
16798 -> 16799 ;
17022 [label="(...)", fillcolor="#C0C0C0"] ;
16798 -> 17022 ;
}