digraph Tree {
node [shape=box, style="filled, rounded", color="black", fontname="helvetica"] ;
edge [fontname="helvetica"] ;
0 [label="20_C <= 0.5\nentropy = 1.0\nsamples = 38272\nvalue = [29965, 30380]\nclass = Plant", fillcolor="#fcfeff"] ;
1 [label="22_U <= 0.5\nentropy = 0.996\nsamples = 28207\nvalue = [23898, 20520]\nclass = Animal", fillcolor="#fbede3"] ;
0 -> 1 [labeldistance=2.5, labelangle=45, headlabel="True"] ;
2 [label="23_C <= 0.5\nentropy = 1.0\nsamples = 24072\nvalue = [18497, 19472]\nclass = Plant", fillcolor="#f5fafe"] ;
1 -> 2 ;
3 [label="2_A <= 0.5\nentropy = 0.999\nsamples = 23315\nvalue = [17581, 19175]\nclass = Plant", fillcolor="#eff7fd"] ;
2 -> 3 ;
4 [label="(...)", fillcolor="#C0C0C0"] ;
3 -> 4 ;
8009 [label="(...)", fillcolor="#C0C0C0"] ;
3 -> 8009 ;
10786 [label="24_G <= 0.5\nentropy = 0.803\nsamples = 757\nvalue = [916, 297]\nclass = Animal", fillcolor="#edaa79"] ;
2 -> 10786 ;
10787 [label="(...)", fillcolor="#C0C0C0"] ;
10786 -> 10787 ;
11098 [label="(...)", fillcolor="#C0C0C0"] ;
10786 -> 11098 ;
11137 [label="17_C <= 0.5\nentropy = 0.64\nsamples = 4135\nvalue = [5401, 1048]\nclass = Animal", fillcolor="#ea995f"] ;
1 -> 11137 ;
11138 [label="24_G <= 0.5\nentropy = 0.694\nsamples = 3220\nvalue = [4112, 943]\nclass = Animal", fillcolor="#eb9e66"] ;
11137 -> 11138 ;
11139 [label="(...)", fillcolor="#C0C0C0"] ;
11138 -> 11139 ;
12298 [label="(...)", fillcolor="#C0C0C0"] ;
11138 -> 12298 ;
12351 [label="7_C <= 0.5\nentropy = 0.385\nsamples = 915\nvalue = [1289, 105]\nclass = Animal", fillcolor="#e78b49"] ;
11137 -> 12351 ;
12352 [label="(...)", fillcolor="#C0C0C0"] ;
12351 -> 12352 ;
12563 [label="(...)", fillcolor="#C0C0C0"] ;
12351 -> 12563 ;
12602 [label="9_G <= 0.5\nentropy = 0.959\nsamples = 10065\nvalue = [6067, 9860]\nclass = Plant", fillcolor="#b3d9f5"] ;
0 -> 12602 [labeldistance=2.5, labelangle=-45, headlabel="False"] ;
12603 [label="11_U <= 0.5\nentropy = 0.986\nsamples = 6835\nvalue = [4656, 6150]\nclass = Plant", fillcolor="#cfe7f9"] ;
12602 -> 12603 ;
12604 [label="19_C <= 0.5\nentropy = 0.962\nsamples = 5315\nvalue = [3254, 5184]\nclass = Plant", fillcolor="#b5dbf5"] ;
12603 -> 12604 ;
12605 [label="(...)", fillcolor="#C0C0C0"] ;
12604 -> 12605 ;
14328 [label="(...)", fillcolor="#C0C0C0"] ;
12604 -> 14328 ;
14803 [label="1_C <= 0.5\nentropy = 0.975\nsamples = 1520\nvalue = [1402, 966]\nclass = Animal", fillcolor="#f7d8c1"] ;
12603 -> 14803 ;
14804 [label="(...)", fillcolor="#C0C0C0"] ;
14803 -> 14804 ;
15427 [label="(...)", fillcolor="#C0C0C0"] ;
14803 -> 15427 ;
15586 [label="8_U <= 0.5\nentropy = 0.849\nsamples = 3230\nvalue = [1411, 3710]\nclass = Plant", fillcolor="#84c2ef"] ;
12602 -> 15586 ;
15587 [label="1_C <= 0.5\nentropy = 0.756\nsamples = 2505\nvalue = [865, 3108]\nclass = Plant", fillcolor="#70b8ec"] ;
15586 -> 15587 ;
15588 [label="(...)", fillcolor="#C0C0C0"] ;
15587 -> 15588 ;
16115 [label="(...)", fillcolor="#C0C0C0"] ;
15587 -> 16115 ;
16260 [label="5_G <= 0.5\nentropy = 0.998\nsamples = 725\nvalue = [546, 602]\nclass = Plant", fillcolor="#edf6fd"] ;
15586 -> 16260 ;
16261 [label="(...)", fillcolor="#C0C0C0"] ;
16260 -> 16261 ;
16500 [label="(...)", fillcolor="#C0C0C0"] ;
16260 -> 16500 ;
}