digraph Tree {
node [shape=box, style="filled, rounded", color="black", fontname="helvetica"] ;
edge [fontname="helvetica"] ;
0 [label="2_U <= 0.5\nentropy = 1.0\nsamples = 38090\nvalue = [30206, 30139]\nclass = Animal", fillcolor="#ffffff"] ;
1 [label="22_G <= 0.5\nentropy = 0.998\nsamples = 28460\nvalue = [23662, 21401]\nclass = Animal", fillcolor="#fdf3ec"] ;
0 -> 1 [labeldistance=2.5, labelangle=45, headlabel="True"] ;
2 [label="10_A <= 0.5\nentropy = 0.999\nsamples = 24433\nvalue = [18487, 20163]\nclass = Plant", fillcolor="#eff7fd"] ;
1 -> 2 ;
3 [label="20_G <= 0.5\nentropy = 0.998\nsamples = 16980\nvalue = [14156, 12707]\nclass = Animal", fillcolor="#fcf2eb"] ;
2 -> 3 ;
4 [label="(...)", fillcolor="#C0C0C0"] ;
3 -> 4 ;
6183 [label="(...)", fillcolor="#C0C0C0"] ;
3 -> 6183 ;
8304 [label="6_A <= 0.5\nentropy = 0.949\nsamples = 7453\nvalue = [4331, 7456]\nclass = Plant", fillcolor="#acd6f4"] ;
2 -> 8304 ;
8305 [label="(...)", fillcolor="#C0C0C0"] ;
8304 -> 8305 ;
10278 [label="(...)", fillcolor="#C0C0C0"] ;
8304 -> 10278 ;
10911 [label="9_U <= 0.5\nentropy = 0.708\nsamples = 4027\nvalue = [5175, 1238]\nclass = Animal", fillcolor="#eb9f68"] ;
1 -> 10911 ;
10912 [label="26_U <= 0.5\nentropy = 0.798\nsamples = 2486\nvalue = [2995, 955]\nclass = Animal", fillcolor="#eda978"] ;
10911 -> 10912 ;
10913 [label="(...)", fillcolor="#C0C0C0"] ;
10912 -> 10913 ;
11900 [label="(...)", fillcolor="#C0C0C0"] ;
10912 -> 11900 ;
11903 [label="1_U <= 0.5\nentropy = 0.515\nsamples = 1541\nvalue = [2180, 283]\nclass = Animal", fillcolor="#e89153"] ;
10911 -> 11903 ;
11904 [label="(...)", fillcolor="#C0C0C0"] ;
11903 -> 11904 ;
12189 [label="(...)", fillcolor="#C0C0C0"] ;
11903 -> 12189 ;
12330 [label="23_U <= 0.5\nentropy = 0.985\nsamples = 9630\nvalue = [6544, 8738]\nclass = Plant", fillcolor="#cde6f8"] ;
0 -> 12330 [labeldistance=2.5, labelangle=-45, headlabel="False"] ;
12331 [label="9_A <= 0.5\nentropy = 0.978\nsamples = 9279\nvalue = [6083, 8633]\nclass = Plant", fillcolor="#c5e2f7"] ;
12330 -> 12331 ;
12332 [label="17_A <= 0.5\nentropy = 0.99\nsamples = 6870\nvalue = [4784, 6087]\nclass = Plant", fillcolor="#d5eaf9"] ;
12331 -> 12332 ;
12333 [label="(...)", fillcolor="#C0C0C0"] ;
12332 -> 12333 ;
14788 [label="(...)", fillcolor="#C0C0C0"] ;
12332 -> 14788 ;
15443 [label="20_G <= 0.5\nentropy = 0.923\nsamples = 2409\nvalue = [1299, 2546]\nclass = Plant", fillcolor="#9ecff2"] ;
12331 -> 15443 ;
15444 [label="(...)", fillcolor="#C0C0C0"] ;
15443 -> 15444 ;
16177 [label="(...)", fillcolor="#C0C0C0"] ;
15443 -> 16177 ;
16396 [label="15_C <= 0.5\nentropy = 0.692\nsamples = 351\nvalue = [461, 105]\nclass = Animal", fillcolor="#eb9e66"] ;
12330 -> 16396 ;
16397 [label="9_U <= 0.5\nentropy = 0.621\nsamples = 272\nvalue = [378, 69]\nclass = Animal", fillcolor="#ea985d"] ;
16396 -> 16397 ;
16398 [label="(...)", fillcolor="#C0C0C0"] ;
16397 -> 16398 ;
16493 [label="(...)", fillcolor="#C0C0C0"] ;
16397 -> 16493 ;
16530 [label="8_G <= 0.5\nentropy = 0.884\nsamples = 79\nvalue = [83, 36]\nclass = Animal", fillcolor="#f0b88f"] ;
16396 -> 16530 ;
16531 [label="(...)", fillcolor="#C0C0C0"] ;
16530 -> 16531 ;
16568 [label="(...)", fillcolor="#C0C0C0"] ;
16530 -> 16568 ;
}