digraph Tree {
node [shape=box, style="filled, rounded", color="black", fontname="helvetica"] ;
edge [fontname="helvetica"] ;
0 [label="10_A <= 0.5\nentropy = 1.0\nsamples = 38139\nvalue = [30359, 29986]\nclass = Animal", fillcolor="#fffdfd"] ;
1 [label="2_U <= 0.5\nentropy = 0.996\nsamples = 27340\nvalue = [23188, 20055]\nclass = Animal", fillcolor="#fbeee4"] ;
0 -> 1 [labeldistance=2.5, labelangle=45, headlabel="True"] ;
2 [label="22_C <= 0.5\nentropy = 0.985\nsamples = 19973\nvalue = [18041, 13549]\nclass = Animal", fillcolor="#f9e0ce"] ;
1 -> 2 ;
3 [label="1_U <= 0.5\nentropy = 0.991\nsamples = 17870\nvalue = [15696, 12592]\nclass = Animal", fillcolor="#fae6d8"] ;
2 -> 3 ;
4 [label="(...)", fillcolor="#C0C0C0"] ;
3 -> 4 ;
4849 [label="(...)", fillcolor="#C0C0C0"] ;
3 -> 4849 ;
8472 [label="24_G <= 0.5\nentropy = 0.868\nsamples = 2103\nvalue = [2345, 957]\nclass = Animal", fillcolor="#f0b48a"] ;
2 -> 8472 ;
8473 [label="(...)", fillcolor="#C0C0C0"] ;
8472 -> 8473 ;
9468 [label="(...)", fillcolor="#C0C0C0"] ;
8472 -> 9468 ;
9529 [label="1_A <= 0.5\nentropy = 0.99\nsamples = 7367\nvalue = [5147, 6506]\nclass = Plant", fillcolor="#d6ebfa"] ;
1 -> 9529 ;
9530 [label="13_U <= 0.5\nentropy = 0.975\nsamples = 6179\nvalue = [3969, 5782]\nclass = Plant", fillcolor="#c1e0f7"] ;
9529 -> 9530 ;
9531 [label="(...)", fillcolor="#C0C0C0"] ;
9530 -> 9531 ;
11396 [label="(...)", fillcolor="#C0C0C0"] ;
9530 -> 11396 ;
12097 [label="12_G <= 0.5\nentropy = 0.959\nsamples = 1188\nvalue = [1178, 724]\nclass = Animal", fillcolor="#f5ceb3"] ;
9529 -> 12097 ;
12098 [label="(...)", fillcolor="#C0C0C0"] ;
12097 -> 12098 ;
12657 [label="(...)", fillcolor="#C0C0C0"] ;
12097 -> 12657 ;
12816 [label="13_U <= 0.5\nentropy = 0.981\nsamples = 10799\nvalue = [7171, 9931]\nclass = Plant", fillcolor="#c8e4f8"] ;
0 -> 12816 [labeldistance=2.5, labelangle=-45, headlabel="False"] ;
12817 [label="22_G <= 0.5\nentropy = 0.954\nsamples = 8182\nvalue = [4853, 8115]\nclass = Plant", fillcolor="#afd8f5"] ;
12816 -> 12817 ;
12818 [label="22_A <= 0.5\nentropy = 0.904\nsamples = 7254\nvalue = [3677, 7828]\nclass = Plant", fillcolor="#96cbf1"] ;
12817 -> 12818 ;
12819 [label="(...)", fillcolor="#C0C0C0"] ;
12818 -> 12819 ;
15026 [label="(...)", fillcolor="#C0C0C0"] ;
12818 -> 15026 ;
15345 [label="4_C <= 0.5\nentropy = 0.714\nsamples = 928\nvalue = [1176, 287]\nclass = Animal", fillcolor="#eba069"] ;
12817 -> 15345 ;
15346 [label="(...)", fillcolor="#C0C0C0"] ;
15345 -> 15346 ;
15613 [label="(...)", fillcolor="#C0C0C0"] ;
15345 -> 15613 ;
15678 [label="21_G <= 0.5\nentropy = 0.989\nsamples = 2617\nvalue = [2318, 1816]\nclass = Animal", fillcolor="#f9e4d4"] ;
12816 -> 15678 ;
15679 [label="9_U <= 0.5\nentropy = 0.955\nsamples = 1888\nvalue = [1857, 1117]\nclass = Animal", fillcolor="#f5cdb0"] ;
15678 -> 15679 ;
15680 [label="(...)", fillcolor="#C0C0C0"] ;
15679 -> 15680 ;
16471 [label="(...)", fillcolor="#C0C0C0"] ;
15679 -> 16471 ;
16702 [label="3_C <= 0.5\nentropy = 0.969\nsamples = 729\nvalue = [461, 699]\nclass = Plant", fillcolor="#bcdef6"] ;
15678 -> 16702 ;
16703 [label="(...)", fillcolor="#C0C0C0"] ;
16702 -> 16703 ;
16916 [label="(...)", fillcolor="#C0C0C0"] ;
16702 -> 16916 ;
}