digraph Tree {
node [shape=box, style="filled, rounded", color="black", fontname="helvetica"] ;
edge [fontname="helvetica"] ;
0 [label="22_U <= 0.5\nentropy = 1.0\nsamples = 37989\nvalue = [30172, 30173]\nclass = Plant", fillcolor="#ffffff"] ;
1 [label="22_C <= 0.5\nentropy = 0.993\nsamples = 32915\nvalue = [23438, 28725]\nclass = Plant", fillcolor="#dbedfa"] ;
0 -> 1 [labeldistance=2.5, labelangle=45, headlabel="True"] ;
2 [label="22_G <= 0.5\nentropy = 0.98\nsamples = 29187\nvalue = [19273, 26964]\nclass = Plant", fillcolor="#c7e3f8"] ;
1 -> 2 ;
3 [label="8_C <= 0.5\nentropy = 0.93\nsamples = 24275\nvalue = [13316, 25232]\nclass = Plant", fillcolor="#a1d1f3"] ;
2 -> 3 ;
4 [label="(...)", fillcolor="#C0C0C0"] ;
3 -> 4 ;
8245 [label="(...)", fillcolor="#C0C0C0"] ;
3 -> 8245 ;
10664 [label="8_G <= 0.5\nentropy = 0.77\nsamples = 4912\nvalue = [5957, 1732]\nclass = Animal", fillcolor="#eda673"] ;
2 -> 10664 ;
10665 [label="(...)", fillcolor="#C0C0C0"] ;
10664 -> 10665 ;
12036 [label="(...)", fillcolor="#C0C0C0"] ;
10664 -> 12036 ;
12601 [label="2_C <= 0.5\nentropy = 0.878\nsamples = 3728\nvalue = [4165, 1761]\nclass = Animal", fillcolor="#f0b68d"] ;
1 -> 12601 ;
12602 [label="23_U <= 0.5\nentropy = 0.858\nsamples = 2833\nvalue = [3261, 1281]\nclass = Animal", fillcolor="#efb287"] ;
12601 -> 12602 ;
12603 [label="(...)", fillcolor="#C0C0C0"] ;
12602 -> 12603 ;
13966 [label="(...)", fillcolor="#C0C0C0"] ;
12602 -> 13966 ;
14113 [label="15_A <= 0.5\nentropy = 0.931\nsamples = 895\nvalue = [904, 480]\nclass = Animal", fillcolor="#f3c4a2"] ;
12601 -> 14113 ;
14114 [label="(...)", fillcolor="#C0C0C0"] ;
14113 -> 14114 ;
14431 [label="(...)", fillcolor="#C0C0C0"] ;
14113 -> 14431 ;
14546 [label="9_U <= 0.5\nentropy = 0.673\nsamples = 5074\nvalue = [6734, 1448]\nclass = Animal", fillcolor="#eb9c64"] ;
0 -> 14546 [labeldistance=2.5, labelangle=-45, headlabel="False"] ;
14547 [label="20_U <= 0.5\nentropy = 0.741\nsamples = 3288\nvalue = [4191, 1113]\nclass = Animal", fillcolor="#eca26e"] ;
14546 -> 14547 ;
14548 [label="19_C <= 0.5\nentropy = 0.801\nsamples = 2241\nvalue = [2748, 886]\nclass = Animal", fillcolor="#edaa79"] ;
14547 -> 14548 ;
14549 [label="(...)", fillcolor="#C0C0C0"] ;
14548 -> 14549 ;
15326 [label="(...)", fillcolor="#C0C0C0"] ;
14548 -> 15326 ;
15595 [label="12_C <= 0.5\nentropy = 0.573\nsamples = 1047\nvalue = [1443, 227]\nclass = Animal", fillcolor="#e99558"] ;
14547 -> 15595 ;
15596 [label="(...)", fillcolor="#C0C0C0"] ;
15595 -> 15596 ;
15849 [label="(...)", fillcolor="#C0C0C0"] ;
15595 -> 15849 ;
15924 [label="2_U <= 0.5\nentropy = 0.519\nsamples = 1786\nvalue = [2543, 335]\nclass = Animal", fillcolor="#e89253"] ;
14546 -> 15924 ;
15925 [label="18_G <= 0.5\nentropy = 0.458\nsamples = 1536\nvalue = [2237, 239]\nclass = Animal", fillcolor="#e88e4e"] ;
15924 -> 15925 ;
15926 [label="(...)", fillcolor="#C0C0C0"] ;
15925 -> 15926 ;
16181 [label="(...)", fillcolor="#C0C0C0"] ;
15925 -> 16181 ;
16308 [label="23_G <= 0.5\nentropy = 0.793\nsamples = 250\nvalue = [306, 96]\nclass = Animal", fillcolor="#eda977"] ;
15924 -> 16308 ;
16309 [label="(...)", fillcolor="#C0C0C0"] ;
16308 -> 16309 ;
16452 [label="(...)", fillcolor="#C0C0C0"] ;
16308 -> 16452 ;
}