digraph Tree {
node [shape=box, style="filled, rounded", color="black", fontname="helvetica"] ;
edge [fontname="helvetica"] ;
0 [label="23_U <= 0.5\nentropy = 1.0\nsamples = 38154\nvalue = [30237, 30108]\nclass = Animal", fillcolor="#fffefe"] ;
1 [label="22_G <= 0.5\nentropy = 0.999\nsamples = 36239\nvalue = [27700, 29601]\nclass = Plant", fillcolor="#f2f9fd"] ;
0 -> 1 [labeldistance=2.5, labelangle=45, headlabel="True"] ;
2 [label="10_A <= 0.5\nentropy = 0.992\nsamples = 31991\nvalue = [22552, 28028]\nclass = Plant", fillcolor="#d8ecfa"] ;
1 -> 2 ;
3 [label="23_C <= 0.5\nentropy = 0.999\nsamples = 22669\nvalue = [17356, 18565]\nclass = Plant", fillcolor="#f2f9fd"] ;
2 -> 3 ;
4 [label="(...)", fillcolor="#C0C0C0"] ;
3 -> 4 ;
10243 [label="(...)", fillcolor="#C0C0C0"] ;
3 -> 10243 ;
10614 [label="19_C <= 0.5\nentropy = 0.938\nsamples = 9322\nvalue = [5196, 9463]\nclass = Plant", fillcolor="#a6d3f3"] ;
2 -> 10614 ;
10615 [label="(...)", fillcolor="#C0C0C0"] ;
10614 -> 10615 ;
13288 [label="(...)", fillcolor="#C0C0C0"] ;
10614 -> 13288 ;
14131 [label="8_G <= 0.5\nentropy = 0.785\nsamples = 4248\nvalue = [5148, 1573]\nclass = Animal", fillcolor="#eda876"] ;
1 -> 14131 ;
14132 [label="21_C <= 0.5\nentropy = 0.732\nsamples = 3169\nvalue = [3990, 1030]\nclass = Animal", fillcolor="#eca26c"] ;
14131 -> 14132 ;
14133 [label="(...)", fillcolor="#C0C0C0"] ;
14132 -> 14133 ;
15256 [label="(...)", fillcolor="#C0C0C0"] ;
14132 -> 15256 ;
15413 [label="13_A <= 0.5\nentropy = 0.904\nsamples = 1079\nvalue = [1158, 543]\nclass = Animal", fillcolor="#f1bc96"] ;
14131 -> 15413 ;
15414 [label="(...)", fillcolor="#C0C0C0"] ;
15413 -> 15414 ;
15815 [label="(...)", fillcolor="#C0C0C0"] ;
15413 -> 15815 ;
15956 [label="5_U <= 0.5\nentropy = 0.65\nsamples = 1915\nvalue = [2537, 507]\nclass = Animal", fillcolor="#ea9a61"] ;
0 -> 15956 [labeldistance=2.5, labelangle=-45, headlabel="False"] ;
15957 [label="17_G <= 0.5\nentropy = 0.683\nsamples = 1362\nvalue = [1768, 392]\nclass = Animal", fillcolor="#eb9d65"] ;
15956 -> 15957 ;
15958 [label="14_G <= 0.5\nentropy = 0.587\nsamples = 998\nvalue = [1339, 220]\nclass = Animal", fillcolor="#e9965a"] ;
15957 -> 15958 ;
15959 [label="(...)", fillcolor="#C0C0C0"] ;
15958 -> 15959 ;
16232 [label="(...)", fillcolor="#C0C0C0"] ;
15958 -> 16232 ;
16331 [label="14_G <= 0.5\nentropy = 0.864\nsamples = 364\nvalue = [429, 172]\nclass = Animal", fillcolor="#efb488"] ;
15957 -> 16331 ;
16332 [label="(...)", fillcolor="#C0C0C0"] ;
16331 -> 16332 ;
16449 [label="(...)", fillcolor="#C0C0C0"] ;
16331 -> 16449 ;
16510 [label="20_A <= 0.5\nentropy = 0.558\nsamples = 553\nvalue = [769, 115]\nclass = Animal", fillcolor="#e99457"] ;
15956 -> 16510 ;
16511 [label="21_A <= 0.5\nentropy = 0.474\nsamples = 451\nvalue = [655, 74]\nclass = Animal", fillcolor="#e88f4f"] ;
16510 -> 16511 ;
16512 [label="(...)", fillcolor="#C0C0C0"] ;
16511 -> 16512 ;
16649 [label="(...)", fillcolor="#C0C0C0"] ;
16511 -> 16649 ;
16656 [label="15_G <= 0.5\nentropy = 0.833\nsamples = 102\nvalue = [114, 41]\nclass = Animal", fillcolor="#eeae80"] ;
16510 -> 16656 ;
16657 [label="(...)", fillcolor="#C0C0C0"] ;
16656 -> 16657 ;
16682 [label="(...)", fillcolor="#C0C0C0"] ;
16656 -> 16682 ;
}