digraph Tree {
node [shape=box, style="filled, rounded", color="black", fontname="helvetica"] ;
edge [fontname="helvetica"] ;
0 [label="18_C <= 0.5\nentropy = 1.0\nsamples = 38266\nvalue = [30136, 30209]\nclass = Plant", fillcolor="#ffffff"] ;
1 [label="23_U <= 0.5\nentropy = 0.997\nsamples = 27950\nvalue = [23568, 20511]\nclass = Animal", fillcolor="#fcefe5"] ;
0 -> 1 [labeldistance=2.5, labelangle=45, headlabel="True"] ;
2 [label="9_A <= 0.5\nentropy = 0.999\nsamples = 26349\nvalue = [21527, 20074]\nclass = Animal", fillcolor="#fdf6f2"] ;
1 -> 2 ;
3 [label="19_U <= 0.5\nentropy = 0.998\nsamples = 20642\nvalue = [17073, 15482]\nclass = Animal", fillcolor="#fdf3ed"] ;
2 -> 3 ;
4 [label="(...)", fillcolor="#C0C0C0"] ;
3 -> 4 ;
7155 [label="(...)", fillcolor="#C0C0C0"] ;
3 -> 7155 ;
9456 [label="18_G <= 0.5\nentropy = 1.0\nsamples = 5707\nvalue = [4454, 4592]\nclass = Plant", fillcolor="#f9fcfe"] ;
2 -> 9456 ;
9457 [label="(...)", fillcolor="#C0C0C0"] ;
9456 -> 9457 ;
11418 [label="(...)", fillcolor="#C0C0C0"] ;
9456 -> 11418 ;
12479 [label="3_U <= 0.5\nentropy = 0.672\nsamples = 1601\nvalue = [2041, 437]\nclass = Animal", fillcolor="#eb9c63"] ;
1 -> 12479 ;
12480 [label="9_C <= 0.5\nentropy = 0.588\nsamples = 1230\nvalue = [1614, 266]\nclass = Animal", fillcolor="#e9965a"] ;
12479 -> 12480 ;
12481 [label="(...)", fillcolor="#C0C0C0"] ;
12480 -> 12481 ;
12822 [label="(...)", fillcolor="#C0C0C0"] ;
12480 -> 12822 ;
12907 [label="19_C <= 0.5\nentropy = 0.863\nsamples = 371\nvalue = [427, 171]\nclass = Animal", fillcolor="#efb388"] ;
12479 -> 12907 ;
12908 [label="(...)", fillcolor="#C0C0C0"] ;
12907 -> 12908 ;
13041 [label="(...)", fillcolor="#C0C0C0"] ;
12907 -> 13041 ;
13084 [label="8_G <= 0.5\nentropy = 0.973\nsamples = 10316\nvalue = [6568, 9698]\nclass = Plant", fillcolor="#bfdff7"] ;
0 -> 13084 [labeldistance=2.5, labelangle=-45, headlabel="False"] ;
13085 [label="15_A <= 0.5\nentropy = 0.997\nsamples = 6823\nvalue = [5032, 5761]\nclass = Plant", fillcolor="#e6f3fc"] ;
13084 -> 13085 ;
13086 [label="12_U <= 0.5\nentropy = 0.999\nsamples = 4863\nvalue = [4007, 3695]\nclass = Animal", fillcolor="#fdf5f0"] ;
13085 -> 13086 ;
13087 [label="(...)", fillcolor="#C0C0C0"] ;
13086 -> 13087 ;
14648 [label="(...)", fillcolor="#C0C0C0"] ;
13086 -> 14648 ;
15211 [label="5_A <= 0.5\nentropy = 0.917\nsamples = 1960\nvalue = [1025, 2066]\nclass = Plant", fillcolor="#9bcef2"] ;
13085 -> 15211 ;
15212 [label="(...)", fillcolor="#C0C0C0"] ;
15211 -> 15212 ;
15687 [label="(...)", fillcolor="#C0C0C0"] ;
15211 -> 15687 ;
15898 [label="2_C <= 0.5\nentropy = 0.856\nsamples = 3493\nvalue = [1536, 3937]\nclass = Plant", fillcolor="#86c3ef"] ;
13084 -> 15898 ;
15899 [label="19_U <= 0.5\nentropy = 0.777\nsamples = 3067\nvalue = [1107, 3714]\nclass = Plant", fillcolor="#74baed"] ;
15898 -> 15899 ;
15900 [label="(...)", fillcolor="#C0C0C0"] ;
15899 -> 15900 ;
16465 [label="(...)", fillcolor="#C0C0C0"] ;
15899 -> 16465 ;
16696 [label="22_U <= 0.5\nentropy = 0.927\nsamples = 426\nvalue = [429, 223]\nclass = Animal", fillcolor="#f3c2a0"] ;
15898 -> 16696 ;
16697 [label="(...)", fillcolor="#C0C0C0"] ;
16696 -> 16697 ;
16896 [label="(...)", fillcolor="#C0C0C0"] ;
16696 -> 16896 ;
}