digraph Tree {
node [shape=box, style="filled, rounded", color="black", fontname="helvetica"] ;
edge [fontname="helvetica"] ;
0 [label="3_U <= 0.5\nentropy = 1.0\nsamples = 38247\nvalue = [30154, 30191]\nclass = Plant", fillcolor="#ffffff"] ;
1 [label="22_G <= 0.5\nentropy = 0.999\nsamples = 30060\nvalue = [22934, 24489]\nclass = Plant", fillcolor="#f2f9fd"] ;
0 -> 1 [labeldistance=2.5, labelangle=45, headlabel="True"] ;
2 [label="6_U <= 0.5\nentropy = 0.991\nsamples = 26426\nvalue = [18510, 23221]\nclass = Plant", fillcolor="#d7ebfa"] ;
1 -> 2 ;
3 [label="15_C <= 0.5\nentropy = 0.974\nsamples = 20540\nvalue = [13164, 19252]\nclass = Plant", fillcolor="#c0e0f7"] ;
2 -> 3 ;
4 [label="(...)", fillcolor="#C0C0C0"] ;
3 -> 4 ;
6341 [label="(...)", fillcolor="#C0C0C0"] ;
3 -> 6341 ;
8102 [label="5_G <= 0.5\nentropy = 0.984\nsamples = 5886\nvalue = [5346, 3969]\nclass = Animal", fillcolor="#f8dfcc"] ;
2 -> 8102 ;
8103 [label="(...)", fillcolor="#C0C0C0"] ;
8102 -> 8103 ;
10218 [label="(...)", fillcolor="#C0C0C0"] ;
8102 -> 10218 ;
11021 [label="21_A <= 0.5\nentropy = 0.765\nsamples = 3634\nvalue = [4424, 1268]\nclass = Animal", fillcolor="#eca572"] ;
1 -> 11021 ;
11022 [label="25_A <= 0.5\nentropy = 0.799\nsamples = 2731\nvalue = [3252, 1041]\nclass = Animal", fillcolor="#eda978"] ;
11021 -> 11022 ;
11023 [label="(...)", fillcolor="#C0C0C0"] ;
11022 -> 11023 ;
12122 [label="(...)", fillcolor="#C0C0C0"] ;
11022 -> 12122 ;
12143 [label="8_A <= 0.5\nentropy = 0.64\nsamples = 903\nvalue = [1172, 227]\nclass = Animal", fillcolor="#ea995f"] ;
11021 -> 12143 ;
12144 [label="(...)", fillcolor="#C0C0C0"] ;
12143 -> 12144 ;
12419 [label="(...)", fillcolor="#C0C0C0"] ;
12143 -> 12419 ;
12492 [label="2_A <= 0.5\nentropy = 0.99\nsamples = 8187\nvalue = [7220, 5702]\nclass = Animal", fillcolor="#fae5d5"] ;
0 -> 12492 [labeldistance=2.5, labelangle=-45, headlabel="False"] ;
12493 [label="19_C <= 0.5\nentropy = 0.999\nsamples = 6187\nvalue = [5059, 4720]\nclass = Animal", fillcolor="#fdf7f2"] ;
12492 -> 12493 ;
12494 [label="22_U <= 0.5\nentropy = 0.99\nsamples = 4408\nvalue = [3919, 3105]\nclass = Animal", fillcolor="#fae5d6"] ;
12493 -> 12494 ;
12495 [label="(...)", fillcolor="#C0C0C0"] ;
12494 -> 12495 ;
14568 [label="(...)", fillcolor="#C0C0C0"] ;
12494 -> 14568 ;
14863 [label="6_G <= 0.5\nentropy = 0.978\nsamples = 1779\nvalue = [1140, 1615]\nclass = Plant", fillcolor="#c5e2f7"] ;
12493 -> 14863 ;
14864 [label="(...)", fillcolor="#C0C0C0"] ;
14863 -> 14864 ;
15499 [label="(...)", fillcolor="#C0C0C0"] ;
14863 -> 15499 ;
15696 [label="13_C <= 0.5\nentropy = 0.896\nsamples = 2000\nvalue = [2161, 982]\nclass = Animal", fillcolor="#f1ba93"] ;
12492 -> 15696 ;
15697 [label="23_G <= 0.5\nentropy = 0.919\nsamples = 1434\nvalue = [1518, 761]\nclass = Animal", fillcolor="#f2c09c"] ;
15696 -> 15697 ;
15698 [label="(...)", fillcolor="#C0C0C0"] ;
15697 -> 15698 ;
16425 [label="(...)", fillcolor="#C0C0C0"] ;
15697 -> 16425 ;
16464 [label="1_U <= 0.5\nentropy = 0.82\nsamples = 566\nvalue = [643, 221]\nclass = Animal", fillcolor="#eeac7d"] ;
15696 -> 16464 ;
16465 [label="(...)", fillcolor="#C0C0C0"] ;
16464 -> 16465 ;
16624 [label="(...)", fillcolor="#C0C0C0"] ;
16464 -> 16624 ;
}