digraph Tree {
node [shape=box, style="filled, rounded", color="black", fontname="helvetica"] ;
edge [fontname="helvetica"] ;
0 [label="20_G <= 0.5\nentropy = 1.0\nsamples = 38182\nvalue = [30194, 30151]\nclass = Animal", fillcolor="#ffffff"] ;
1 [label="22_A <= 0.5\nentropy = 0.997\nsamples = 29463\nvalue = [21799, 24727]\nclass = Plant", fillcolor="#e8f3fc"] ;
0 -> 1 [labeldistance=2.5, labelangle=45, headlabel="True"] ;
2 [label="20_C <= 0.5\nentropy = 0.99\nsamples = 26375\nvalue = [18396, 23334]\nclass = Plant", fillcolor="#d5eaf9"] ;
1 -> 2 ;
3 [label="19_U <= 0.5\nentropy = 0.999\nsamples = 17315\nvalue = [13136, 14223]\nclass = Plant", fillcolor="#f0f8fd"] ;
2 -> 3 ;
4 [label="(...)", fillcolor="#C0C0C0"] ;
3 -> 4 ;
6067 [label="(...)", fillcolor="#C0C0C0"] ;
3 -> 6067 ;
7754 [label="22_C <= 0.5\nentropy = 0.948\nsamples = 9060\nvalue = [5260, 9111]\nclass = Plant", fillcolor="#abd6f4"] ;
2 -> 7754 ;
7755 [label="(...)", fillcolor="#C0C0C0"] ;
7754 -> 7755 ;
11000 [label="(...)", fillcolor="#C0C0C0"] ;
7754 -> 11000 ;
11371 [label="15_A <= 0.5\nentropy = 0.869\nsamples = 3088\nvalue = [3403, 1393]\nclass = Animal", fillcolor="#f0b58a"] ;
1 -> 11371 ;
11372 [label="2_A <= 0.5\nentropy = 0.898\nsamples = 2302\nvalue = [2456, 1127]\nclass = Animal", fillcolor="#f1bb94"] ;
11371 -> 11372 ;
11373 [label="(...)", fillcolor="#C0C0C0"] ;
11372 -> 11373 ;
12170 [label="(...)", fillcolor="#C0C0C0"] ;
11372 -> 12170 ;
12433 [label="17_G <= 0.5\nentropy = 0.759\nsamples = 786\nvalue = [947, 266]\nclass = Animal", fillcolor="#eca471"] ;
11371 -> 12433 ;
12434 [label="(...)", fillcolor="#C0C0C0"] ;
12433 -> 12434 ;
12703 [label="(...)", fillcolor="#C0C0C0"] ;
12433 -> 12703 ;
12818 [label="21_U <= 0.5\nentropy = 0.966\nsamples = 8719\nvalue = [8395, 5424]\nclass = Animal", fillcolor="#f6d2b9"] ;
0 -> 12818 [labeldistance=2.5, labelangle=-45, headlabel="False"] ;
12819 [label="7_A <= 0.5\nentropy = 0.989\nsamples = 6369\nvalue = [5678, 4442]\nclass = Animal", fillcolor="#f9e4d4"] ;
12818 -> 12819 ;
12820 [label="15_C <= 0.5\nentropy = 0.978\nsamples = 4608\nvalue = [4278, 3010]\nclass = Animal", fillcolor="#f7dac4"] ;
12819 -> 12820 ;
12821 [label="(...)", fillcolor="#C0C0C0"] ;
12820 -> 12821 ;
14742 [label="(...)", fillcolor="#C0C0C0"] ;
12820 -> 14742 ;
15319 [label="6_A <= 0.5\nentropy = 1.0\nsamples = 1761\nvalue = [1400, 1432]\nclass = Plant", fillcolor="#fbfdfe"] ;
12819 -> 15319 ;
15320 [label="(...)", fillcolor="#C0C0C0"] ;
15319 -> 15320 ;
16009 [label="(...)", fillcolor="#C0C0C0"] ;
15319 -> 16009 ;
16170 [label="22_U <= 0.5\nentropy = 0.835\nsamples = 2350\nvalue = [2717, 982]\nclass = Animal", fillcolor="#eeaf81"] ;
12818 -> 16170 ;
16171 [label="9_A <= 0.5\nentropy = 0.901\nsamples = 1812\nvalue = [1954, 906]\nclass = Animal", fillcolor="#f1bb95"] ;
16170 -> 16171 ;
16172 [label="(...)", fillcolor="#C0C0C0"] ;
16171 -> 16172 ;
16731 [label="(...)", fillcolor="#C0C0C0"] ;
16171 -> 16731 ;
16910 [label="18_U <= 0.5\nentropy = 0.438\nsamples = 538\nvalue = [763, 76]\nclass = Animal", fillcolor="#e88e4d"] ;
16170 -> 16910 ;
16911 [label="(...)", fillcolor="#C0C0C0"] ;
16910 -> 16911 ;
17010 [label="(...)", fillcolor="#C0C0C0"] ;
16910 -> 17010 ;
}