digraph Tree {
node [shape=box, style="filled, rounded", color="black", fontname="helvetica"] ;
edge [fontname="helvetica"] ;
0 [label="22_G <= 0.5\nentropy = 1.0\nsamples = 38359\nvalue = [30099, 30246]\nclass = Plant", fillcolor="#feffff"] ;
1 [label="9_G <= 0.5\nentropy = 0.995\nsamples = 33424\nvalue = [24048, 28510]\nclass = Plant", fillcolor="#e0f0fb"] ;
0 -> 1 [labeldistance=2.5, labelangle=45, headlabel="True"] ;
2 [label="1_U <= 0.5\nentropy = 1.0\nsamples = 23976\nvalue = [18764, 19060]\nclass = Plant", fillcolor="#fcfdff"] ;
1 -> 2 ;
3 [label="23_U <= 0.5\nentropy = 0.977\nsamples = 11152\nvalue = [10373, 7260]\nclass = Animal", fillcolor="#f7d9c4"] ;
2 -> 3 ;
4 [label="(...)", fillcolor="#C0C0C0"] ;
3 -> 4 ;
5943 [label="(...)", fillcolor="#C0C0C0"] ;
3 -> 5943 ;
6176 [label="8_G <= 0.5\nentropy = 0.979\nsamples = 12824\nvalue = [8391, 11800]\nclass = Plant", fillcolor="#c6e3f7"] ;
2 -> 6176 ;
6177 [label="(...)", fillcolor="#C0C0C0"] ;
6176 -> 6177 ;
9814 [label="(...)", fillcolor="#C0C0C0"] ;
6176 -> 9814 ;
11123 [label="4_C <= 0.5\nentropy = 0.942\nsamples = 9448\nvalue = [5284, 9450]\nclass = Plant", fillcolor="#a8d4f4"] ;
1 -> 11123 ;
11124 [label="15_A <= 0.5\nentropy = 0.984\nsamples = 6360\nvalue = [4209, 5679]\nclass = Plant", fillcolor="#cce6f8"] ;
11123 -> 11124 ;
11125 [label="(...)", fillcolor="#C0C0C0"] ;
11124 -> 11125 ;
13362 [label="(...)", fillcolor="#C0C0C0"] ;
11124 -> 13362 ;
14167 [label="7_C <= 0.5\nentropy = 0.763\nsamples = 3088\nvalue = [1075, 3771]\nclass = Plant", fillcolor="#71b9ec"] ;
11123 -> 14167 ;
14168 [label="(...)", fillcolor="#C0C0C0"] ;
14167 -> 14168 ;
14805 [label="(...)", fillcolor="#C0C0C0"] ;
14167 -> 14805 ;
14940 [label="8_U <= 0.5\nentropy = 0.765\nsamples = 4935\nvalue = [6051, 1736]\nclass = Animal", fillcolor="#eca572"] ;
0 -> 14940 [labeldistance=2.5, labelangle=-45, headlabel="False"] ;
14941 [label="11_A <= 0.5\nentropy = 0.801\nsamples = 3431\nvalue = [4099, 1322]\nclass = Animal", fillcolor="#edaa79"] ;
14940 -> 14941 ;
14942 [label="17_U <= 0.5\nentropy = 0.768\nsamples = 2634\nvalue = [3240, 938]\nclass = Animal", fillcolor="#eda572"] ;
14941 -> 14942 ;
14943 [label="(...)", fillcolor="#C0C0C0"] ;
14942 -> 14943 ;
15772 [label="(...)", fillcolor="#C0C0C0"] ;
14942 -> 15772 ;
16037 [label="23_G <= 0.5\nentropy = 0.892\nsamples = 797\nvalue = [859, 384]\nclass = Animal", fillcolor="#f1b992"] ;
14941 -> 16037 ;
16038 [label="(...)", fillcolor="#C0C0C0"] ;
16037 -> 16038 ;
16361 [label="(...)", fillcolor="#C0C0C0"] ;
16037 -> 16361 ;
16400 [label="24_C <= 0.5\nentropy = 0.669\nsamples = 1504\nvalue = [1952, 414]\nclass = Animal", fillcolor="#eb9c63"] ;
14940 -> 16400 ;
16401 [label="5_U <= 0.5\nentropy = 0.657\nsamples = 1473\nvalue = [1920, 393]\nclass = Animal", fillcolor="#ea9b62"] ;
16400 -> 16401 ;
16402 [label="(...)", fillcolor="#C0C0C0"] ;
16401 -> 16402 ;
16795 [label="(...)", fillcolor="#C0C0C0"] ;
16401 -> 16795 ;
16920 [label="6_G <= 0.5\nentropy = 0.969\nsamples = 31\nvalue = [32, 21]\nclass = Animal", fillcolor="#f6d4bb"] ;
16400 -> 16920 ;
16921 [label="(...)", fillcolor="#C0C0C0"] ;
16920 -> 16921 ;
16928 [label="(...)", fillcolor="#C0C0C0"] ;
16920 -> 16928 ;
}