digraph Tree {
node [shape=box, style="filled, rounded", color="black", fontname="helvetica"] ;
edge [fontname="helvetica"] ;
0 [label="22_G <= 0.5\nentropy = 1.0\nsamples = 38188\nvalue = [30296, 30049]\nclass = Animal", fillcolor="#fffefd"] ;
1 [label="1_A <= 0.5\nentropy = 0.995\nsamples = 33277\nvalue = [24210, 28361]\nclass = Plant", fillcolor="#e2f1fb"] ;
0 -> 1 [labeldistance=2.5, labelangle=45, headlabel="True"] ;
2 [label="23_A <= 0.5\nentropy = 0.986\nsamples = 26453\nvalue = [17975, 23793]\nclass = Plant", fillcolor="#cfe7f9"] ;
1 -> 2 ;
3 [label="22_A <= 0.5\nentropy = 0.983\nsamples = 25879\nvalue = [17294, 23534]\nclass = Plant", fillcolor="#cbe5f8"] ;
2 -> 3 ;
4 [label="(...)", fillcolor="#C0C0C0"] ;
3 -> 4 ;
9651 [label="(...)", fillcolor="#C0C0C0"] ;
3 -> 9651 ;
11026 [label="16_C <= 0.5\nentropy = 0.849\nsamples = 574\nvalue = [681, 259]\nclass = Animal", fillcolor="#efb184"] ;
2 -> 11026 ;
11027 [label="(...)", fillcolor="#C0C0C0"] ;
11026 -> 11027 ;
11284 [label="(...)", fillcolor="#C0C0C0"] ;
11026 -> 11284 ;
11367 [label="22_U <= 0.5\nentropy = 0.983\nsamples = 6824\nvalue = [6235, 4568]\nclass = Animal", fillcolor="#f8ddca"] ;
1 -> 11367 ;
11368 [label="19_C <= 0.5\nentropy = 1.0\nsamples = 5542\nvalue = [4394, 4363]\nclass = Animal", fillcolor="#fffefe"] ;
11367 -> 11368 ;
11369 [label="(...)", fillcolor="#C0C0C0"] ;
11368 -> 11369 ;
13720 [label="(...)", fillcolor="#C0C0C0"] ;
11368 -> 13720 ;
14465 [label="18_U <= 0.5\nentropy = 0.47\nsamples = 1282\nvalue = [1841, 205]\nclass = Animal", fillcolor="#e88f4f"] ;
11367 -> 14465 ;
14466 [label="(...)", fillcolor="#C0C0C0"] ;
14465 -> 14466 ;
14773 [label="(...)", fillcolor="#C0C0C0"] ;
14465 -> 14773 ;
14880 [label="21_U <= 0.5\nentropy = 0.755\nsamples = 4911\nvalue = [6086, 1688]\nclass = Animal", fillcolor="#eca470"] ;
0 -> 14880 [labeldistance=2.5, labelangle=-45, headlabel="False"] ;
14881 [label="21_A <= 0.5\nentropy = 0.805\nsamples = 3212\nvalue = [3819, 1246]\nclass = Animal", fillcolor="#edaa7a"] ;
14880 -> 14881 ;
14882 [label="20_G <= 0.5\nentropy = 0.865\nsamples = 1864\nvalue = [2087, 842]\nclass = Animal", fillcolor="#efb489"] ;
14881 -> 14882 ;
14883 [label="(...)", fillcolor="#C0C0C0"] ;
14882 -> 14883 ;
15556 [label="(...)", fillcolor="#C0C0C0"] ;
14882 -> 15556 ;
15737 [label="17_U <= 0.5\nentropy = 0.7\nsamples = 1348\nvalue = [1732, 404]\nclass = Animal", fillcolor="#eb9e67"] ;
14881 -> 15737 ;
15738 [label="(...)", fillcolor="#C0C0C0"] ;
15737 -> 15738 ;
16115 [label="(...)", fillcolor="#C0C0C0"] ;
15737 -> 16115 ;
16236 [label="24_U <= 0.5\nentropy = 0.642\nsamples = 1699\nvalue = [2267, 442]\nclass = Animal", fillcolor="#ea9a60"] ;
14880 -> 16236 ;
16237 [label="9_U <= 0.5\nentropy = 0.606\nsamples = 1600\nvalue = [2170, 378]\nclass = Animal", fillcolor="#ea975b"] ;
16236 -> 16237 ;
16238 [label="(...)", fillcolor="#C0C0C0"] ;
16237 -> 16238 ;
16625 [label="(...)", fillcolor="#C0C0C0"] ;
16237 -> 16625 ;
16766 [label="2_A <= 0.5\nentropy = 0.969\nsamples = 99\nvalue = [97, 64]\nclass = Animal", fillcolor="#f6d4bc"] ;
16236 -> 16766 ;
16767 [label="(...)", fillcolor="#C0C0C0"] ;
16766 -> 16767 ;
16792 [label="(...)", fillcolor="#C0C0C0"] ;
16766 -> 16792 ;
}