digraph Tree {
node [shape=box, style="filled, rounded", color="black", fontname="helvetica"] ;
edge [fontname="helvetica"] ;
0 [label="23_U <= 0.5\nentropy = 1.0\nsamples = 38186\nvalue = [30238, 30107]\nclass = Animal", fillcolor="#fffefe"] ;
1 [label="23_G <= 0.5\nentropy = 0.999\nsamples = 36183\nvalue = [27633, 29521]\nclass = Plant", fillcolor="#f2f9fd"] ;
0 -> 1 [labeldistance=2.5, labelangle=45, headlabel="True"] ;
2 [label="19_C <= 0.5\nentropy = 0.997\nsamples = 34281\nvalue = [25373, 28762]\nclass = Plant", fillcolor="#e8f3fc"] ;
1 -> 2 ;
3 [label="21_C <= 0.5\nentropy = 0.994\nsamples = 22715\nvalue = [19560, 16296]\nclass = Animal", fillcolor="#fbeade"] ;
2 -> 3 ;
4 [label="(...)", fillcolor="#C0C0C0"] ;
3 -> 4 ;
9063 [label="(...)", fillcolor="#C0C0C0"] ;
3 -> 9063 ;
11506 [label="22_G <= 0.5\nentropy = 0.902\nsamples = 11566\nvalue = [5813, 12466]\nclass = Plant", fillcolor="#95cbf1"] ;
2 -> 11506 ;
11507 [label="(...)", fillcolor="#C0C0C0"] ;
11506 -> 11507 ;
14726 [label="(...)", fillcolor="#C0C0C0"] ;
11506 -> 14726 ;
15165 [label="13_C <= 0.5\nentropy = 0.814\nsamples = 1902\nvalue = [2260, 759]\nclass = Animal", fillcolor="#eeab7b"] ;
1 -> 15165 ;
15166 [label="18_C <= 0.5\nentropy = 0.856\nsamples = 1527\nvalue = [1730, 675]\nclass = Animal", fillcolor="#efb286"] ;
15165 -> 15166 ;
15167 [label="(...)", fillcolor="#C0C0C0"] ;
15166 -> 15167 ;
15636 [label="(...)", fillcolor="#C0C0C0"] ;
15166 -> 15636 ;
15811 [label="15_G <= 0.5\nentropy = 0.576\nsamples = 375\nvalue = [530, 84]\nclass = Animal", fillcolor="#e99558"] ;
15165 -> 15811 ;
15812 [label="(...)", fillcolor="#C0C0C0"] ;
15811 -> 15812 ;
15903 [label="(...)", fillcolor="#C0C0C0"] ;
15811 -> 15903 ;
15934 [label="1_G <= 0.5\nentropy = 0.688\nsamples = 2003\nvalue = [2605, 586]\nclass = Animal", fillcolor="#eb9d66"] ;
0 -> 15934 [labeldistance=2.5, labelangle=-45, headlabel="False"] ;
15935 [label="11_A <= 0.5\nentropy = 0.639\nsamples = 1767\nvalue = [2360, 456]\nclass = Animal", fillcolor="#ea995f"] ;
15934 -> 15935 ;
15936 [label="26_U <= 0.5\nentropy = 0.678\nsamples = 1428\nvalue = [1883, 411]\nclass = Animal", fillcolor="#eb9d64"] ;
15935 -> 15936 ;
15937 [label="(...)", fillcolor="#C0C0C0"] ;
15936 -> 15937 ;
16474 [label="(...)", fillcolor="#C0C0C0"] ;
15936 -> 16474 ;
16483 [label="4_G <= 0.5\nentropy = 0.424\nsamples = 339\nvalue = [477, 45]\nclass = Animal", fillcolor="#e78d4c"] ;
15935 -> 16483 ;
16484 [label="(...)", fillcolor="#C0C0C0"] ;
16483 -> 16484 ;
16555 [label="(...)", fillcolor="#C0C0C0"] ;
16483 -> 16555 ;
16618 [label="9_A <= 0.5\nentropy = 0.931\nsamples = 236\nvalue = [245, 130]\nclass = Animal", fillcolor="#f3c4a2"] ;
15934 -> 16618 ;
16619 [label="9_C <= 0.5\nentropy = 0.775\nsamples = 178\nvalue = [220, 65]\nclass = Animal", fillcolor="#eda674"] ;
16618 -> 16619 ;
16620 [label="(...)", fillcolor="#C0C0C0"] ;
16619 -> 16620 ;
16697 [label="(...)", fillcolor="#C0C0C0"] ;
16619 -> 16697 ;
16726 [label="11_G <= 0.5\nentropy = 0.852\nsamples = 58\nvalue = [25, 65]\nclass = Plant", fillcolor="#85c3ef"] ;
16618 -> 16726 ;
16727 [label="(...)", fillcolor="#C0C0C0"] ;
16726 -> 16727 ;
16738 [label="(...)", fillcolor="#C0C0C0"] ;
16726 -> 16738 ;
}