digraph Tree {
node [shape=box, style="filled, rounded", color="black", fontname="helvetica"] ;
edge [fontname="helvetica"] ;
0 [label="19_U <= 0.5\nentropy = 1.0\nsamples = 38215\nvalue = [29908, 30437]\nclass = Plant", fillcolor="#fcfdff"] ;
1 [label="23_G <= 0.5\nentropy = 0.993\nsamples = 29247\nvalue = [20927, 25350]\nclass = Plant", fillcolor="#dceefa"] ;
0 -> 1 [labeldistance=2.5, labelangle=45, headlabel="True"] ;
2 [label="23_A <= 0.5\nentropy = 0.989\nsamples = 27817\nvalue = [19286, 24715]\nclass = Plant", fillcolor="#d4e9f9"] ;
1 -> 2 ;
3 [label="22_U <= 0.5\nentropy = 0.985\nsamples = 26798\nvalue = [18178, 24230]\nclass = Plant", fillcolor="#cee7f9"] ;
2 -> 3 ;
4 [label="(...)", fillcolor="#C0C0C0"] ;
3 -> 4 ;
10161 [label="(...)", fillcolor="#C0C0C0"] ;
3 -> 10161 ;
11268 [label="18_A <= 0.5\nentropy = 0.887\nsamples = 1019\nvalue = [1108, 485]\nclass = Animal", fillcolor="#f0b890"] ;
2 -> 11268 ;
11269 [label="(...)", fillcolor="#C0C0C0"] ;
11268 -> 11269 ;
11628 [label="(...)", fillcolor="#C0C0C0"] ;
11268 -> 11628 ;
11769 [label="18_C <= 0.5\nentropy = 0.854\nsamples = 1430\nvalue = [1641, 635]\nclass = Animal", fillcolor="#efb286"] ;
1 -> 11769 ;
11770 [label="4_G <= 0.5\nentropy = 0.774\nsamples = 1089\nvalue = [1322, 390]\nclass = Animal", fillcolor="#eda673"] ;
11769 -> 11770 ;
11771 [label="(...)", fillcolor="#C0C0C0"] ;
11770 -> 11771 ;
12120 [label="(...)", fillcolor="#C0C0C0"] ;
11770 -> 12120 ;
12241 [label="11_U <= 0.5\nentropy = 0.988\nsamples = 341\nvalue = [319, 245]\nclass = Animal", fillcolor="#f9e2d1"] ;
11769 -> 12241 ;
12242 [label="(...)", fillcolor="#C0C0C0"] ;
12241 -> 12242 ;
12331 [label="(...)", fillcolor="#C0C0C0"] ;
12241 -> 12331 ;
12384 [label="9_U <= 0.5\nentropy = 0.944\nsamples = 8968\nvalue = [8981, 5087]\nclass = Animal", fillcolor="#f4c8a9"] ;
0 -> 12384 [labeldistance=2.5, labelangle=-45, headlabel="False"] ;
12385 [label="11_U <= 0.5\nentropy = 0.96\nsamples = 6209\nvalue = [6000, 3727]\nclass = Animal", fillcolor="#f5cfb4"] ;
12384 -> 12385 ;
12386 [label="23_U <= 0.5\nentropy = 0.975\nsamples = 4436\nvalue = [4126, 2837]\nclass = Animal", fillcolor="#f7d8c1"] ;
12385 -> 12386 ;
12387 [label="(...)", fillcolor="#C0C0C0"] ;
12386 -> 12387 ;
14548 [label="(...)", fillcolor="#C0C0C0"] ;
12386 -> 14548 ;
14637 [label="2_U <= 0.5\nentropy = 0.907\nsamples = 1773\nvalue = [1874, 890]\nclass = Animal", fillcolor="#f1bd97"] ;
12385 -> 14637 ;
14638 [label="(...)", fillcolor="#C0C0C0"] ;
14637 -> 14638 ;
15265 [label="(...)", fillcolor="#C0C0C0"] ;
14637 -> 15265 ;
15500 [label="23_C <= 0.5\nentropy = 0.897\nsamples = 2759\nvalue = [2981, 1360]\nclass = Animal", fillcolor="#f1ba93"] ;
12384 -> 15500 ;
15501 [label="22_G <= 0.5\nentropy = 0.909\nsamples = 2617\nvalue = [2784, 1335]\nclass = Animal", fillcolor="#f1bd98"] ;
15500 -> 15501 ;
15502 [label="(...)", fillcolor="#C0C0C0"] ;
15501 -> 15502 ;
16633 [label="(...)", fillcolor="#C0C0C0"] ;
15501 -> 16633 ;
16760 [label="1_G <= 0.5\nentropy = 0.508\nsamples = 142\nvalue = [197, 25]\nclass = Animal", fillcolor="#e89152"] ;
15500 -> 16760 ;
16761 [label="(...)", fillcolor="#C0C0C0"] ;
16760 -> 16761 ;
16788 [label="(...)", fillcolor="#C0C0C0"] ;
16760 -> 16788 ;
}