digraph Tree {
node [shape=box, style="filled, rounded", color="black", fontname="helvetica"] ;
edge [fontname="helvetica"] ;
0 [label="22_G <= 0.5\nentropy = 1.0\nsamples = 38128\nvalue = [30218, 30127]\nclass = Animal", fillcolor="#fffffe"] ;
1 [label="22_C <= 0.5\nentropy = 0.995\nsamples = 33234\nvalue = [24219, 28428]\nclass = Plant", fillcolor="#e2f0fb"] ;
0 -> 1 [labeldistance=2.5, labelangle=45, headlabel="True"] ;
2 [label="22_A <= 0.5\nentropy = 0.986\nsamples = 29524\nvalue = [20114, 26657]\nclass = Plant", fillcolor="#cee7f9"] ;
1 -> 2 ;
3 [label="23_G <= 0.5\nentropy = 0.96\nsamples = 25292\nvalue = [15313, 24747]\nclass = Plant", fillcolor="#b4daf5"] ;
2 -> 3 ;
4 [label="(...)", fillcolor="#C0C0C0"] ;
3 -> 4 ;
10369 [label="(...)", fillcolor="#C0C0C0"] ;
3 -> 10369 ;
10552 [label="17_C <= 0.5\nentropy = 0.862\nsamples = 4232\nvalue = [4801, 1910]\nclass = Animal", fillcolor="#efb388"] ;
2 -> 10552 ;
10553 [label="(...)", fillcolor="#C0C0C0"] ;
10552 -> 10553 ;
12058 [label="(...)", fillcolor="#C0C0C0"] ;
10552 -> 12058 ;
12483 [label="25_A <= 0.5\nentropy = 0.883\nsamples = 3710\nvalue = [4105, 1771]\nclass = Animal", fillcolor="#f0b78e"] ;
1 -> 12483 ;
12484 [label="21_G <= 0.5\nentropy = 0.877\nsamples = 3658\nvalue = [4080, 1720]\nclass = Animal", fillcolor="#f0b68c"] ;
12483 -> 12484 ;
12485 [label="(...)", fillcolor="#C0C0C0"] ;
12484 -> 12485 ;
13820 [label="(...)", fillcolor="#C0C0C0"] ;
12484 -> 13820 ;
14369 [label="24_A <= 0.5\nentropy = 0.914\nsamples = 52\nvalue = [25, 51]\nclass = Plant", fillcolor="#9acdf2"] ;
12483 -> 14369 ;
14370 [label="(...)", fillcolor="#C0C0C0"] ;
14369 -> 14370 ;
14399 [label="(...)", fillcolor="#C0C0C0"] ;
14369 -> 14399 ;
14400 [label="9_U <= 0.5\nentropy = 0.761\nsamples = 4894\nvalue = [5999, 1699]\nclass = Animal", fillcolor="#eca571"] ;
0 -> 14400 [labeldistance=2.5, labelangle=-45, headlabel="False"] ;
14401 [label="24_G <= 0.5\nentropy = 0.833\nsamples = 3115\nvalue = [3596, 1290]\nclass = Animal", fillcolor="#eeae80"] ;
14400 -> 14401 ;
14402 [label="10_G <= 0.5\nentropy = 0.808\nsamples = 2952\nvalue = [3481, 1147]\nclass = Animal", fillcolor="#eeab7a"] ;
14401 -> 14402 ;
14403 [label="(...)", fillcolor="#C0C0C0"] ;
14402 -> 14403 ;
15420 [label="(...)", fillcolor="#C0C0C0"] ;
14402 -> 15420 ;
15781 [label="19_U <= 0.5\nentropy = 0.991\nsamples = 163\nvalue = [115, 143]\nclass = Plant", fillcolor="#d8ecfa"] ;
14401 -> 15781 ;
15782 [label="(...)", fillcolor="#C0C0C0"] ;
15781 -> 15782 ;
15833 [label="(...)", fillcolor="#C0C0C0"] ;
15781 -> 15833 ;
15846 [label="1_C <= 0.5\nentropy = 0.598\nsamples = 1779\nvalue = [2403, 409]\nclass = Animal", fillcolor="#e9965b"] ;
14400 -> 15846 ;
15847 [label="18_G <= 0.5\nentropy = 0.528\nsamples = 1480\nvalue = [2025, 275]\nclass = Animal", fillcolor="#e99254"] ;
15846 -> 15847 ;
15848 [label="(...)", fillcolor="#C0C0C0"] ;
15847 -> 15848 ;
16153 [label="(...)", fillcolor="#C0C0C0"] ;
15847 -> 16153 ;
16282 [label="4_U <= 0.5\nentropy = 0.829\nsamples = 299\nvalue = [378, 134]\nclass = Animal", fillcolor="#eeae7f"] ;
15846 -> 16282 ;
16283 [label="(...)", fillcolor="#C0C0C0"] ;
16282 -> 16283 ;
16380 [label="(...)", fillcolor="#C0C0C0"] ;
16282 -> 16380 ;
}