digraph Tree {
node [shape=box, style="filled, rounded", color="black", fontname="helvetica"] ;
edge [fontname="helvetica"] ;
0 [label="22_G <= 0.5\nentropy = 1.0\nsamples = 38142\nvalue = [30230, 30115]\nclass = Animal", fillcolor="#fffffe"] ;
1 [label="1_A <= 0.5\nentropy = 0.995\nsamples = 33250\nvalue = [24215, 28409]\nclass = Plant", fillcolor="#e2f1fb"] ;
0 -> 1 [labeldistance=2.5, labelangle=45, headlabel="True"] ;
2 [label="22_A <= 0.5\nentropy = 0.986\nsamples = 26379\nvalue = [17960, 23837]\nclass = Plant", fillcolor="#cee7f9"] ;
1 -> 2 ;
3 [label="23_G <= 0.5\nentropy = 0.966\nsamples = 23070\nvalue = [14315, 22237]\nclass = Plant", fillcolor="#b8dcf6"] ;
2 -> 3 ;
4 [label="(...)", fillcolor="#C0C0C0"] ;
3 -> 4 ;
9529 [label="(...)", fillcolor="#C0C0C0"] ;
3 -> 9529 ;
9786 [label="19_U <= 0.5\nentropy = 0.887\nsamples = 3309\nvalue = [3645, 1600]\nclass = Animal", fillcolor="#f0b890"] ;
2 -> 9786 ;
9787 [label="(...)", fillcolor="#C0C0C0"] ;
9786 -> 9787 ;
10922 [label="(...)", fillcolor="#C0C0C0"] ;
9786 -> 10922 ;
11301 [label="9_G <= 0.5\nentropy = 0.982\nsamples = 6871\nvalue = [6255, 4572]\nclass = Animal", fillcolor="#f8ddca"] ;
1 -> 11301 ;
11302 [label="23_U <= 0.5\nentropy = 0.954\nsamples = 4795\nvalue = [4713, 2824]\nclass = Animal", fillcolor="#f5ccb0"] ;
11301 -> 11302 ;
11303 [label="(...)", fillcolor="#C0C0C0"] ;
11302 -> 11303 ;
13748 [label="(...)", fillcolor="#C0C0C0"] ;
11302 -> 13748 ;
13861 [label="18_U <= 0.5\nentropy = 0.997\nsamples = 2076\nvalue = [1542, 1748]\nclass = Plant", fillcolor="#e8f3fc"] ;
11301 -> 13861 ;
13862 [label="(...)", fillcolor="#C0C0C0"] ;
13861 -> 13862 ;
14567 [label="(...)", fillcolor="#C0C0C0"] ;
13861 -> 14567 ;
14792 [label="23_G <= 0.5\nentropy = 0.762\nsamples = 4892\nvalue = [6015, 1706]\nclass = Animal", fillcolor="#eca571"] ;
0 -> 14792 [labeldistance=2.5, labelangle=-45, headlabel="False"] ;
14793 [label="19_C <= 0.5\nentropy = 0.728\nsamples = 4440\nvalue = [5612, 1429]\nclass = Animal", fillcolor="#eca16b"] ;
14792 -> 14793 ;
14794 [label="5_C <= 0.5\nentropy = 0.679\nsamples = 3521\nvalue = [4597, 1005]\nclass = Animal", fillcolor="#eb9d64"] ;
14793 -> 14794 ;
14795 [label="(...)", fillcolor="#C0C0C0"] ;
14794 -> 14795 ;
15772 [label="(...)", fillcolor="#C0C0C0"] ;
14794 -> 15772 ;
16037 [label="8_G <= 0.5\nentropy = 0.875\nsamples = 919\nvalue = [1015, 424]\nclass = Animal", fillcolor="#f0b68c"] ;
14793 -> 16037 ;
16038 [label="(...)", fillcolor="#C0C0C0"] ;
16037 -> 16038 ;
16311 [label="(...)", fillcolor="#C0C0C0"] ;
16037 -> 16311 ;
16436 [label="17_U <= 0.5\nentropy = 0.975\nsamples = 452\nvalue = [403, 277]\nclass = Animal", fillcolor="#f7d8c1"] ;
14792 -> 16436 ;
16437 [label="21_C <= 0.5\nentropy = 0.998\nsamples = 327\nvalue = [260, 237]\nclass = Animal", fillcolor="#fdf4ed"] ;
16436 -> 16437 ;
16438 [label="(...)", fillcolor="#C0C0C0"] ;
16437 -> 16438 ;
16547 [label="(...)", fillcolor="#C0C0C0"] ;
16437 -> 16547 ;
16606 [label="9_U <= 0.5\nentropy = 0.758\nsamples = 125\nvalue = [143, 40]\nclass = Animal", fillcolor="#eca470"] ;
16436 -> 16606 ;
16607 [label="(...)", fillcolor="#C0C0C0"] ;
16606 -> 16607 ;
16648 [label="(...)", fillcolor="#C0C0C0"] ;
16606 -> 16648 ;
}