digraph Tree {
node [shape=box, style="filled, rounded", color="black", fontname="helvetica"] ;
edge [fontname="helvetica"] ;
0 [label="22_G <= 0.5\nentropy = 1.0\nsamples = 38131\nvalue = [30188, 30157]\nclass = Animal", fillcolor="#ffffff"] ;
1 [label="23_G <= 0.5\nentropy = 0.995\nsamples = 33132\nvalue = [24101, 28403]\nclass = Plant", fillcolor="#e1f0fb"] ;
0 -> 1 [labeldistance=2.5, labelangle=45, headlabel="True"] ;
2 [label="8_G <= 0.5\nentropy = 0.991\nsamples = 31698\nvalue = [22242, 27954]\nclass = Plant", fillcolor="#d7ebfa"] ;
1 -> 2 ;
3 [label="14_C <= 0.5\nentropy = 1.0\nsamples = 21436\nvalue = [16718, 17211]\nclass = Plant", fillcolor="#f9fcfe"] ;
2 -> 3 ;
4 [label="(...)", fillcolor="#C0C0C0"] ;
3 -> 4 ;
8165 [label="(...)", fillcolor="#C0C0C0"] ;
3 -> 8165 ;
10392 [label="4_G <= 0.5\nentropy = 0.924\nsamples = 10262\nvalue = [5524, 10743]\nclass = Plant", fillcolor="#9fcff2"] ;
2 -> 10392 ;
10393 [label="(...)", fillcolor="#C0C0C0"] ;
10392 -> 10393 ;
12992 [label="(...)", fillcolor="#C0C0C0"] ;
10392 -> 12992 ;
14081 [label="10_C <= 0.5\nentropy = 0.711\nsamples = 1434\nvalue = [1859, 449]\nclass = Animal", fillcolor="#eb9f69"] ;
1 -> 14081 ;
14082 [label="27_A <= 0.5\nentropy = 0.616\nsamples = 1065\nvalue = [1453, 261]\nclass = Animal", fillcolor="#ea985d"] ;
14081 -> 14082 ;
14083 [label="(...)", fillcolor="#C0C0C0"] ;
14082 -> 14083 ;
14462 [label="(...)", fillcolor="#C0C0C0"] ;
14082 -> 14462 ;
14465 [label="20_A <= 0.5\nentropy = 0.901\nsamples = 369\nvalue = [406, 188]\nclass = Animal", fillcolor="#f1bb95"] ;
14081 -> 14465 ;
14466 [label="(...)", fillcolor="#C0C0C0"] ;
14465 -> 14466 ;
14577 [label="(...)", fillcolor="#C0C0C0"] ;
14465 -> 14577 ;
14616 [label="25_A <= 0.5\nentropy = 0.767\nsamples = 4999\nvalue = [6087, 1754]\nclass = Animal", fillcolor="#eca572"] ;
0 -> 14616 [labeldistance=2.5, labelangle=-45, headlabel="False"] ;
14617 [label="8_G <= 0.5\nentropy = 0.754\nsamples = 4893\nvalue = [6013, 1661]\nclass = Animal", fillcolor="#eca470"] ;
14616 -> 14617 ;
14618 [label="8_C <= 0.5\nentropy = 0.709\nsamples = 3661\nvalue = [4667, 1120]\nclass = Animal", fillcolor="#eb9f69"] ;
14617 -> 14618 ;
14619 [label="(...)", fillcolor="#C0C0C0"] ;
14618 -> 14619 ;
15638 [label="(...)", fillcolor="#C0C0C0"] ;
14618 -> 15638 ;
16079 [label="6_U <= 0.5\nentropy = 0.864\nsamples = 1232\nvalue = [1346, 541]\nclass = Animal", fillcolor="#efb489"] ;
14617 -> 16079 ;
16080 [label="(...)", fillcolor="#C0C0C0"] ;
16079 -> 16080 ;
16483 [label="(...)", fillcolor="#C0C0C0"] ;
16079 -> 16483 ;
16646 [label="23_G <= 0.5\nentropy = 0.991\nsamples = 106\nvalue = [74, 93]\nclass = Plant", fillcolor="#d7ebfa"] ;
14616 -> 16646 ;
16647 [label="21_A <= 0.5\nentropy = 0.933\nsamples = 58\nvalue = [56, 30]\nclass = Animal", fillcolor="#f3c4a3"] ;
16646 -> 16647 ;
16648 [label="(...)", fillcolor="#C0C0C0"] ;
16647 -> 16648 ;
16675 [label="(...)", fillcolor="#C0C0C0"] ;
16647 -> 16675 ;
16682 [label="9_A <= 0.5\nentropy = 0.764\nsamples = 48\nvalue = [18, 63]\nclass = Plant", fillcolor="#72b9ec"] ;
16646 -> 16682 ;
16683 [label="(...)", fillcolor="#C0C0C0"] ;
16682 -> 16683 ;
16698 [label="(...)", fillcolor="#C0C0C0"] ;
16682 -> 16698 ;
}