digraph Tree {
node [shape=box, style="filled, rounded", color="black", fontname="helvetica"] ;
edge [fontname="helvetica"] ;
0 [label="1_U <= 0.5\nentropy = 1.0\nsamples = 38185\nvalue = [30402, 29943]\nclass = Animal", fillcolor="#fffdfc"] ;
1 [label="10_A <= 0.5\nentropy = 0.977\nsamples = 17934\nvalue = [16741, 11652]\nclass = Animal", fillcolor="#f7d9c3"] ;
0 -> 1 [labeldistance=2.5, labelangle=45, headlabel="True"] ;
2 [label="14_G <= 0.5\nentropy = 0.951\nsamples = 13291\nvalue = [13225, 7792]\nclass = Animal", fillcolor="#f4cbae"] ;
1 -> 2 ;
3 [label="19_U <= 0.5\nentropy = 0.936\nsamples = 9322\nvalue = [9566, 5193]\nclass = Animal", fillcolor="#f3c5a4"] ;
2 -> 3 ;
4 [label="(...)", fillcolor="#C0C0C0"] ;
3 -> 4 ;
4007 [label="(...)", fillcolor="#C0C0C0"] ;
3 -> 4007 ;
5430 [label="12_G <= 0.5\nentropy = 0.979\nsamples = 3969\nvalue = [3659, 2599]\nclass = Animal", fillcolor="#f7dac6"] ;
2 -> 5430 ;
5431 [label="(...)", fillcolor="#C0C0C0"] ;
5430 -> 5431 ;
6976 [label="(...)", fillcolor="#C0C0C0"] ;
5430 -> 6976 ;
7453 [label="4_U <= 0.5\nentropy = 0.998\nsamples = 4643\nvalue = [3516, 3860]\nclass = Plant", fillcolor="#edf6fd"] ;
1 -> 7453 ;
7454 [label="9_G <= 0.5\nentropy = 0.991\nsamples = 3783\nvalue = [2673, 3326]\nclass = Plant", fillcolor="#d8ecfa"] ;
7453 -> 7454 ;
7455 [label="(...)", fillcolor="#C0C0C0"] ;
7454 -> 7455 ;
8608 [label="(...)", fillcolor="#C0C0C0"] ;
7454 -> 8608 ;
9137 [label="5_C <= 0.5\nentropy = 0.963\nsamples = 860\nvalue = [843, 534]\nclass = Animal", fillcolor="#f5d1b6"] ;
7453 -> 9137 ;
9138 [label="(...)", fillcolor="#C0C0C0"] ;
9137 -> 9138 ;
9491 [label="(...)", fillcolor="#C0C0C0"] ;
9137 -> 9491 ;
9614 [label="19_C <= 0.5\nentropy = 0.985\nsamples = 20251\nvalue = [13661, 18291]\nclass = Plant", fillcolor="#cde6f8"] ;
0 -> 9614 [labeldistance=2.5, labelangle=-45, headlabel="False"] ;
9615 [label="23_C <= 0.5\nentropy = 0.999\nsamples = 13056\nvalue = [10625, 10035]\nclass = Animal", fillcolor="#fef8f4"] ;
9614 -> 9615 ;
9616 [label="21_U <= 0.5\nentropy = 1.0\nsamples = 12595\nvalue = [9999, 9937]\nclass = Animal", fillcolor="#fffefe"] ;
9615 -> 9616 ;
9617 [label="(...)", fillcolor="#C0C0C0"] ;
9616 -> 9617 ;
13748 [label="(...)", fillcolor="#C0C0C0"] ;
9616 -> 13748 ;
15031 [label="24_A <= 0.5\nentropy = 0.572\nsamples = 461\nvalue = [626, 98]\nclass = Animal", fillcolor="#e99558"] ;
9615 -> 15031 ;
15032 [label="(...)", fillcolor="#C0C0C0"] ;
15031 -> 15032 ;
15185 [label="(...)", fillcolor="#C0C0C0"] ;
15031 -> 15185 ;
15206 [label="9_U <= 0.5\nentropy = 0.84\nsamples = 7195\nvalue = [3036, 8256]\nclass = Plant", fillcolor="#82c1ef"] ;
9614 -> 15206 ;
15207 [label="22_U <= 0.5\nentropy = 0.742\nsamples = 5812\nvalue = [1918, 7202]\nclass = Plant", fillcolor="#6eb7ec"] ;
15206 -> 15207 ;
15208 [label="(...)", fillcolor="#C0C0C0"] ;
15207 -> 15208 ;
16305 [label="(...)", fillcolor="#C0C0C0"] ;
15207 -> 16305 ;
16510 [label="18_G <= 0.5\nentropy = 0.999\nsamples = 1383\nvalue = [1118, 1054]\nclass = Animal", fillcolor="#fef8f4"] ;
15206 -> 16510 ;
16511 [label="(...)", fillcolor="#C0C0C0"] ;
16510 -> 16511 ;
16916 [label="(...)", fillcolor="#C0C0C0"] ;
16510 -> 16916 ;
}