digraph Tree {
node [shape=box, style="filled, rounded", color="black", fontname="helvetica"] ;
edge [fontname="helvetica"] ;
0 [label="21_U <= 0.5\nentropy = 1.0\nsamples = 38130\nvalue = [29978, 30367]\nclass = Plant", fillcolor="#fcfeff"] ;
1 [label="9_U <= 0.5\nentropy = 0.997\nsamples = 29519\nvalue = [21769, 24957]\nclass = Plant", fillcolor="#e6f2fc"] ;
0 -> 1 [labeldistance=2.5, labelangle=45, headlabel="True"] ;
2 [label="8_G <= 0.5\nentropy = 0.984\nsamples = 21626\nvalue = [14580, 19673]\nclass = Plant", fillcolor="#cce6f8"] ;
1 -> 2 ;
3 [label="6_U <= 0.5\nentropy = 0.999\nsamples = 14510\nvalue = [11098, 11840]\nclass = Plant", fillcolor="#f3f9fd"] ;
2 -> 3 ;
4 [label="(...)", fillcolor="#C0C0C0"] ;
3 -> 4 ;
5265 [label="(...)", fillcolor="#C0C0C0"] ;
3 -> 5265 ;
7118 [label="16_G <= 0.5\nentropy = 0.891\nsamples = 7116\nvalue = [3482, 7833]\nclass = Plant", fillcolor="#91c9f1"] ;
2 -> 7118 ;
7119 [label="(...)", fillcolor="#C0C0C0"] ;
7118 -> 7119 ;
9112 [label="(...)", fillcolor="#C0C0C0"] ;
7118 -> 9112 ;
9863 [label="2_U <= 0.5\nentropy = 0.983\nsamples = 7893\nvalue = [7189, 5284]\nclass = Animal", fillcolor="#f8decb"] ;
1 -> 9863 ;
9864 [label="22_U <= 0.5\nentropy = 0.964\nsamples = 5995\nvalue = [5801, 3684]\nclass = Animal", fillcolor="#f6d1b7"] ;
9863 -> 9864 ;
9865 [label="(...)", fillcolor="#C0C0C0"] ;
9864 -> 9865 ;
12458 [label="(...)", fillcolor="#C0C0C0"] ;
9864 -> 12458 ;
12733 [label="5_A <= 0.5\nentropy = 0.996\nsamples = 1898\nvalue = [1388, 1600]\nclass = Plant", fillcolor="#e5f2fc"] ;
9863 -> 12733 ;
12734 [label="(...)", fillcolor="#C0C0C0"] ;
12733 -> 12734 ;
13461 [label="(...)", fillcolor="#C0C0C0"] ;
12733 -> 13461 ;
13708 [label="22_U <= 0.5\nentropy = 0.969\nsamples = 8611\nvalue = [8209, 5410]\nclass = Animal", fillcolor="#f6d4bb"] ;
0 -> 13708 [labeldistance=2.5, labelangle=-45, headlabel="False"] ;
13709 [label="20_G <= 0.5\nentropy = 0.992\nsamples = 7221\nvalue = [6338, 5150]\nclass = Animal", fillcolor="#fae7da"] ;
13708 -> 13709 ;
13710 [label="9_G <= 0.5\nentropy = 1.0\nsamples = 5477\nvalue = [4434, 4307]\nclass = Animal", fillcolor="#fefbf9"] ;
13709 -> 13710 ;
13711 [label="(...)", fillcolor="#C0C0C0"] ;
13710 -> 13711 ;
15476 [label="(...)", fillcolor="#C0C0C0"] ;
13710 -> 15476 ;
16137 [label="7_A <= 0.5\nentropy = 0.89\nsamples = 1744\nvalue = [1904, 843]\nclass = Animal", fillcolor="#f1b991"] ;
13709 -> 16137 ;
16138 [label="(...)", fillcolor="#C0C0C0"] ;
16137 -> 16138 ;
16635 [label="(...)", fillcolor="#C0C0C0"] ;
16137 -> 16635 ;
16834 [label="10_C <= 0.5\nentropy = 0.535\nsamples = 1390\nvalue = [1871, 260]\nclass = Animal", fillcolor="#e99355"] ;
13708 -> 16834 ;
16835 [label="10_A <= 0.5\nentropy = 0.465\nsamples = 1106\nvalue = [1534, 168]\nclass = Animal", fillcolor="#e88f4f"] ;
16834 -> 16835 ;
16836 [label="(...)", fillcolor="#C0C0C0"] ;
16835 -> 16836 ;
17095 [label="(...)", fillcolor="#C0C0C0"] ;
16835 -> 17095 ;
17196 [label="19_U <= 0.5\nentropy = 0.75\nsamples = 284\nvalue = [337, 92]\nclass = Animal", fillcolor="#eca36f"] ;
16834 -> 17196 ;
17197 [label="(...)", fillcolor="#C0C0C0"] ;
17196 -> 17197 ;
17294 [label="(...)", fillcolor="#C0C0C0"] ;
17196 -> 17294 ;
}