digraph Tree {
node [shape=box, style="filled, rounded", color="black", fontname="helvetica"] ;
edge [fontname="helvetica"] ;
0 [label="22_G <= 0.5\nentropy = 1.0\nsamples = 38281\nvalue = [30243, 30102]\nclass = Animal", fillcolor="#fffefe"] ;
1 [label="6_U <= 0.5\nentropy = 0.995\nsamples = 33339\nvalue = [24200, 28349]\nclass = Plant", fillcolor="#e2f1fb"] ;
0 -> 1 [labeldistance=2.5, labelangle=45, headlabel="True"] ;
2 [label="22_C <= 0.5\nentropy = 0.985\nsamples = 25615\nvalue = [17215, 23010]\nclass = Plant", fillcolor="#cde6f8"] ;
1 -> 2 ;
3 [label="1_A <= 0.5\nentropy = 0.966\nsamples = 22711\nvalue = [13954, 21690]\nclass = Plant", fillcolor="#b8dcf6"] ;
2 -> 3 ;
4 [label="(...)", fillcolor="#C0C0C0"] ;
3 -> 4 ;
7147 [label="(...)", fillcolor="#C0C0C0"] ;
3 -> 7147 ;
9502 [label="1_C <= 0.5\nentropy = 0.866\nsamples = 2904\nvalue = [3261, 1320]\nclass = Animal", fillcolor="#f0b489"] ;
2 -> 9502 ;
9503 [label="(...)", fillcolor="#C0C0C0"] ;
9502 -> 9503 ;
10584 [label="(...)", fillcolor="#C0C0C0"] ;
9502 -> 10584 ;
10843 [label="23_U <= 0.5\nentropy = 0.987\nsamples = 7724\nvalue = [6985, 5339]\nclass = Animal", fillcolor="#f9e1d0"] ;
1 -> 10843 ;
10844 [label="5_G <= 0.5\nentropy = 0.992\nsamples = 7404\nvalue = [6516, 5287]\nclass = Animal", fillcolor="#fae7da"] ;
10843 -> 10844 ;
10845 [label="(...)", fillcolor="#C0C0C0"] ;
10844 -> 10845 ;
13602 [label="(...)", fillcolor="#C0C0C0"] ;
10844 -> 13602 ;
14617 [label="24_C <= 0.5\nentropy = 0.468\nsamples = 320\nvalue = [469, 52]\nclass = Animal", fillcolor="#e88f4f"] ;
10843 -> 14617 ;
14618 [label="(...)", fillcolor="#C0C0C0"] ;
14617 -> 14618 ;
14715 [label="(...)", fillcolor="#C0C0C0"] ;
14617 -> 14715 ;
14730 [label="9_U <= 0.5\nentropy = 0.769\nsamples = 4942\nvalue = [6043, 1753]\nclass = Animal", fillcolor="#eda672"] ;
0 -> 14730 [labeldistance=2.5, labelangle=-45, headlabel="False"] ;
14731 [label="23_G <= 0.5\nentropy = 0.835\nsamples = 3163\nvalue = [3656, 1323]\nclass = Animal", fillcolor="#eeaf81"] ;
14730 -> 14731 ;
14732 [label="21_G <= 0.5\nentropy = 0.798\nsamples = 2826\nvalue = [3372, 1074]\nclass = Animal", fillcolor="#eda978"] ;
14731 -> 14732 ;
14733 [label="(...)", fillcolor="#C0C0C0"] ;
14732 -> 14733 ;
15706 [label="(...)", fillcolor="#C0C0C0"] ;
14732 -> 15706 ;
16079 [label="25_A <= 0.5\nentropy = 0.997\nsamples = 337\nvalue = [284, 249]\nclass = Animal", fillcolor="#fcefe7"] ;
14731 -> 16079 ;
16080 [label="(...)", fillcolor="#C0C0C0"] ;
16079 -> 16080 ;
16229 [label="(...)", fillcolor="#C0C0C0"] ;
16079 -> 16229 ;
16238 [label="17_U <= 0.5\nentropy = 0.616\nsamples = 1779\nvalue = [2387, 430]\nclass = Animal", fillcolor="#ea985d"] ;
14730 -> 16238 ;
16239 [label="19_U <= 0.5\nentropy = 0.722\nsamples = 1074\nvalue = [1353, 338]\nclass = Animal", fillcolor="#eba06a"] ;
16238 -> 16239 ;
16240 [label="(...)", fillcolor="#C0C0C0"] ;
16239 -> 16240 ;
16527 [label="(...)", fillcolor="#C0C0C0"] ;
16239 -> 16527 ;
16622 [label="19_C <= 0.5\nentropy = 0.408\nsamples = 705\nvalue = [1034, 92]\nclass = Animal", fillcolor="#e78c4b"] ;
16238 -> 16622 ;
16623 [label="(...)", fillcolor="#C0C0C0"] ;
16622 -> 16623 ;
16740 [label="(...)", fillcolor="#C0C0C0"] ;
16622 -> 16740 ;
}