digraph Tree {
node [shape=box, style="filled, rounded", color="black", fontname="helvetica"] ;
edge [fontname="helvetica"] ;
0 [label="1_A <= 0.5\nentropy = 1.0\nsamples = 38184\nvalue = [29962, 30383]\nclass = Plant", fillcolor="#fcfeff"] ;
1 [label="19_G <= 0.5\nentropy = 0.996\nsamples = 30302\nvalue = [22209, 25682]\nclass = Plant", fillcolor="#e4f2fb"] ;
0 -> 1 [labeldistance=2.5, labelangle=45, headlabel="True"] ;
2 [label="22_G <= 0.5\nentropy = 0.988\nsamples = 23539\nvalue = [16223, 20959]\nclass = Plant", fillcolor="#d2e9f9"] ;
1 -> 2 ;
3 [label="20_G <= 0.5\nentropy = 0.969\nsamples = 20888\nvalue = [13061, 19885]\nclass = Plant", fillcolor="#bbddf6"] ;
2 -> 3 ;
4 [label="(...)", fillcolor="#C0C0C0"] ;
3 -> 4 ;
6567 [label="(...)", fillcolor="#C0C0C0"] ;
3 -> 6567 ;
8532 [label="9_A <= 0.5\nentropy = 0.817\nsamples = 2651\nvalue = [3162, 1074]\nclass = Animal", fillcolor="#eeac7c"] ;
2 -> 8532 ;
8533 [label="(...)", fillcolor="#C0C0C0"] ;
8532 -> 8533 ;
9446 [label="(...)", fillcolor="#C0C0C0"] ;
8532 -> 9446 ;
9693 [label="20_C <= 0.5\nentropy = 0.99\nsamples = 6763\nvalue = [5986, 4723]\nclass = Animal", fillcolor="#fae4d5"] ;
1 -> 9693 ;
9694 [label="13_A <= 0.5\nentropy = 0.973\nsamples = 5062\nvalue = [4754, 3223]\nclass = Animal", fillcolor="#f7d6bf"] ;
9693 -> 9694 ;
9695 [label="(...)", fillcolor="#C0C0C0"] ;
9694 -> 9695 ;
11790 [label="(...)", fillcolor="#C0C0C0"] ;
9694 -> 11790 ;
12399 [label="13_G <= 0.5\nentropy = 0.993\nsamples = 1701\nvalue = [1232, 1500]\nclass = Plant", fillcolor="#dcedfa"] ;
9693 -> 12399 ;
12400 [label="(...)", fillcolor="#C0C0C0"] ;
12399 -> 12400 ;
12949 [label="(...)", fillcolor="#C0C0C0"] ;
12399 -> 12949 ;
13176 [label="11_C <= 0.5\nentropy = 0.956\nsamples = 7882\nvalue = [7753, 4701]\nclass = Animal", fillcolor="#f5cdb1"] ;
0 -> 13176 [labeldistance=2.5, labelangle=-45, headlabel="False"] ;
13177 [label="22_G <= 0.5\nentropy = 0.971\nsamples = 6357\nvalue = [6027, 4031]\nclass = Animal", fillcolor="#f6d5bd"] ;
13176 -> 13177 ;
13178 [label="22_U <= 0.5\nentropy = 0.99\nsamples = 5429\nvalue = [4816, 3813]\nclass = Animal", fillcolor="#fae5d6"] ;
13177 -> 13178 ;
13179 [label="(...)", fillcolor="#C0C0C0"] ;
13178 -> 13179 ;
15602 [label="(...)", fillcolor="#C0C0C0"] ;
13178 -> 15602 ;
15939 [label="14_U <= 0.5\nentropy = 0.616\nsamples = 928\nvalue = [1211, 218]\nclass = Animal", fillcolor="#ea985d"] ;
13177 -> 15939 ;
15940 [label="(...)", fillcolor="#C0C0C0"] ;
15939 -> 15940 ;
16181 [label="(...)", fillcolor="#C0C0C0"] ;
15939 -> 16181 ;
16290 [label="6_U <= 0.5\nentropy = 0.855\nsamples = 1525\nvalue = [1726, 670]\nclass = Animal", fillcolor="#efb286"] ;
13176 -> 16290 ;
16291 [label="5_C <= 0.5\nentropy = 0.809\nsamples = 1150\nvalue = [1368, 453]\nclass = Animal", fillcolor="#eeab7b"] ;
16290 -> 16291 ;
16292 [label="(...)", fillcolor="#C0C0C0"] ;
16291 -> 16292 ;
16733 [label="(...)", fillcolor="#C0C0C0"] ;
16291 -> 16733 ;
16860 [label="9_G <= 0.5\nentropy = 0.956\nsamples = 375\nvalue = [358, 217]\nclass = Animal", fillcolor="#f5cdb1"] ;
16290 -> 16860 ;
16861 [label="(...)", fillcolor="#C0C0C0"] ;
16860 -> 16861 ;
17006 [label="(...)", fillcolor="#C0C0C0"] ;
16860 -> 17006 ;
}