digraph Tree {
node [shape=box, style="filled, rounded", color="black", fontname="helvetica"] ;
edge [fontname="helvetica"] ;
0 [label="19_C <= 0.5\nentropy = 1.0\nsamples = 38110\nvalue = [30314, 30031]\nclass = Animal", fillcolor="#fffefd"] ;
1 [label="2_A <= 0.5\nentropy = 0.984\nsamples = 25818\nvalue = [23415, 17412]\nclass = Animal", fillcolor="#f8dfcc"] ;
0 -> 1 [labeldistance=2.5, labelangle=45, headlabel="True"] ;
2 [label="22_A <= 0.5\nentropy = 0.996\nsamples = 19307\nvalue = [16472, 14092]\nclass = Animal", fillcolor="#fbede2"] ;
1 -> 2 ;
3 [label="22_C <= 0.5\nentropy = 0.999\nsamples = 17347\nvalue = [14242, 13236]\nclass = Animal", fillcolor="#fdf6f1"] ;
2 -> 3 ;
4 [label="(...)", fillcolor="#C0C0C0"] ;
3 -> 4 ;
7307 [label="(...)", fillcolor="#C0C0C0"] ;
3 -> 7307 ;
8312 [label="4_U <= 0.5\nentropy = 0.852\nsamples = 1960\nvalue = [2230, 856]\nclass = Animal", fillcolor="#efb185"] ;
2 -> 8312 ;
8313 [label="(...)", fillcolor="#C0C0C0"] ;
8312 -> 8313 ;
9118 [label="(...)", fillcolor="#C0C0C0"] ;
8312 -> 9118 ;
9391 [label="20_C <= 0.5\nentropy = 0.908\nsamples = 6511\nvalue = [6943, 3320]\nclass = Animal", fillcolor="#f1bd98"] ;
1 -> 9391 ;
9392 [label="22_A <= 0.5\nentropy = 0.867\nsamples = 5178\nvalue = [5789, 2350]\nclass = Animal", fillcolor="#f0b489"] ;
9391 -> 9392 ;
9393 [label="(...)", fillcolor="#C0C0C0"] ;
9392 -> 9393 ;
11638 [label="(...)", fillcolor="#C0C0C0"] ;
9392 -> 11638 ;
11909 [label="18_C <= 0.5\nentropy = 0.995\nsamples = 1333\nvalue = [1154, 970]\nclass = Animal", fillcolor="#fbebdf"] ;
9391 -> 11909 ;
11910 [label="(...)", fillcolor="#C0C0C0"] ;
11909 -> 11910 ;
12445 [label="(...)", fillcolor="#C0C0C0"] ;
11909 -> 12445 ;
12568 [label="2_A <= 0.5\nentropy = 0.937\nsamples = 12292\nvalue = [6899, 12619]\nclass = Plant", fillcolor="#a5d3f3"] ;
0 -> 12568 [labeldistance=2.5, labelangle=-45, headlabel="False"] ;
12569 [label="15_A <= 0.5\nentropy = 0.889\nsamples = 9699\nvalue = [4701, 10653]\nclass = Plant", fillcolor="#90c8f0"] ;
12568 -> 12569 ;
12570 [label="23_A <= 0.5\nentropy = 0.925\nsamples = 6851\nvalue = [3689, 7151]\nclass = Plant", fillcolor="#9fd0f2"] ;
12569 -> 12570 ;
12571 [label="(...)", fillcolor="#C0C0C0"] ;
12570 -> 12571 ;
14838 [label="(...)", fillcolor="#C0C0C0"] ;
12570 -> 14838 ;
14959 [label="3_G <= 0.5\nentropy = 0.768\nsamples = 2848\nvalue = [1012, 3502]\nclass = Plant", fillcolor="#72b9ed"] ;
12569 -> 14959 ;
14960 [label="(...)", fillcolor="#C0C0C0"] ;
14959 -> 14960 ;
15547 [label="(...)", fillcolor="#C0C0C0"] ;
14959 -> 15547 ;
15744 [label="9_G <= 0.5\nentropy = 0.998\nsamples = 2593\nvalue = [2198, 1966]\nclass = Animal", fillcolor="#fcf2ea"] ;
12568 -> 15744 ;
15745 [label="9_U <= 0.5\nentropy = 0.877\nsamples = 1582\nvalue = [1782, 750]\nclass = Animal", fillcolor="#f0b68c"] ;
15744 -> 15745 ;
15746 [label="(...)", fillcolor="#C0C0C0"] ;
15745 -> 15746 ;
16223 [label="(...)", fillcolor="#C0C0C0"] ;
15745 -> 16223 ;
16500 [label="12_G <= 0.5\nentropy = 0.819\nsamples = 1011\nvalue = [416, 1216]\nclass = Plant", fillcolor="#7dbfee"] ;
15744 -> 16500 ;
16501 [label="(...)", fillcolor="#C0C0C0"] ;
16500 -> 16501 ;
16680 [label="(...)", fillcolor="#C0C0C0"] ;
16500 -> 16680 ;
}