digraph Tree {
node [shape=box, style="filled, rounded", color="black", fontname="helvetica"] ;
edge [fontname="helvetica"] ;
0 [label="19_U <= 0.5\nentropy = 1.0\nsamples = 38184\nvalue = [30158, 30187]\nclass = Plant", fillcolor="#ffffff"] ;
1 [label="2_A <= 0.5\nentropy = 0.994\nsamples = 29206\nvalue = [21029, 25237]\nclass = Plant", fillcolor="#deeffb"] ;
0 -> 1 [labeldistance=2.5, labelangle=45, headlabel="True"] ;
2 [label="24_U <= 0.5\nentropy = 0.979\nsamples = 22687\nvalue = [14930, 21061]\nclass = Plant", fillcolor="#c5e2f7"] ;
1 -> 2 ;
3 [label="20_C <= 0.5\nentropy = 0.976\nsamples = 22301\nvalue = [14464, 20904]\nclass = Plant", fillcolor="#c2e1f7"] ;
2 -> 3 ;
4 [label="(...)", fillcolor="#C0C0C0"] ;
3 -> 4 ;
7171 [label="(...)", fillcolor="#C0C0C0"] ;
3 -> 7171 ;
9420 [label="16_G <= 0.5\nentropy = 0.814\nsamples = 386\nvalue = [466, 157]\nclass = Animal", fillcolor="#eeab7c"] ;
2 -> 9420 ;
9421 [label="(...)", fillcolor="#C0C0C0"] ;
9420 -> 9421 ;
9554 [label="(...)", fillcolor="#C0C0C0"] ;
9420 -> 9554 ;
9601 [label="10_C <= 0.5\nentropy = 0.975\nsamples = 6519\nvalue = [6099, 4176]\nclass = Animal", fillcolor="#f7d7c1"] ;
1 -> 9601 ;
9602 [label="7_G <= 0.5\nentropy = 0.996\nsamples = 5068\nvalue = [4282, 3688]\nclass = Animal", fillcolor="#fbeee4"] ;
9601 -> 9602 ;
9603 [label="(...)", fillcolor="#C0C0C0"] ;
9602 -> 9603 ;
11286 [label="(...)", fillcolor="#C0C0C0"] ;
9602 -> 11286 ;
11845 [label="7_G <= 0.5\nentropy = 0.745\nsamples = 1451\nvalue = [1817, 488]\nclass = Animal", fillcolor="#eca36e"] ;
9601 -> 11845 ;
11846 [label="(...)", fillcolor="#C0C0C0"] ;
11845 -> 11846 ;
12331 [label="(...)", fillcolor="#C0C0C0"] ;
11845 -> 12331 ;
12488 [label="2_U <= 0.5\nentropy = 0.935\nsamples = 8978\nvalue = [9129, 4950]\nclass = Animal", fillcolor="#f3c5a4"] ;
0 -> 12488 [labeldistance=2.5, labelangle=-45, headlabel="False"] ;
12489 [label="22_U <= 0.5\nentropy = 0.918\nsamples = 6826\nvalue = [7152, 3579]\nclass = Animal", fillcolor="#f2c09c"] ;
12488 -> 12489 ;
12490 [label="17_A <= 0.5\nentropy = 0.956\nsamples = 5710\nvalue = [5604, 3388]\nclass = Animal", fillcolor="#f5cdb1"] ;
12489 -> 12490 ;
12491 [label="(...)", fillcolor="#C0C0C0"] ;
12490 -> 12491 ;
14654 [label="(...)", fillcolor="#C0C0C0"] ;
12490 -> 14654 ;
15301 [label="13_G <= 0.5\nentropy = 0.499\nsamples = 1116\nvalue = [1548, 191]\nclass = Animal", fillcolor="#e89151"] ;
12489 -> 15301 ;
15302 [label="(...)", fillcolor="#C0C0C0"] ;
15301 -> 15302 ;
15535 [label="(...)", fillcolor="#C0C0C0"] ;
15301 -> 15535 ;
15642 [label="20_G <= 0.5\nentropy = 0.976\nsamples = 2152\nvalue = [1977, 1371]\nclass = Animal", fillcolor="#f7d8c2"] ;
12488 -> 15642 ;
15643 [label="22_U <= 0.5\nentropy = 0.987\nsamples = 1551\nvalue = [1366, 1041]\nclass = Animal", fillcolor="#f9e1d0"] ;
15642 -> 15643 ;
15644 [label="(...)", fillcolor="#C0C0C0"] ;
15643 -> 15644 ;
16409 [label="(...)", fillcolor="#C0C0C0"] ;
15643 -> 16409 ;
16488 [label="7_G <= 0.5\nentropy = 0.935\nsamples = 601\nvalue = [611, 330]\nclass = Animal", fillcolor="#f3c5a4"] ;
15642 -> 16488 ;
16489 [label="(...)", fillcolor="#C0C0C0"] ;
16488 -> 16489 ;
16732 [label="(...)", fillcolor="#C0C0C0"] ;
16488 -> 16732 ;
}