digraph Tree {
node [shape=box, style="filled, rounded", color="black", fontname="helvetica"] ;
edge [fontname="helvetica"] ;
0 [label="2_A <= 0.5\nentropy = 1.0\nsamples = 38129\nvalue = [30173, 30172]\nclass = Animal", fillcolor="#ffffff"] ;
1 [label="23_U <= 0.5\nentropy = 0.995\nsamples = 29124\nvalue = [21081, 24959]\nclass = Plant", fillcolor="#e0f0fb"] ;
0 -> 1 [labeldistance=2.5, labelangle=45, headlabel="True"] ;
2 [label="8_G <= 0.5\nentropy = 0.989\nsamples = 27691\nvalue = [19238, 24543]\nclass = Plant", fillcolor="#d4eaf9"] ;
1 -> 2 ;
3 [label="22_A <= 0.5\nentropy = 0.999\nsamples = 18819\nvalue = [14271, 15502]\nclass = Plant", fillcolor="#eff7fd"] ;
2 -> 3 ;
4 [label="(...)", fillcolor="#C0C0C0"] ;
3 -> 4 ;
7985 [label="(...)", fillcolor="#C0C0C0"] ;
3 -> 7985 ;
8876 [label="4_A <= 0.5\nentropy = 0.938\nsamples = 8872\nvalue = [4967, 9041]\nclass = Plant", fillcolor="#a6d3f3"] ;
2 -> 8876 ;
8877 [label="(...)", fillcolor="#C0C0C0"] ;
8876 -> 8877 ;
11478 [label="(...)", fillcolor="#C0C0C0"] ;
8876 -> 11478 ;
12199 [label="24_A <= 0.5\nentropy = 0.689\nsamples = 1433\nvalue = [1843, 416]\nclass = Animal", fillcolor="#eb9d66"] ;
1 -> 12199 ;
12200 [label="26_U <= 0.5\nentropy = 0.641\nsamples = 1351\nvalue = [1786, 347]\nclass = Animal", fillcolor="#ea995f"] ;
12199 -> 12200 ;
12201 [label="(...)", fillcolor="#C0C0C0"] ;
12200 -> 12201 ;
12696 [label="(...)", fillcolor="#C0C0C0"] ;
12200 -> 12696 ;
12705 [label="2_G <= 0.5\nentropy = 0.993\nsamples = 82\nvalue = [57, 69]\nclass = Plant", fillcolor="#ddeefa"] ;
12199 -> 12705 ;
12706 [label="(...)", fillcolor="#C0C0C0"] ;
12705 -> 12706 ;
12741 [label="(...)", fillcolor="#C0C0C0"] ;
12705 -> 12741 ;
12764 [label="17_G <= 0.5\nentropy = 0.946\nsamples = 9005\nvalue = [9092, 5213]\nclass = Animal", fillcolor="#f4c9ab"] ;
0 -> 12764 [labeldistance=2.5, labelangle=-45, headlabel="False"] ;
12765 [label="13_A <= 0.5\nentropy = 0.875\nsamples = 5897\nvalue = [6633, 2776]\nclass = Animal", fillcolor="#f0b68c"] ;
12764 -> 12765 ;
12766 [label="10_C <= 0.5\nentropy = 0.902\nsamples = 4061\nvalue = [4386, 2040]\nclass = Animal", fillcolor="#f1bc95"] ;
12765 -> 12766 ;
12767 [label="(...)", fillcolor="#C0C0C0"] ;
12766 -> 12767 ;
14410 [label="(...)", fillcolor="#C0C0C0"] ;
12766 -> 14410 ;
14879 [label="5_A <= 0.5\nentropy = 0.806\nsamples = 1836\nvalue = [2247, 736]\nclass = Animal", fillcolor="#eeaa7a"] ;
12765 -> 14879 ;
14880 [label="(...)", fillcolor="#C0C0C0"] ;
14879 -> 14880 ;
15467 [label="(...)", fillcolor="#C0C0C0"] ;
14879 -> 15467 ;
15674 [label="3_G <= 0.5\nentropy = 1.0\nsamples = 3108\nvalue = [2459, 2437]\nclass = Animal", fillcolor="#fffefd"] ;
12764 -> 15674 ;
15675 [label="15_A <= 0.5\nentropy = 0.906\nsamples = 1741\nvalue = [1869, 885]\nclass = Animal", fillcolor="#f1bd97"] ;
15674 -> 15675 ;
15676 [label="(...)", fillcolor="#C0C0C0"] ;
15675 -> 15676 ;
16273 [label="(...)", fillcolor="#C0C0C0"] ;
15675 -> 16273 ;
16484 [label="4_C <= 0.5\nentropy = 0.849\nsamples = 1367\nvalue = [590, 1552]\nclass = Plant", fillcolor="#84c2ef"] ;
15674 -> 16484 ;
16485 [label="(...)", fillcolor="#C0C0C0"] ;
16484 -> 16485 ;
16698 [label="(...)", fillcolor="#C0C0C0"] ;
16484 -> 16698 ;
}