digraph Tree {
node [shape=box, style="filled, rounded", color="black", fontname="helvetica"] ;
edge [fontname="helvetica"] ;
0 [label="6_A <= 0.5\nentropy = 1.0\nsamples = 38182\nvalue = [29999, 30346]\nclass = Plant", fillcolor="#fdfeff"] ;
1 [label="8_C <= 0.5\nentropy = 0.999\nsamples = 28627\nvalue = [23609, 21714]\nclass = Animal", fillcolor="#fdf5ef"] ;
0 -> 1 [labeldistance=2.5, labelangle=45, headlabel="True"] ;
2 [label="18_C <= 0.5\nentropy = 1.0\nsamples = 22511\nvalue = [17731, 17872]\nclass = Plant", fillcolor="#fdfeff"] ;
1 -> 2 ;
3 [label="19_U <= 0.5\nentropy = 0.994\nsamples = 16350\nvalue = [14073, 11775]\nclass = Animal", fillcolor="#fbeadf"] ;
2 -> 3 ;
4 [label="(...)", fillcolor="#C0C0C0"] ;
3 -> 4 ;
5875 [label="(...)", fillcolor="#C0C0C0"] ;
3 -> 5875 ;
7744 [label="23_U <= 0.5\nentropy = 0.954\nsamples = 6161\nvalue = [3658, 6097]\nclass = Plant", fillcolor="#b0d8f5"] ;
2 -> 7744 ;
7745 [label="(...)", fillcolor="#C0C0C0"] ;
7744 -> 7745 ;
9886 [label="(...)", fillcolor="#C0C0C0"] ;
7744 -> 9886 ;
9975 [label="3_C <= 0.5\nentropy = 0.968\nsamples = 6116\nvalue = [5878, 3842]\nclass = Animal", fillcolor="#f6d3ba"] ;
1 -> 9975 ;
9976 [label="5_C <= 0.5\nentropy = 0.936\nsamples = 4660\nvalue = [4767, 2592]\nclass = Animal", fillcolor="#f3c6a5"] ;
9975 -> 9976 ;
9977 [label="(...)", fillcolor="#C0C0C0"] ;
9976 -> 9977 ;
11770 [label="(...)", fillcolor="#C0C0C0"] ;
9976 -> 11770 ;
12219 [label="22_U <= 0.5\nentropy = 0.997\nsamples = 1456\nvalue = [1111, 1250]\nclass = Plant", fillcolor="#e9f4fc"] ;
9975 -> 12219 ;
12220 [label="(...)", fillcolor="#C0C0C0"] ;
12219 -> 12220 ;
12765 [label="(...)", fillcolor="#C0C0C0"] ;
12219 -> 12765 ;
12820 [label="5_U <= 0.5\nentropy = 0.984\nsamples = 9555\nvalue = [6390, 8632]\nclass = Plant", fillcolor="#cce6f8"] ;
0 -> 12820 [labeldistance=2.5, labelangle=-45, headlabel="False"] ;
12821 [label="10_C <= 0.5\nentropy = 0.966\nsamples = 8113\nvalue = [4983, 7750]\nclass = Plant", fillcolor="#b8dcf6"] ;
12820 -> 12821 ;
12822 [label="22_G <= 0.5\nentropy = 0.926\nsamples = 6810\nvalue = [3641, 7022]\nclass = Plant", fillcolor="#a0d0f2"] ;
12821 -> 12822 ;
12823 [label="(...)", fillcolor="#C0C0C0"] ;
12822 -> 12823 ;
15062 [label="(...)", fillcolor="#C0C0C0"] ;
12822 -> 15062 ;
15313 [label="4_C <= 0.5\nentropy = 0.936\nsamples = 1303\nvalue = [1342, 728]\nclass = Animal", fillcolor="#f3c5a4"] ;
12821 -> 15313 ;
15314 [label="(...)", fillcolor="#C0C0C0"] ;
15313 -> 15314 ;
15855 [label="(...)", fillcolor="#C0C0C0"] ;
15313 -> 15855 ;
16032 [label="3_G <= 0.5\nentropy = 0.962\nsamples = 1442\nvalue = [1407, 882]\nclass = Animal", fillcolor="#f5d0b5"] ;
12820 -> 16032 ;
16033 [label="23_U <= 0.5\nentropy = 0.898\nsamples = 1044\nvalue = [1136, 520]\nclass = Animal", fillcolor="#f1bb94"] ;
16032 -> 16033 ;
16034 [label="(...)", fillcolor="#C0C0C0"] ;
16033 -> 16034 ;
16519 [label="(...)", fillcolor="#C0C0C0"] ;
16033 -> 16519 ;
16538 [label="9_C <= 0.5\nentropy = 0.985\nsamples = 398\nvalue = [271, 362]\nclass = Plant", fillcolor="#cde6f8"] ;
16032 -> 16538 ;
16539 [label="(...)", fillcolor="#C0C0C0"] ;
16538 -> 16539 ;
16668 [label="(...)", fillcolor="#C0C0C0"] ;
16538 -> 16668 ;
}