digraph Tree {
node [shape=box, style="filled, rounded", color="black", fontname="helvetica"] ;
edge [fontname="helvetica"] ;
0 [label="3_U <= 0.5\nentropy = 1.0\nsamples = 38152\nvalue = [30514, 29831]\nclass = Animal", fillcolor="#fefcfb"] ;
1 [label="18_C <= 0.5\nentropy = 1.0\nsamples = 30121\nvalue = [23270, 24420]\nclass = Plant", fillcolor="#f6fafe"] ;
0 -> 1 [labeldistance=2.5, labelangle=45, headlabel="True"] ;
2 [label="22_A <= 0.5\nentropy = 0.996\nsamples = 21722\nvalue = [18401, 16000]\nclass = Animal", fillcolor="#fcefe5"] ;
1 -> 2 ;
3 [label="23_C <= 0.5\nentropy = 1.0\nsamples = 19221\nvalue = [15527, 14905]\nclass = Animal", fillcolor="#fefaf7"] ;
2 -> 3 ;
4 [label="(...)", fillcolor="#C0C0C0"] ;
3 -> 4 ;
8341 [label="(...)", fillcolor="#C0C0C0"] ;
3 -> 8341 ;
8602 [label="20_C <= 0.5\nentropy = 0.85\nsamples = 2501\nvalue = [2874, 1095]\nclass = Animal", fillcolor="#efb184"] ;
2 -> 8602 ;
8603 [label="(...)", fillcolor="#C0C0C0"] ;
8602 -> 8603 ;
9436 [label="(...)", fillcolor="#C0C0C0"] ;
8602 -> 9436 ;
9685 [label="19_U <= 0.5\nentropy = 0.948\nsamples = 8399\nvalue = [4869, 8420]\nclass = Plant", fillcolor="#abd6f4"] ;
1 -> 9685 ;
9686 [label="5_G <= 0.5\nentropy = 0.877\nsamples = 6369\nvalue = [2995, 7102]\nclass = Plant", fillcolor="#8cc6f0"] ;
9685 -> 9686 ;
9687 [label="(...)", fillcolor="#C0C0C0"] ;
9686 -> 9687 ;
11118 [label="(...)", fillcolor="#C0C0C0"] ;
9686 -> 11118 ;
11691 [label="17_A <= 0.5\nentropy = 0.978\nsamples = 2030\nvalue = [1874, 1318]\nclass = Animal", fillcolor="#f7dac4"] ;
9685 -> 11691 ;
11692 [label="(...)", fillcolor="#C0C0C0"] ;
11691 -> 11692 ;
12407 [label="(...)", fillcolor="#C0C0C0"] ;
11691 -> 12407 ;
12616 [label="2_A <= 0.5\nentropy = 0.985\nsamples = 8031\nvalue = [7244, 5411]\nclass = Animal", fillcolor="#f8dfcd"] ;
0 -> 12616 [labeldistance=2.5, labelangle=-45, headlabel="False"] ;
12617 [label="19_C <= 0.5\nentropy = 0.997\nsamples = 6095\nvalue = [5118, 4480]\nclass = Animal", fillcolor="#fcefe6"] ;
12616 -> 12617 ;
12618 [label="22_G <= 0.5\nentropy = 0.987\nsamples = 4324\nvalue = [3850, 2931]\nclass = Animal", fillcolor="#f9e1d0"] ;
12617 -> 12618 ;
12619 [label="(...)", fillcolor="#C0C0C0"] ;
12618 -> 12619 ;
14750 [label="(...)", fillcolor="#C0C0C0"] ;
12618 -> 14750 ;
15013 [label="15_U <= 0.5\nentropy = 0.993\nsamples = 1771\nvalue = [1268, 1549]\nclass = Plant", fillcolor="#dbedfa"] ;
12617 -> 15013 ;
15014 [label="(...)", fillcolor="#C0C0C0"] ;
15013 -> 15014 ;
15621 [label="(...)", fillcolor="#C0C0C0"] ;
15013 -> 15621 ;
15852 [label="22_C <= 0.5\nentropy = 0.887\nsamples = 1936\nvalue = [2126, 931]\nclass = Animal", fillcolor="#f0b890"] ;
12616 -> 15852 ;
15853 [label="6_C <= 0.5\nentropy = 0.903\nsamples = 1738\nvalue = [1873, 875]\nclass = Animal", fillcolor="#f1bc95"] ;
15852 -> 15853 ;
15854 [label="(...)", fillcolor="#C0C0C0"] ;
15853 -> 15854 ;
16535 [label="(...)", fillcolor="#C0C0C0"] ;
15853 -> 16535 ;
16702 [label="4_U <= 0.5\nentropy = 0.683\nsamples = 198\nvalue = [253, 56]\nclass = Animal", fillcolor="#eb9d65"] ;
15852 -> 16702 ;
16703 [label="(...)", fillcolor="#C0C0C0"] ;
16702 -> 16703 ;
16786 [label="(...)", fillcolor="#C0C0C0"] ;
16702 -> 16786 ;
}